39200
0.135432
-0.00870374
0.0627729
-0.0330626
0.068527
-0.31527
0.0477189
0.160261
0.213932
-0.0874642
0.109755
0.370767
-0.0980037
0.0285033
0.185044
0.212305
0.102171
0.00628032
-0.080266
-0.123675
-0.104044
-0.0421045
0.0967641
-0.237654
0.214506
0.125516
0.169654
-0.214515
-0.218025
-0.13156
-0.0335613
0.0494967
-0.0609469
-0.122637
-0.198849
-0.11799
-0.40159
0.306126
0.242295
-0.216136
0.133852
0.00529051
-0.0389495
-0.158921
-0.134615
-0.0277304
0.0293904
0.043378
0.101366
0.00669025
0.163436
0.0478772
0.101435
-0.127224
-0.0244544
-0.110554
0.188787
0.0380949
-0.160828
0.0854652
0.140692
0.0392381
0.163685
-0.295662
-0.0352649
0.185642
-0.120093
-0.194434
-0.124556
-0.0718804
-0.0532248
0.202425
-0.0999527
0.0850091
-0.0240898
0.108194
-0.0163791
0.0593814
0.186127
-0.0329983
0.101237
-0.0907159
0.0287667
0.224672
-0.146432
0.255274
-0.156953
-0.0939442
-0.136499
0.240812
-0.19202
-0.182173
-0.100887
0.0566265
-0.231899
0.158804
-0.225117
0.112908
0.040115
0.0108566
-0.0074002
-0.00906404
-0.335228
0.0564053
-0.213749
-0.223939
0.0782237
-0.00038284
-0.129135
-0.144525
0.148426
0.088042
-0.104746
0.0440545
0.0578063
-0.29116
0.0321469
-0.0931988
0.0651555
0.0457782
0.239527
-0.122118
-0.280762
0.263548
0.174677
-0.0465459
-0.154705
0.177843
0.361588
-0.20388
0.0436782
0.0137558
-0.0151847
0.0395994
-0.137481
-0.0939077
0.0894485
0.0999234
-0.000493383
-0.0849765
0.154145
0.00510245
-0.0433691
-0.221243
0.00169088
-0.081272
-0.160883
-0.121332
0.125865
-0.0504903
0.140934
-0.0596226
0.0747942
0.230301
-0.0857088
0.231108
-0.184683
0.136851
0.230289
-0.0666571
-0.367824
-0.38303
0.0384252
-0.0682542
-0.0933843
0.0544778
0.185242
-0.0462231
-0.0258532
0.147979
0.0595413
0.248835
0.0771046
-0.120745
-0.0128447
0.4866
0.16381
0.354049
-0.042991
-0.176761
0.105052
-0.304739
0.333585
-0.146817
0.119173
0.185815
-0.0294481
0.0879902
0.106767
-0.101814
0.0617548
0.151043
0.286836
-0.11594
0.130144
0.0925603
-0.145714
-0.017346
0.206755
-0.107027
0.0202802
-0.0556718
-0.266038
0.117269
-0.0692822
-0.042326
-0.0681369
-0.165889
-0.199159
-0.187247
0.149774
0.121958
0.12032
0.134184
-0.403716
0.0972058
0.161081
-0.092441
0.0960616
0.118985
0.412495
-0.0651292
-0.092185
-0.0888958
0.00052713
0.0379148
0.04559
-0.0431962
0.00269533
-0.174604
0.0529912
-0.0321286
-0.0898559
0.0391277
-0.0532266
0.114955
-0.316134
0.107351
-0.0465325
0.0182321
-0.109766
-0.177047
0.0984808
-0.353709
-0.155501
0.0188308
0.264257
-0.0430032
-0.255049
0.0811892
-0.17647
0.098585
0.302744
0.141401
0.146081
-0.0539041
-0.0415445
-0.235465
-0.186809
0.0421322
-0.0839357
-0.199024
-0.216028
-0.0349557
0.393707
0.170866
0.0297929
-0.034033
-0.0832857
-0.0633086
0.101918
-0.188692
-0.0596738
-0.0702707
-0.317913
-0.156663
0.127547
-0.0821234
0.076593
0.0811485
-0.0823191
0.0373273
-0.157785
0.154113
-0.227523
0.0781176
0.239231
0.010792
-0.298628
0.100486
0.0527293
-0.14943
0.0473281
0.248368
-0.0285212
0.239377
-0.270418
-0.205376
-0.340379
0.072113
-0.0373476
-0.211366
0.104086
0.301184
0.223181
-0.0960633
0.139957
0.00286172
-0.0479246
-0.0140952
0.113359
0.143403
-0.10219
0.0747193
0.123262
-0.0141576
0.0137969
0.0406696
0.134489
0.210996
-0.115821
0.0424317
0.146465
-0.106838
-0.192716
-0.127197
0.00383967
0.0547958
-0.0886569
-0.105079
-0.0426805
0.201435
0.315587
0.0779033
0.122087
0.119066
-0.253575
0.0962101
0.022712
0.381571
-0.0235407
0.00533111
0.11536
0.21737
0.415269
0.0181441
0.19467
-0.0478635
0.229835
0.0219021
-0.0960431
-0.0269394
-0.236986
-0.0122349
0.200547
0.0652339
-0.0560089
0.0756671
-0.166938
0.0162799
0.314851
0.417705
0.075979
-0.0284235
-0.0913962
-0.382281
-0.119301
0.292864
0.170216
-0.250598
-0.0907249
-0.0251896
-0.0177638
0.214276
-0.191722
-0.0365589
-0.0134364
0.141294
0.174832
-0.0842768
0.175039
0.0701694
0.0885361
-0.0814346
-0.0830449
-0.300438
-0.210273
-0.124523
0.103167
0.129888
0.132839
-0.222403
-0.0529419
0.0930825
-0.329811
-0.0511326
0.139765
-0.0174488
0.131736
0.0258558
-0.271667
0.178539
-0.184561
-0.18108
0.226899
-0.202445
0.0469907
0.0820202
-0.0515812
-0.268561
-0.238504
0.0222269
0.0613418
0.162783
-0.066973
-0.0438911
0.343708
0.100192
-0.115744
0.160442
-0.0385851
-0.0760557
-0.199351
-0.267844
-0.0338477
-0.00956962
0.184988
0.101125
0.119483
0.102376
-0.0579218
-0.0732451
-0.141271
-0.00230423
0.0153455
0.104811
-0.0828158
0.0604443
0.189492
0.0804514
0.212927
-0.166714
0.106027
0.0043504
-0.0447319
0.290085
0.0217565
-0.112813
0.164572
-0.234898
0.00380998
-0.102473
-0.110573
0.294338
0.11978
0.0984704
-0.0428071
0.080391
0.169978
0.0568213
-0.0430454
0.022975
-0.0561946
-0.201305
-0.0828628
-0.335879
0.359454
0.106912
0.126257
0.20726
0.183618
0.0737607
-0.312282
0.214749
-0.00768268
0.241878
-0.141021
-0.020192
0.333738
-0.0714051
0.108747
-0.104564
0.244696
0.169582
0.189661
-0.290825
0.0174758
-0.0138163
-0.168809
-0.282386
-0.152697
-0.0429361
0.00729277
-0.143099
0.0361585
-0.0188993
-0.136995
-0.187047
-0.0519481
0.177243
0.0770946
-0.118436
-0.163795
-0.159824
-0.251691
0.0392626
0.23854
0.0737236
-0.221266
0.0160331
0.0680522
0.0408798
-0.105389
-0.121415
-0.0956206
-0.018337
-0.102449
0.186186
0.0871751
-0.0103336
-0.144483
-0.100013
0.0774082
-0.275208
-0.060989
-0.0627475
-0.121488
0.0808448
-0.248356
0.0649785
0.209789
0.0109549
0.234001
-0.162283
0.125435
0.239436
0.0178515
-0.141655
-0.0693767
-0.0600985
-0.278487
-0.207417
0.333607
0.137877
0.129175
-0.0256006
0.0299531
-0.0123387
0.229654
-0.051874
0.0758039
-0.0871518
0.184388
0.0285109
0.0629538
-0.00405303
-0.0332169
0.162926
0.0381724
0.0998351
0.0184296
0.173069
-0.11191
-0.121819
0.13159
0.0682321
-0.116442
0.151087
-0.157719
-0.238294
0.0391827
-0.0485577
0.213809
0.180745
0.120207
-0.0300488
0.0923158
-0.0258527
0.0127449
-0.167615
-0.0316798
0.102488
-0.0905818
-0.183776
0.14903
-0.140428
0.206081
-0.335407
-0.196398
0.0917195
-0.00507218
0.204484
0.135906
-0.102438
-0.0235786
0.118977
-0.142689
0.0415862
0.06979
0.0253039
-0.146123
-0.138704
-0.0826366
-0.445654
-0.0200397
0.178553
0.0873161
-0.0128753
-0.145551
-0.0808416
0.0517064
0.0736687
0.158739
-0.197985
-0.0424357
-0.00611759
0.317023
-0.203013
0.257251
-0.317743
0.0103384
0.0176673
-0.17244
-0.0972358
0.000642919
0.155248
0.0133457
0.0510787
-0.0398859
0.0199476
0.017972
-0.169532
0.291144
-0.396509
0.160936
0.244739
0.16103
-0.00687762
0.171063
0.099838
-0.111337
-0.208033
0.1371
-0.0201113
-0.219262
-0.0241328
-0.00363688
-0.00315936
-0.0569351
-0.382105
-0.0857517
-0.046069
-0.0741419
-0.00468703
-0.0872131
-0.014148
0.0362608
0.09655
-0.0690445
0.371647
-0.0610678
-0.240183
0.164655
-0.123943
0.0949851
-0.125145
0.511166
0.0287751
0.148888
-0.188365
0.140812
0.158161
-0.00242432
-0.0406145
-0.0391994
-0.0355682
-0.029138
-0.259611
-0.105036
-0.0977264
0.181684
-0.146188
0.055438
0.263155
0.215917
-0.129584
0.101863
0.0552567
0.159508
0.0872784
-0.121864
0.106969
0.0792353
0.0280366
0.24179
-0.396075
0.0408509
0.118295
-0.188449
0.241517
-0.167376
0.0365276
0.062561
0.0337199
0.0541657
-0.00422041
-0.107531
-0.223972
0.248485
0.102348
0.137206
-0.183929
-0.135705
-0.185661
-0.295331
0.110805
0.101854
0.230347
0.0448741
-0.0622729
0.0452555
-0.195638
-0.323456
-0.058214
0.217253
-0.0950408
0.134186
0.483384
-0.0493235
0.0212429
0.0388105
0.10835
-0.129951
0.0958542
0.195015
-0.137187
-0.0548827
-0.0986413
0.0230222
0.0836896
-0.0174987
0.293458
0.0241962
0.117281
0.0259777
0.111313
0.0955924
-0.174516
-0.152491
-0.103581
0.00166078
-0.129013
-0.0146165
-0.0275427
0.120399
0.170333
0.123722
-0.196473
-0.0999487
-0.0908907
-0.200173
0.234994
-0.0106792
-0.0457259
0.138364
-0.154355
-0.098768
-0.0517363
-0.00624617
-0.0995058
0.129243
-0.06723
-0.0800908
-0.178338
-0.224241
-0.122558
-0.1149
-0.174553
-0.123005
0.288019
-0.10478
-0.0396638
0.214348
0.0980957
0.342251
0.0945078
-0.00399552
0.227471
0.044152
0.386624
0.201635
-0.175411
-0.079002
-0.18154
-0.0496951
0.211589
-0.207628
-0.118979
-0.0204605
-0.0275502
0.0215335
0.127675
-0.0534665
0.135165
0.00149795
-0.265649
0.320931
0.0357846
0.0944386
-0.096358
0.13026
-0.018623
-0.232939
0.191142
-0.0151725
-0.094876
-0.275779
-0.0508696
0.0500852
-0.00160255
-0.250265
0.171889
0.0806146
-0.11815
0.297813
0.0206519
0.070366
-0.201836
0.0135929
0.337168
-0.0240655
0.0688271
0.0381787
0.195994
0.215203
-0.00949881
-0.00310488
0.102331
-0.0930431
-0.197735
0.0493693
0.155192
-0.0821521
-0.271373
0.253659
-0.0305475
-0.0120561
0.0534985
-0.139573
0.277682
0.0422155
-0.181633
0.153339
-0.116888
-0.250952
0.285049
0.0537838
0.0558608
0.188408
-0.367888
-0.113105
0.0123114
-0.108013
-0.145287
0.0650962
-0.146998
0.264143
-0.0605892
0.149634
-0.00297061
0.0590732
-0.132694
0.0612737
-0.0234762
-0.204372
-0.260926
0.0714596
0.325297
-0.241209
0.139128
-0.166104
0.0131555
-0.229585
0.144537
-0.004931
-0.0646262
-0.0379646
0.25046
0.275658
-0.0366291
-0.207708
0.0508157
-0.173682
0.0938691
0.0611378
-0.0528526
0.00776923
-0.148886
0.0260215
-0.0484177
-0.101238
0.294606
0.0649649
0.0477173
-0.122887
-0.170552
0.15501
0.0183183
0.00668765
0.145397
-0.22737
-0.118865
-0.044132
0.243536
-0.238651
-0.333016
0.109476
-0.345722
-0.125742
0.0123763
-0.0899376
0.112031
0.021259
-0.10473
-0.11526
-0.166172
0.0422906
0.0451072
-0.337013
-0.200902
0.0800901
0.245257
-0.519257
0.0875398
-0.388755
-0.176279
-0.0602515
-0.21047
0.0736006
-0.0279933
-0.0688353
0.0686178
0.0406399
-0.0623247
-0.257361
0.0424186
-0.0850654
0.283926
-0.123712
0.213611
0.066632
0.0237829
-0.0677383
0.222303
-0.221073
0.0047654
-0.103265
-0.123551
-0.184089
-0.0512749
-0.0128759
0.135858
-0.425882
-0.00802031
0.303543
-0.19322
-0.00977843
-0.0578711
-0.0449444
0.357807
-0.0145506
-0.0449315
-0.127516
0.0221982
0.171022
0.245486
0.0874633
-0.0675646
-0.192917
0.119066
-0.0247843
-0.0372273
-0.0587935
0.0936808
-0.077998
-0.138638
0.0471333
0.0682188
-0.185499
-0.0785442
0.0229683
0.0358625
0.413511
-0.0244284
0.182115
0.0306317
0.456372
0.12219
0.0710851
-0.0359996
0.254475
-0.127233
0.0781794
-0.0639662
0.172436
0.0982247
0.0297701
0.158237
0.0608673
-0.13098
0.100502
-0.160441
-0.36483
0.0301123
-0.120919
0.227926
0.174235
0.0925642
-0.106146
0.247509
0.358504
-0.0290392
-0.0278358
-0.092335
0.160494
0.00435967
0.115073
-0.0460966
0.0790621
-0.0438179
0.0185547
0.0281791
-0.0739712
0.0222845
0.221781
-0.0447275
-0.0428729
0.195336
0.0983217
0.100932
-0.146549
-0.171427
0.175416
-0.158357
0.394803
0.00124701
-0.0378794
0.169613
-0.0299883
-0.0538104
-0.118704
-0.134363
0.334214
0.0559278
0.278497
-0.360909
-0.39276
0.111035
-0.101281
-0.215721
0.164735
0.213803
0.0471458
-0.120318
-0.120653
-0.196203
-0.0491735
-0.210408
0.0830664
0.00787393
-0.0998503
-0.0722652
0.0774916
-0.0332949
0.116549
0.185241
0.0458615
0.196839
0.0774248
0.0858663
0.278681
0.141445
-0.073883
0.377472
0.0361
-0.03827
-0.133505
0.0673167
0.145386
-0.319331
0.0515587
-0.0858357
0.0438984
-0.0868864
0.460063
0.0876886
0.0213622
0.1404
-0.0989033
-0.132415
-0.120434
-0.0305485
0.246184
-0.00704685
0.0769144
0.0490151
-0.00359784
-0.262669
0.187188
0.156159
-0.0805647
0.0724439
-0.334386
-0.0128191
0.042361
-0.0877044
0.0194407
0.0379991
0.112103
-0.222726
-0.0398334
0.0320716
0.410743
-0.1155
0.176578
0.189706
0.125458
-0.0129961
-0.0824766
0.112107
-0.0182414
0.023106
0.137684
0.138726
0.127369
-0.0207168
0.30734
0.122897
0.299061
0.0551699
0.0138646
0.0314774
-0.00347566
0.0168635
-0.102392
-0.0879009
0.0267221
-0.131214
-0.122629
-0.108663
-0.0931092
-0.132516
0.23695
0.0833195
0.14235
-0.018987
-0.0864126
0.0333678
0.220343
0.0407739
0.156605
0.129262
-0.0486628
-0.0334674
-0.152347
-0.0353509
0.0288936
0.0153095
0.1632
-0.108365
0.161096
0.148453
0.0718965
-0.0125914
0.149486
-0.174784
0.00172314
0.0756112
-0.347672
0.0293817
-0.0368556
0.0289605
-0.28223
0.131128
0.018203
0.0282824
-0.0733461
0.019923
0.101431
0.261763
0.0462726
-0.0920308
0.122968
-0.0424155
-0.0158404
-0.229956
0.0673769
-0.118898
0.0960273
0.0519239
0.148068
-0.0921091
0.0394918
0.197888
-0.0629124
0.0698434
-0.258113
0.0325433
-0.14577
0.124002
-0.0151245
0.0521661
-0.147419
-0.159652
-0.273398
0.0888499
0.0599873
-0.173648
0.0205011
0.0272984
-0.0469217
0.0674871
0.136952
0.22559
-0.0973607
0.0541705
-0.210098
0.206314
0.0462767
0.188713
0.372939
0.0409661
-0.249335
0.159993
0.156282
-0.219177
-0.23317
0.129398
-0.130617
-0.246684
0.129285
-0.249738
0.335749
-0.247772
0.0410101
-0.296853
0.214523
-0.0234092
0.194317
-0.121373
-0.0580098
-0.165394
0.0161894
0.0827184
-0.0753532
-0.139727
-0.379468
-0.135872
-0.0104017
-0.0373052
0.0769818
0.172882
-0.0389702
0.0706442
0.149455
-0.031962
-0.141865
-0.0684243
0.164807
0.208857
0.12215
-0.348828
-0.204019
-0.126473
0.0503231
0.095874
-0.245792
0.0648102
0.350208
-0.24177
-0.211796
0.0150603
0.181325
0.00412916
0.122073
0.149325
0.164094
0.00759519
-0.0441643
-0.201869
0.164591
-0.194205
0.0215776
-0.00107364
0.184188
0.0390733
0.33519
-0.0340182
-0.167435
0.106239
0.107308
-0.227214
0.101523
-0.177284
-0.115765
-0.163947
0.136515
-0.158775
0.129006
0.0871827
-0.314404
0.486152
-0.00479771
-0.17871
-0.363547
0.249302
-0.0273673
-0.342248
-0.11195
-0.00924699
-0.126161
0.201034
-0.0588432
-0.0870652
0.22718
-0.0490722
-0.0422587
-0.163268
-0.161556
0.0367153
-0.265346
0.0698131
-0.186547
-0.0212568
0.123788
0.0886355
-0.0884897
0.135448
-0.263563
-0.0763925
0.00823734
-0.10314
0.0298106
-0.134012
0.255808
-0.293347
0.0657136
0.0369989
-0.344367
0.137691
-0.143628
-0.0696835
-0.126226
0.0221659
-0.112201
-0.0652944
0.113781
0.21291
0.144214
-0.0427699
-0.0815194
-0.0812646
0.111336
-0.0883131
-0.166387
0.13345
-0.0429365
-0.042364
-0.269387
0.230917
0.188131
-0.110842
0.231272
0.0354879
0.0983002
0.0122112
0.0543021
-0.185525
-0.178217
-0.00386396
0.145122
-0.283091
-0.194337
-0.0708543
0.0149594
0.133485
-0.271622
0.00648022
-0.187508
0.23295
0.0282767
-0.0545179
0.0945556
-0.132075
-0.216366
-0.106938
0.0607179
0.0986303
-0.127593
-0.0507779
0.166485
-0.217243
0.139998
-0.0366548
0.173851
-0.0702005
-0.400257
0.0299168
0.00730047
-0.0520929
-0.0915575
0.0803447
-0.0838616
0.125028
-0.085451
-0.0112533
-0.287354
-0.247719
0.080939
0.115756
-0.0703443
0.17872
0.0493387
0.166014
-0.0894546
-0.0726533
0.00825843
0.127838
0.105122
0.0313053
-0.0219164
0.150142
-0.047413
0.219137
0.112778
-0.140419
-0.277619
-0.0696067
0.0291881
0.274581
0.24836
0.0556119
-0.0870078
0.145172
0.113271
0.1998
-0.100714
-0.261975
0.195173
-0.0233673
0.0104124
0.233748
-0.187523
0.133901
-0.157424
0.206548
-0.101511
-0.0202718
0.0814472
-0.0415483
-0.0395714
0.0649726
0.193139
-0.338835
0.158313
-0.198321
0.23723
0.255887
-0.413435
-0.319757
-0.110873
-0.20701
-0.0664498
-0.112944
0.0576383
0.168652
-0.060628
0.146733
-0.0837897
0.157545
0.166861
-0.314668
-0.0124477
0.193735
-0.00180775
0.112914
0.0271173
0.240693
-0.0373994
0.119086
0.298754
0.0284244
0.0505141
0.204496
0.166267
-0.147128
-0.102572
-0.117443
-0.130933
-0.00450883
-0.0422327
0.0297491
0.225411
-0.170994
-0.195829
-0.0196559
0.31582
0.16057
0.105212
0.0265921
0.199527
0.0845906
0.0109978
-0.0681072
-0.0628777
-0.191313
-0.0491553
-0.316097
-0.16618
0.0450574
-0.0290953
-0.200469
0.406372
-0.114881
-0.151898
-0.0566905
0.140037
-0.166943
-0.0228198
0.0572141
0.126842
0.201598
-0.0506081
0.128416
-0.0638356
-0.0683749
0.0892728
0.226311
-0.0458522
-0.193208
0.166823
0.296189
-0.15567
-0.0226886
0.253829
0.257611
0.0285863
-0.168571
-0.650104
0.0797494
-0.180808
0.255577
0.153628
0.212799
0.134514
-0.0496021
-0.184918
0.198634
0.0443674
0.0308558
-0.28655
0.140207
-0.00398908
-0.0849776
-0.124824
-0.00566571
-0.0480889
0.241152
-0.0540636
-0.00388235
-0.029606
-0.00336222
0.201529
0.0297975
-0.0514564
0.0289749
-0.102575
0.027123
0.102852
-0.0663789
-0.0928246
0.197634
0.148032
-0.215168
0.150319
-0.0536379
0.0163886
-0.0217862
-0.247053
-0.0535582
-0.302905
-0.315536
-0.317771
0.229714
-0.123608
0.115882
-0.0903667
0.126267
0.237481
0.173765
-0.0644505
0.114868
0.0827468
0.139073
0.111659
-0.0608171
0.373058
-0.132653
-0.0503761
0.149283
0.0974351
-0.0576834
-0.104553
-0.141016
0.113926
-0.108483
-0.0432799
-0.130718
0.140802
-0.312188
0.234813
0.125583
0.190202
0.269365
-0.134067
-0.0747118
-0.092688
0.0923179
0.0995892
0.0746922
-0.133978
0.0364478
0.120323
-0.00855917
0.0295817
0.0233455
0.135781
0.0220111
-0.0835
-0.211874
0.115935
0.269427
0.0588269
-0.132764
-0.173975
0.107661
0.170832
0.0122766
-0.401692
-0.0306988
-0.138604
-0.0467905
0.054224
-0.0476178
-0.110799
0.0940388
0.0539879
-0.10022
0.119062
-0.0194358
-0.06531
-0.0988102
0.0757288
-0.119574
0.174853
-0.102306
0.0140009
0.205085
0.33993
0.189193
0.154989
-0.0255066
-0.122023
-0.00778264
-0.299467
-0.227843
-0.00955787
-0.334046
0.0831362
0.260774
-0.146435
-0.0613971
-0.0427229
0.0262616
-0.242301
0.156081
0.151796
0.291509
0.0986847
0.107442
0.17409
0.0684483
-0.140253
0.0261332
-0.180606
-0.120248
-0.138835
0.123282
-0.0379427
-0.141292
-0.00450603
0.256568
0.0714228
0.281984
-0.0791126
-0.0328319
-0.207091
-0.190897
0.154474
0.129744
-0.0350712
-0.0325282
-0.15283
-0.135862
0.05652
-0.0407771
-0.150707
0.0897516
-0.274509
-0.163111
0.253436
-0.197574
-0.176476
0.115732
-0.199813
0.204303
0.0118443
-0.0188108
-0.105573
0.21685
-0.237607
0.142245
-0.00839443
0.0841055
0.0696829
0.192555
-0.128913
0.189421
-0.113979
0.0515679
-0.00413468
0.0848339
-0.087979
-0.209555
0.24209
0.0200307
-0.168572
0.0632271
0.0367524
-0.00280704
0.0456706
-0.073129
0.102524
-0.193839
0.136705
-0.146767
0.0717013
0.0681881
0.0691917
0.0830131
-0.055932
-0.165418
-0.284443
-0.285508
0.167848
0.0769075
0.113168
-0.0546907
-0.0652796
0.175583
-0.0920589
0.168237
-0.180481
0.178987
-6.47795e-05
0.105712
0.150394
-0.096455
-0.0859487
0.250574
0.0678661
-0.105861
-0.0324752
0.0422684
0.221259
0.0773671
-0.0242038
-0.0274069
-0.0390336
-0.0725612
0.06722
0.275513
-0.238688
-0.0481335
0.0348703
-0.0925635
0.228397
0.0947371
0.248999
0.0876491
-0.143194
0.0178934
-0.21571
-0.0472751
-0.328538
-0.0783172
0.0940518
-0.254349
0.525474
0.326561
-0.0503683
-0.0865184
-0.0418987
0.159851
0.291278
0.0378499
-0.329325
0.246553
0.0443532
0.419798
0.111016
0.0701679
0.0906628
0.123553
-0.321203
-0.225687
-0.0272739
0.169375
0.243176
-0.111421
-0.11451
0.130645
-0.127809
-0.0555333
-0.14303
0.0708788
0.0610218
-0.0309773
0.054224
-0.0444498
0.129169
-0.0503768
0.0970206
0.108999
-0.212371
0.119666
0.0345899
-0.153821
-0.0174179
0.0213738
0.359592
0.047622
-0.0100309
-0.125905
0.0788077
0.167593
-0.117899
0.210162
-0.0439614
0.0554957
0.0497636
-0.0885396
0.118573
-0.0850872
-0.157876
-0.226311
0.152082
0.0253927
0.3877
0.0631142
0.262396
0.209742
0.117401
-0.126585
-0.216698
-0.0533127
-0.0686155
0.365461
0.0179044
-0.158107
-0.0575811
-0.148498
-0.0933081
-0.0360483
-0.0656431
0.0374299
0.03541
-0.0338116
-0.0182192
0.0975135
-0.0507011
-0.0359173
-0.354426
0.107027
0.10917
0.0659987
0.184622
0.247056
0.304686
0.294238
-0.0576305
-0.339193
0.184806
-0.238449
0.00585102
-0.14379
-0.0980849
0.281088
0.0453234
0.234113
-0.0447977
-0.0988251
-0.043454
-0.0394327
0.00666144
0.051535
-0.0939897
-0.100159
-0.0179846
-0.130661
0.00268255
0.215022
-0.124771
0.0242454
-0.137289
0.0863378
0.0411102
0.141718
-0.040486
-0.0497828
0.0120211
0.153342
-0.0107174
-0.123808
-0.156567
0.140488
0.229885
-0.0169299
0.0831259
-0.0430032
-0.263884
0.0369423
0.225349
-0.0265227
0.104899
0.111429
-0.160182
-0.0242177
0.0493162
-0.228943
0.24618
0.00642334
-0.19251
0.136964
-0.19553
0.219144
0.0765621
0.00373382
0.272993
-0.186255
0.371095
-0.264231
0.07905
0.110464
-0.2238
0.124437
0.332532
0.0990912
0.127238
-0.120434
-0.172564
-0.106933
-0.231056
0.149388
-0.190526
-0.0654577
0.0334823
-0.103076
0.0982715
-0.0143644
0.156185
0.0339443
-0.0150774
-0.148359
-0.14451
0.20811
-0.00256093
-0.307654
0.113743
-0.15762
-0.332613
0.114616
0.0203097
-0.0624379
0.0915598
0.148488
0.118816
-0.112532
-0.160986
0.0545633
-0.0494216
0.0505098
-0.0537654
0.547864
-0.0999333
0.02412
0.110332
0.322806
-0.0319193
-0.0842886
0.0779464
0.0568204
0.116017
0.216418
-0.107411
-0.063117
-0.00100836
0.141413
-0.00938207
0.0233123
-0.0951463
0.274406
-0.00697684
0.0442788
0.0122204
0.0885817
-0.196618
0.285389
0.109232
0.00383042
0.103809
0.069774
-0.168615
-0.0516738
-0.109452
-0.0970246
-0.000158213
0.110587
-0.244206
-0.229726
-0.229863
-0.276998
-0.181848
0.208998
0.107446
0.107486
-0.111135
0.094019
-0.0539671
-0.201163
0.0108356
0.0554425
0.080359
-0.028937
0.156897
-0.0845919
0.139925
0.00787838
-0.0823665
0.326018
0.0867678
-0.00828971
-0.100454
-0.103894
0.344979
-0.155339
0.164763
-0.223658
0.0277027
-0.192134
0.0335371
0.0802604
-0.152446
0.0659464
-0.193345
-0.240162
-0.207731
-0.0800659
-0.0533815
0.0255781
0.0635442
-0.0769631
0.00852624
0.263999
0.276111
-0.161182
-0.0775371
-0.0431864
0.0330961
-0.11816
-0.197501
-0.00947542
0.0227263
0.192648
0.237192
0.0402393
0.147311
-0.130229
-0.0874674
0.0131149
0.0757782
-0.251453
-0.160892
-0.271017
-0.297776
-0.0475602
-0.0691217
0.0877246
0.30712
0.262061
0.227256
0.0841722
-0.113128
-0.0684222
0.113853
0.210889
-0.0967005
-0.0757776
-0.200661
-0.147772
-0.224397
-0.168232
0.0412774
0.208326
-0.25582
-0.00064871
-0.172916
0.041272
-0.0244639
-0.310728
-0.257596
0.323066
0.254488
0.10908
0.151669
-0.01952
0.0362036
0.112674
-0.215242
-0.157666
0.280622
-0.0189772
0.123609
0.0525038
-0.165034
-0.290236
0.16361
0.00160177
-0.0064549
-0.0593185
-0.187328
-0.257099
0.192002
-0.00966369
0.0431749
-0.112343
-0.143287
0.0109856
-0.272937
0.252179
0.259555
-0.535784
0.0479027
0.228919
-0.107927
0.162522
-0.176464
-0.0691646
-0.0166324
-0.0970586
0.0651617
-0.214037
0.227176
0.204352
-0.125039
-0.171709
-0.10388
0.0325113
-0.101441
-0.158711
-0.0289775
-0.252054
-0.123864
0.219847
0.0207085
0.0300809
0.220289
-0.192946
-0.210728
0.0255993
0.0688404
-0.0721705
0.17357
0.104633
0.0854665
0.000264211
-0.0610333
0.118882
0.0107881
-0.0469009
0.0976848
-0.177951
-0.075751
-0.351965
0.337278
-0.0117359
-0.0594599
0.0793785
-0.113844
-0.272359
0.165538
0.0932233
-0.0807596
-0.157803
0.104512
0.00447302
0.170092
-0.340051
-0.147214
-0.0988809
-0.0833626
-0.252675
-0.164099
-0.231864
0.135762
-0.0288828
0.248301
0.349223
0.0240267
-0.133415
0.172862
0.172053
-0.0823152
-0.0531632
-0.0158418
0.314032
-0.0600558
0.0220376
0.0899943
0.154163
-0.179147
-0.277175
0.148218
-0.109008
0.019775
0.223285
-0.0805009
0.17749
-0.0292326
0.0545308
0.0997774
0.188435
-0.19301
-0.0177616
-0.203275
-0.127913
0.279337
-0.194408
-0.0867232
-0.0334619
0.110638
0.189028
-0.136622
0.15469
0.0285029
-0.189091
0.0078168
-0.133998
-0.123434
0.036165
-0.00286925
-0.0899303
-0.00746677
0.0783173
-0.0820007
-0.272592
0.0299259
-0.020076
-0.0977998
-0.0968997
0.080512
-0.0723372
-0.00604243
0.0928862
-0.159237
0.19196
0.319681
-0.0684042
-0.49316
0.0179155
-0.0230538
0.0201364
0.189375
-0.00347614
0.265419
0.0720966
-0.0819258
-0.172969
-0.0173473
-0.120785
0.129485
0.084056
0.0521693
0.0074498
-0.331747
-0.124552
0.130235
-0.0537347
0.0603806
-0.0869527
0.0812366
0.0820784
0.0039436
-0.323055
0.0441326
0.15317
0.092349
-0.386116
0.169366
-0.115778
0.0165693
0.0509748
-0.168689
0.195589
0.0315163
0.166892
0.258842
0.0926624
0.00896377
0.00633058
0.229823
0.0601858
0.0514571
-0.157493
0.328923
-0.0885255
0.130738
0.153269
0.0757179
0.0242074
0.00105201
0.0384747
0.18842
-0.0050398
0.0937092
-0.332897
-0.120149
0.331695
-0.0273076
0.215635
-0.162578
0.185044
-0.0393358
-0.00646162
-0.110365
0.348596
0.0113617
0.275249
-0.260106
0.108321
0.0477642
-0.0288481
0.0120893
0.115246
0.127999
0.161377
0.163861
0.0208395
-0.119088
-0.24694
-0.179115
-0.0595129
0.214256
0.0786298
-0.261123
-0.0811654
-0.257557
0.13549
0.0835825
0.00185569
0.116014
0.0848025
0.185187
0.193178
-0.0570467
0.154696
-0.256579
0.14417
0.272913
0.059514
0.0847822
-0.276833
0.12712
0.162302
-0.0921595
0.0738332
0.283174
0.0179519
0.0912496
0.0381754
-0.163384
-0.158112
0.451268
-0.0979695
0.0914087
0.0607801
-0.0149821
-0.0365468
-0.0113331
-0.289381
0.243488
-0.126285
0.0145385
0.0215444
-0.12714
-0.0586453
0.0532942
0.189069
-0.134671
0.144324
0.169646
0.0195994
0.0504319
0.274971
-0.162658
0.161972
0.008829
-0.0492899
0.117561
-0.110587
0.210483
0.0629348
-0.430216
-0.0499861
-0.235408
-0.0525639
-0.29412
-0.183165
0.000520988
0.14254
0.176539
0.186643
-0.0534624
0.281964
0.0713519
-0.0496232
-0.00977932
0.128701
0.195092
-0.203144
-0.201461
-0.061176
-0.17342
-0.329432
0.0921847
-0.0662188
0.146253
-0.162869
-0.100779
0.0871031
-0.064527
0.232687
-0.134059
-0.0099242
0.0389309
-0.157334
-0.151679
0.0661937
0.0657886
0.108331
-0.0326479
-0.0746295
0.152317
-0.132602
0.131834
-0.0214389
-0.0416987
-0.30154
0.10129
0.188898
0.107157
-0.147015
0.0168697
-0.261066
0.179162
0.195915
0.0425291
-0.210471
-0.180145
0.0417758
-0.293613
0.0931122
-0.0694987
0.0704111
-0.0517188
0.169688
-0.251682
-0.0136223
0.215167
-0.0408631
-0.162626
-0.0551656
-0.0470318
-0.28562
0.05703
0.17179
0.211527
-0.315816
0.147242
-0.0857279
-0.184912
0.149346
-0.189001
-0.113422
-0.142855
-0.254428
-0.0527602
-0.121982
0.143595
0.0189275
0.131726
-0.0755002
0.120861
0.00367984
-0.215805
-0.086925
0.107775
0.108158
-0.320225
0.326432
0.044749
-0.0816831
-0.208165
0.0121323
-0.1482
-0.209033
0.0322768
0.0440622
0.211428
-0.347785
-0.161574
-0.369747
0.0985238
0.358609
-0.126647
0.172116
-0.396698
0.115214
-0.12191
-0.13677
-0.182539
0.196405
-0.172306
0.2869
0.107535
-0.26966
0.120144
-0.119212
-0.00684705
-0.040316
0.243243
-0.0969814
0.135507
-0.159757
0.208982
-0.0557762
-0.18017
-0.0608168
-0.0832739
0.0644278
-0.387621
-0.030839
-0.193545
-0.00529637
-0.0650995
-0.406009
-0.0513878
0.14796
0.291191
-0.0850202
0.0342932
-0.246383
0.0587398
-0.130489
-0.189388
0.0196711
-0.102922
-0.176405
0.232006
0.103416
0.136847
-0.088187
0.110719
-0.0987852
-0.38521
-0.121373
0.111108
0.352418
-0.0915498
0.0387989
-0.149706
0.170427
-0.0634297
-0.186801
0.24516
-0.152458
-0.122767
-0.0310758
0.102804
0.0891845
-0.0555608
0.165895
-0.301457
0.103995
-0.159965
0.0869002
-0.0588802
-0.200745
0.058205
-0.067697
-0.0685022
-0.104405
0.102752
0.235733
0.171261
-0.161809
0.205752
-0.111058
-0.0571888
0.157146
0.208248
0.014071
-0.288237
-0.00206064
0.470389
0.0973947
-0.0237669
-0.0542943
0.153194
-0.225871
0.43336
0.340073
-0.0825686
0.162937
0.0246683
0.0332541
-0.30854
-0.321068
0.191355
0.0199549
-0.00855128
-0.225726
0.0199431
0.132045
0.0440289
0.0165622
0.105139
-0.0272542
-0.162823
0.214376
0.176039
-0.0740166
-0.153159
-0.122669
-0.043707
-0.280781
0.196673
0.162789
-0.0402339
-0.00893595
-0.374456
0.297371
-0.0502971
-0.226351
-0.0135597
-0.169543
0.1504
-0.0450622
-0.189123
0.0668579
-0.0405489
-0.342453
0.0602249
0.080066
-0.00637879
-0.131002
0.105026
-0.0913944
0.155138
0.0794954
-0.143634
0.159794
0.0822319
0.0795479
-0.342837
-0.0776909
-0.195964
0.0217648
0.0517214
-0.161244
-0.0863422
-0.140855
-0.117302
0.0618111
0.125709
0.162394
-0.0024181
-0.130128
0.00542278
-0.0771725
0.0484461
-0.0789805
0.265771
0.0444535
0.00798841
-0.0466076
-0.0690992
-0.255353
0.11698
-0.254487
0.0740857
0.130502
-0.179846
0.137146
-0.00171904
0.107361
-0.384431
0.0700098
0.0818265
-0.0109869
-0.275858
0.277205
0.203744
-0.211163
0.0890433
0.0451191
-0.0891184
-0.0101504
0.130078
-0.091175
-0.150109
-0.104463
0.142581
-0.0322073
-0.0449325
-0.129326
0.0130266
-0.146186
0.203578
-0.284178
0.130517
-0.161574
0.0486411
0.134324
-0.15453
-0.225555
0.300384
-0.169388
-0.0646026
0.197492
0.0246174
0.269871
0.0392727
-0.160229
0.209464
0.137609
0.16244
0.303074
-0.159701
-0.1028
-0.0827058
0.0386497
-0.0138553
0.180146
0.0189749
0.0212411
0.0693013
0.145535
0.267449
-0.0889868
-0.0351551
-0.046816
0.0381561
-0.110353
0.126134
-0.0643277
0.0788975
0.202821
0.00218987
-0.0935597
0.0401222
0.00297032
-0.00357328
0.0821791
0.0229551
-0.00530823
0.326393
-0.213788
-0.00418458
-0.295926
-0.136333
-0.253557
0.0339506
0.330305
-0.145778
-0.00135746
0.26797
0.0318878
-0.144142
-0.336041
0.171413
-0.0977344
0.0828433
-0.0656884
-0.12955
0.0748781
0.0179408
-0.00388405
0.0453802
0.0868636
-0.163515
-0.0645482
-0.332094
0.162781
-0.118017
0.191332
-0.0993127
-0.185041
0.00123825
-0.101008
0.0283213
0.0644225
0.0936663
0.0394294
-0.238226
-0.0448126
-0.0153698
-0.0388909
0.0715593
0.0257813
-0.16948
-0.0272155
-0.0219351
-0.0760758
0.283024
-0.0624534
-0.00917984
-0.0978476
-0.0516989
-0.0603205
0.0839196
-0.165208
0.0595093
0.0275059
0.00260586
0.149044
0.0156186
0.0308798
0.0506374
-0.0990998
0.268174
-0.115819
-0.0806561
-0.0673733
-0.0482764
0.320151
-0.136786
-0.123809
-0.186778
0.0797071
0.15335
0.180894
-0.170307
0.111382
-0.22742
-0.174944
-0.14219
0.00854472
-0.0216463
-0.0715998
-0.037891
0.0415581
-0.239456
0.140828
-0.0426771
0.152295
-0.164904
-0.136534
-0.080755
-0.0391802
-0.033351
-0.128741
-0.133904
0.149635
0.141231
-0.0869287
0.161234
-0.144685
-0.208183
-0.0349048
-0.139067
0.0832177
-0.179774
-0.0849862
-0.0409766
0.00254689
-0.122847
0.0918747
-0.183797
-0.0660447
0.117763
-0.0746266
-0.0920432
-0.122624
-0.000294757
0.116699
-0.332095
-0.0537363
0.0932934
-0.339334
0.0487316
0.247726
0.220437
0.0183175
-0.0541503
-0.158041
-0.0689677
-0.0434103
-0.0803809
-0.178063
0.0113834
0.208047
0.111063
-0.121708
0.110696
0.11636
-0.118391
-0.3472
-0.123993
-0.0251031
-0.212908
-0.228058
-0.111048
0.124031
-0.271924
-0.0108135
0.0603986
0.0750211
0.160773
-0.247194
-0.0103665
-0.0915705
-0.110797
0.167021
0.301566
-0.222731
0.148941
-0.233523
0.350346
0.0353951
-0.122499
0.0195953
-0.12765
0.0624464
-0.0485385
0.0688323
0.154715
0.0063951
0.156976
-0.0928028
0.225319
-0.0085471
0.140914
-0.324911
-0.217983
-0.00809223
-0.312174
-0.170254
-0.0110497
-0.139332
0.097022
0.113631
0.130467
0.1296
-0.0045995
-0.371036
-0.0711237
-0.0582629
0.155286
0.0268196
0.0243476
-0.249127
0.00871625
0.228796
-0.0631313
0.18713
-0.213277
0.228416
0.0967928
0.550028
0.00427562
-0.264196
-0.0766586
0.234118
-0.0670723
0.0844917
-0.15667
-0.194536
-0.161316
-0.0736788
-0.155335
-0.166577
-0.0792822
0.0635009
-0.0225343
-0.174659
0.0905633
-0.259402
0.0717495
0.0449974
-0.178362
-0.138773
0.0574476
-0.14208
-0.20263
0.152623
0.420232
-0.0284949
0.249839
0.310691
0.0752305
-0.188214
0.0891481
-0.0518657
-0.116613
-0.0396534
0.0519702
0.0801796
-0.27098
0.00499381
0.00788215
-0.174205
-0.137204
0.170442
-0.1766
-0.080257
-0.0938678
0.210248
-0.0994328
0.143846
0.036834
-0.18628
0.0439672
0.0333313
-0.169712
-0.0162839
0.010279
0.387712
-0.0849654
-0.380439
-0.000582088
0.134192
-0.00278903
0.026602
0.42462
-0.180209
0.127068
0.217063
0.112498
-0.0894373
0.145661
-0.0475462
-0.307541
-0.0963146
-0.262417
-0.232656
-0.185087
0.0663737
0.174419
0.137186
0.122622
0.0667563
0.0171197
-0.128605
-0.190189
0.105121
0.0487411
-0.0644029
-0.23849
0.209727
-0.109612
0.151544
0.166368
-0.0490084
-0.0311856
0.119448
-0.00687603
0.0943326
0.0227467
0.0964531
0.0650162
-0.00522248
0.0482297
-0.0989529
0.100672
-0.105243
-0.179181
-0.0366835
0.0767244
0.274902
0.0818262
0.243222
-0.195739
-0.238625
0.155996
-0.144914
0.221207
0.0556517
0.236728
0.0400294
-0.129657
0.197384
0.237683
-0.161521
0.105094
-0.161504
0.195227
0.27009
0.213424
0.286467
0.308591
0.182898
-0.0141201
-0.061553
0.0170243
0.131138
-0.0810474
-0.120966
0.176792
0.182504
-0.0495944
-0.116265
-0.00172877
-0.0682368
-0.129289
-0.125743
0.118225
0.0508655
0.0577155
0.121883
-0.262937
0.132386
0.0540216
0.0131781
-0.074792
0.134401
-0.0758992
-0.167891
0.206126
-0.505087
0.383295
0.274018
0.10252
0.147782
-0.130458
0.14113
0.119461
-0.129269
0.169386
0.257361
0.289202
0.088429
-0.0603089
0.259482
0.00608647
0.198187
0.104346
-0.0286499
0.310109
0.29429
0.173399
0.00176637
0.112939
0.213519
-0.0302263
0.194085
0.112732
0.0326188
-0.194468
-0.194626
-0.166535
-0.0799605
0.00865008
-0.134524
-0.0733401
-0.406119
-0.0696707
-0.093788
0.06641
-0.00254927
0.0275775
-0.118746
0.0516344
0.0125354
0.0448209
-0.0213113
-0.0916122
-0.245211
0.0697605
0.0431239
-0.139333
-0.113548
-0.0297977
0.141336
-0.0579085
-0.029348
-0.107683
0.103209
0.200372
0.128141
-0.201133
0.0346684
-0.109388
0.0799649
0.00815069
0.0412237
-0.212724
-0.0622616
0.310296
-0.0432963
-0.0842715
0.10726
0.0971838
0.103088
-0.0858229
-0.310447
-0.0473555
-0.0889697
-0.0243315
-0.053361
0.00213982
-0.443007
0.0869093
-0.136581
0.252652
0.039333
0.0162512
-0.116059
-0.144259
0.0172197
0.0510124
0.0762331
0.0854018
-0.0446654
-0.0273112
-0.157297
0.117798
0.185167
0.0351011
-0.109968
-0.167438
0.258637
0.0367722
-0.0915998
-0.0945526
0.0806364
0.0825226
-0.144116
0.207612
0.0941469
0.0365554
-0.283034
0.0248926
0.038928
-0.0728667
-0.218014
-0.0618991
-0.0157112
0.343459
-0.285532
0.242199
-0.15238
0.0366566
0.0403254
0.0226772
0.0765895
0.0939317
0.266289
0.347823
0.137092
0.175068
0.2271
0.101962
-0.269568
0.145478
-0.00621093
-0.18705
-0.189326
-0.171302
-0.175689
-0.0132218
-0.0853071
-0.0959407
0.104576
0.0968469
0.0769169
0.405195
0.138993
-0.232218
-0.0553942
-0.159601
0.109647
-0.123024
0.191324
0.0490558
-0.135121
-0.0489484
-0.0610933
-0.0330598
0.00763713
-0.150813
0.0525787
0.132875
-0.0609196
-0.185051
0.245133
0.228598
-0.0472633
0.0101522
-0.304412
0.0843414
-0.139895
0.154727
0.0329228
-0.0584143
0.0934636
-0.0256584
-0.0521344
-0.0917691
0.414785
-0.104552
0.0889582
0.328474
-0.0675772
0.0267742
0.0979458
0.0834149
-0.0606672
-0.000827864
-0.0357297
-0.0172723
-0.0932831
-0.0780267
-0.0261571
-0.0984307
0.0336754
0.0712665
-0.0906344
-0.17464
0.306936
0.273753
-0.000977732
0.0502857
0.0213148
0.0929253
-0.0287658
0.0754275
-0.0640873
-0.212225
0.025411
-0.0142134
-0.000526114
-0.158094
-0.00277393
-0.369066
-0.22499
-0.493198
-0.00444157
-0.104401
-0.169845
0.0485011
0.21055
0.204628
0.16418
0.164319
-0.0660883
-0.0775108
0.203047
0.00571595
0.00338924
-0.176428
-0.0282042
0.135211
-0.00353582
0.0712814
-0.140906
0.00533922
0.0919848
0.0456444
0.0049364
0.225719
-0.0454076
-0.173491
0.0544267
0.0959803
0.167055
0.143998
0.0620689
0.063813
-0.442291
-0.136943
-0.165637
-0.089343
0.0340877
0.00706828
-0.130544
-0.146597
0.159883
-0.033161
-0.122253
0.018697
-0.123325
-0.312391
-0.0241811
-0.201754
0.122625
-0.294649
0.328121
-0.0346568
-0.176138
0.0212818
-0.1313
0.225291
0.257592
0.0146368
-0.0383831
0.00619359
0.0725079
-0.0491267
0.068576
-0.183743
0.0297001
0.213867
0.0217514
-0.0156501
0.161222
-0.114588
-0.077679
-0.00776353
0.138007
0.146803
-0.233261
-0.0114456
0.0190047
0.0603149
0.103095
0.189624
0.525398
-0.319251
0.155089
0.212282
-0.11333
-0.093465
-0.0137945
-0.0761572
-0.0215725
-0.0376909
-0.0136053
0.036996
0.017555
-0.190001
0.0862607
0.0817328
-0.165946
-0.102993
0.121023
0.0919765
0.218263
-0.437417
0.0294979
0.49333
-0.158819
0.0551721
0.180016
0.073895
-0.175597
-0.0923916
0.035153
0.000142002
-0.0346081
-0.177002
-0.267784
0.0707201
0.212647
0.0715337
0.0566657
0.0129803
0.158566
-0.0583561
0.10919
0.00843401
-0.0505518
0.0371709
0.266304
0.0379453
-0.00721917
-0.106521
0.323866
-0.220274
0.133668
0.0749733
-0.00940122
-0.10275
0.116461
0.181443
0.219674
0.46034
0.255679
0.106994
0.0746455
-0.0389698
-0.2552
0.15892
-0.0243838
-0.489374
-0.24983
-0.143167
-0.195355
-0.186027
0.13007
0.00172811
-0.0682844
-0.038289
0.0382071
0.0246924
-0.113597
0.0071849
-0.141493
0.111344
0.105877
-0.251999
-0.0553848
0.0771041
-0.292153
-0.0816593
0.0429163
0.0037849
0.490791
-0.0269948
-0.0402674
-0.074329
-0.00503796
-0.0186091
0.107141
-0.0760529
-0.0988613
-0.109173
0.396803
0.0188375
0.1842
0.092148
-0.132307
-0.113523
-0.281921
-0.0275535
0.113363
0.167138
0.226312
0.1494
0.39374
-0.084578
0.165816
-0.100717
0.0705641
-0.493073
0.152819
-0.536008
-0.143185
-0.0882192
-0.138476
0.0656332
0.108241
0.0210871
-0.0813602
0.00688604
0.211668
0.135633
0.300249
0.0269275
-0.0960455
-0.365039
-0.0305358
0.0694214
-0.235478
-0.181063
0.0905791
-0.15563
0.175209
-0.320395
0.0458627
0.0756985
-0.0942963
-0.0556504
-0.134974
0.266125
-0.239861
-0.0257393
0.122422
0.0161076
-0.138694
0.167373
-0.190929
-0.159139
-0.212622
-0.153082
-0.190205
0.106104
0.266443
-0.0745084
0.0377373
-0.0607151
-0.130176
-0.075837
-0.127244
-0.134446
-0.330228
-0.243958
0.296958
0.0547704
-0.075138
0.0466293
0.113703
0.00807394
0.116363
-0.00680329
0.204078
0.0619323
-0.225158
-0.173502
-0.110274
-0.20532
0.0825969
0.370791
-0.0885385
-0.0361119
0.104187
0.186613
0.365006
-0.0557631
0.195
-0.170567
-0.127193
-0.289
-0.123071
-0.0181812
0.0775815
0.00968528
0.0401644
-0.314181
0.0826747
0.104035
0.15626
0.0212014
-0.0283593
0.154195
-0.0401078
0.371033
-0.139269
-0.0543776
-0.256764
0.157442
0.0368708
0.158916
-0.0959989
-0.176872
-0.117593
-0.167766
-0.103934
-0.109844
0.0589219
-0.0584102
0.0647048
0.0345014
0.0926384
0.0444742
-0.282882
-0.126284
0.339368
0.0817071
0.0110154
0.058221
-0.00418395
0.323643
0.0194759
-0.163588
0.177186
-0.0700466
-0.250571
0.179694
0.0964027
-0.153108
0.231737
-0.120412
-0.197595
-0.0379336
0.123759
-0.183497
-0.0410372
0.0152647
-0.035175
0.44709
0.178424
-0.0428465
-0.00796961
0.061546
0.177435
-0.129086
0.139101
-0.107616
0.0543811
-0.195697
-0.0481143
-0.0352725
0.185229
-0.216122
-0.142645
-0.211032
0.257323
0.125349
-0.0677274
-0.0273472
-0.0416465
0.0577434
0.0373409
-0.0727223
0.0833202
0.0800917
0.240054
-0.316531
0.110352
0.249511
-0.0286916
0.138666
0.0933477
0.0874661
-0.034101
0.0314964
0.357724
0.289832
0.0663739
-0.172774
0.244685
-0.094579
0.0544668
-0.00893793
-0.342679
-0.0420724
0.0910567
0.0732774
0.262001
0.174052
-0.101498
-0.163695
-0.0189275
-0.0337469
0.047909
-0.139127
0.0678979
-0.338211
0.0751286
-0.0419522
0.0960982
0.312584
-0.116148
-0.214714
0.164856
-0.0314253
0.210151
-0.0381866
-0.150625
0.116391
-0.0502119
-0.252884
0.374971
0.169385
0.0492664
0.0536422
-0.0583028
-0.155192
-0.184423
-0.086392
-0.0874908
0.163461
-0.450355
0.196464
-0.294098
-0.202728
-0.185319
0.0746316
0.036225
0.196567
0.0422717
0.074505
-0.0441569
0.1793
-0.0994046
0.0628638
0.0226118
-0.293203
0.216133
0.310558
0.0309183
-0.102583
0.0672444
0.0955145
0.0937791
0.180931
0.0920306
0.0813791
0.0925077
0.00808551
-0.175936
0.066677
0.0479617
-0.0594402
0.0887858
-0.154126
0.145434
-0.0324671
0.18769
-0.0149469
-0.400381
0.132693
-0.330934
-0.292929
-0.0806922
0.182554
0.0464715
0.149874
-0.17264
-0.0523169
-0.139668
0.408197
-0.260134
-0.224364
0.204609
-0.038336
0.0186379
0.169097
-0.211909
0.32791
0.202014
-0.0157167
-0.0978511
0.0561589
-0.0135527
0.290256
-0.092099
-0.0962732
-0.175462
0.246998
0.0571585
-0.359976
0.0258684
-0.0532866
-0.244917
-0.36487
0.106339
0.04766
-0.033583
-0.024492
-0.0797656
0.0304416
-0.0161103
0.00774973
0.0254643
-0.111199
-0.0536654
0.207136
-0.0106558
0.109631
0.143476
0.127846
0.448287
0.0554959
-0.0749471
-0.034027
0.277984
-0.145287
-0.150309
-0.0167814
0.135767
0.343229
0.290624
0.0329326
0.00943179
-0.0740251
0.00544612
-0.144387
-0.435084
-0.107481
-0.0965241
0.247526
0.265647
0.00229349
0.0329625
0.128466
-0.0701253
0.0362402
-0.0549802
0.274909
-0.0903875
0.180323
0.0540582
-0.0816973
0.0829327
-7.82192e-05
-0.0837136
0.0830791
-0.105469
0.00541487
0.286039
-0.0898264
-0.110519
0.191707
-0.130549
0.0340651
0.00839265
0.012147
-0.218613
0.265734
-0.119951
-0.203916
-0.064287
0.114175
0.0653319
-0.0291928
0.247716
0.0440348
0.0865803
-0.0607169
0.158308
0.1754
0.265601
0.135192
0.0618179
-0.230674
0.309446
0.330794
-0.0724371
0.270316
0.142903
0.0691113
0.0761619
-0.145698
0.0397759
-0.0438171
-0.124243
0.062453
-0.208149
0.0643873
0.0570061
0.100718
0.210464
0.0446577
0.108575
-0.112208
-0.000123446
0.137088
-0.0996975
-0.0148484
-0.433202
0.0470824
0.00360687
-0.0228282
-0.214861
-0.233308
-0.149528
-0.236716
-0.144381
0.0419504
0.157378
0.0662634
-0.184251
0.0624357
-0.114933
-0.227562
-0.16117
-0.0168457
0.134391
0.0819449
-0.102577
-0.0833819
0.0270467
-0.29129
0.0310816
0.0252486
0.326867
-0.0541402
0.048619
-0.0144971
-0.0289481
0.220819
0.17066
-0.156056
-0.0504251
0.0103969
0.0425294
0.0898987
0.270093
0.0255865
-0.133541
0.170562
-0.104203
-0.134283
-0.331536
-0.0104544
0.422607
0.0425662
-0.0373298
0.200564
-0.0951067
-0.0930033
0.160625
-0.377784
-0.135926
-0.107935
0.00842464
0.285996
0.0961383
-0.0645098
0.107864
-0.18197
-0.255576
-0.195527
0.392104
-0.133148
-0.12174
0.377362
0.12443
0.33858
0.275722
0.240132
-0.021471
-0.0381884
0.345064
0.163374
0.113776
-0.188813
0.184915
0.0296742
-0.072928
-0.205053
0.068584
-0.033542
0.214536
-0.0172922
-0.0315294
0.169434
0.209848
-0.0826129
0.0578779
-0.0299897
0.120509
-0.0919637
-0.140504
0.0202784
-0.012319
-0.256691
-0.139032
-0.00242616
0.277383
0.0650987
-0.189794
-0.0851997
-0.097568
-0.0376957
0.216111
0.11025
0.0334328
0.0145939
-0.137613
0.128824
0.0401928
0.193656
-0.265063
-0.0721518
0.0704134
-0.039712
0.169012
-0.0336537
-0.0751136
0.0361382
0.114938
0.0402875
-0.0407686
0.0386428
0.242293
-0.0451569
-0.0582591
-0.229243
-0.0067057
-0.016606
-0.122527
0.0984494
0.213901
-0.269527
-0.0861639
0.0465961
-0.0323012
0.0639971
0.00164472
-0.0232958
0.123256
0.184524
0.0112197
0.102748
-0.0603545
0.179983
-0.255605
0.162889
-0.32808
0.17733
0.0659943
-0.220271
-0.365885
0.198052
-0.152755
0.209031
0.0153671
-0.0301971
0.070225
0.365758
0.179281
-0.233817
-0.142446
0.19601
0.12465
-0.0142604
0.239495
0.19726
-0.0609608
-0.0577674
-0.106003
-0.031745
0.0974744
0.261641
0.101822
-0.210031
-0.0157916
0.0254018
-0.0438865
0.0473806
-0.055817
0.0721143
-0.14724
-0.00371751
-0.0714541
0.139881
0.0652551
-0.00649615
-0.0706117
0.248706
-0.0373742
-0.0832624
0.119409
0.117301
-0.422466
-0.138002
0.135765
0.178862
0.00379829
0.116412
-0.310753
0.194682
-0.0622631
-0.0534892
0.00452309
-0.0347764
0.116787
0.0478913
0.13062
-0.0395191
-0.225242
-0.105025
-0.0755956
-0.0866399
-0.274709
-0.12981
0.150773
0.11973
0.0598486
0.176733
0.0548105
0.235684
-0.25241
-0.181726
0.0144352
0.00734168
0.0100926
-0.132085
-0.0272328
0.0952817
0.253312
-0.0735477
-0.252553
0.281442
0.302646
-0.0194532
0.178035
0.118648
-0.126756
0.0409291
-0.196048
-0.143551
-0.0893798
0.113286
0.330384
0.107261
0.0549159
0.098908
0.0918894
0.0925688
-0.0415084
-0.0484219
0.124499
-0.164659
0.260533
-0.162187
0.0933603
0.0125148
0.144801
-0.0930841
-0.167397
0.00823319
0.166726
0.112265
-0.245476
0.204745
0.0394253
-0.103401
0.0883714
0.0867609
0.0991723
0.114227
0.0347264
-0.0329495
0.0250766
-0.281634
-0.148474
0.138308
0.273265
-0.18078
-0.163145
0.0517804
-0.142258
-0.0558645
-0.0440611
-0.0944036
0.0895306
-0.132101
-0.0352115
0.035975
0.0350649
-0.104895
0.116435
0.158579
-0.11729
-0.148134
-0.269336
0.168062
0.22758
-0.10647
0.0401866
0.278691
0.0526021
0.217495
-0.015963
0.136065
0.323991
0.268197
-0.135373
-0.352384
-0.174872
0.0333808
0.257423
0.37803
-0.0796068
0.0277622
0.117556
-0.216583
0.0133496
0.0684781
0.0868372
0.0915724
0.0238304
-0.0281958
0.0128244
0.117418
-0.15154
0.130646
-0.180048
0.35662
0.0864223
0.181068
-0.0654229
0.0347539
0.164262
0.0680287
-0.135083
-0.191913
-0.0713079
-0.246033
0.179567
-0.0481996
0.0459635
0.246664
-0.0115502
-0.0847971
-0.0702025
-0.223076
-0.175546
-0.188066
0.191974
0.130965
0.0437722
-0.196516
-0.237043
0.114529
0.132151
0.257047
0.0885597
0.104057
0.222458
-0.121678
0.234081
0.00627513
-0.0265197
0.0226179
-0.330082
0.00174039
-0.116758
-0.0427758
0.405683
0.058679
0.130062
0.0388373
0.139943
0.131569
-0.0578615
0.0589407
0.200801
0.121986
0.0401723
0.205868
-0.0574393
-0.06761
0.155398
-0.00147722
-0.116777
-0.0970843
-0.0398467
-0.0889759
-0.174408
0.219253
0.0193007
-0.164097
-0.0056281
0.23155
-0.156724
-0.117412
-0.271871
0.0273005
-0.15585
-0.119068
0.178787
0.0221427
-0.0649477
-0.134293
-0.0222328
0.19919
-0.162148
0.0992234
-0.197836
-0.223656
0.134147
-0.147329
-0.0914504
0.0596999
0.277782
0.437577
-0.232862
0.0916011
-0.149959
-0.251866
0.00362818
0.144534
-0.0993946
0.110189
0.222565
-0.0346988
-0.0589828
-0.295934
-0.12674
0.0980855
-0.0867964
0.0869101
-0.0553974
-0.102444
-0.0359497
0.207499
0.0831556
-0.149158
-0.0558446
-0.0605796
-0.00809668
-0.0642363
-0.0956581
0.137022
-0.0237954
-0.167034
0.197833
0.136351
-0.0153961
0.033963
0.133251
-0.268983
0.000612942
0.181771
0.168103
-0.0950087
-0.159225
0.0559994
-0.0588293
-0.105357
-0.252007
-0.128473
-0.127742
-0.173012
0.022702
0.0642098
-0.0379109
-0.129716
-0.0619655
-0.34481
-0.151775
0.0226178
0.0153784
-0.256199
0.096971
0.12945
0.0331725
-0.105231
-0.171215
-0.193084
-0.0736134
0.018684
0.376596
0.0988681
0.075637
0.118746
0.166277
0.102124
0.0643089
-0.217944
-0.360986
-0.0906539
-0.280672
-0.093153
0.105205
0.047758
0.0720578
-0.130467
0.121465
-0.398745
0.0419688
-0.254769
-0.0364791
-0.105304
-0.0253198
-0.0768569
0.0367902
-0.0110586
0.00873996
-0.235989
-0.0994926
-0.215598
-0.173663
0.0360322
0.324411
-0.0178819
0.613132
0.0404977
-0.191602
0.0707681
-0.0893846
0.0444765
0.0520718
0.0332268
-0.136628
0.149103
0.0761836
0.165758
-0.245773
-0.117002
-0.0487225
0.289673
-0.0673295
-0.0140776
0.0129328
0.228349
-0.300901
0.00202931
0.0975013
0.0876189
0.0484896
0.00122256
0.159311
0.119495
0.115797
-0.118008
-0.18422
0.225865
-0.0367792
0.0628988
-0.139487
0.343914
-0.154188
0.377989
0.0544236
-0.0335464
0.140735
0.0490893
0.0800866
-0.124904
-0.0391749
0.0974502
0.0372857
0.259536
0.179301
0.00209954
0.109002
0.310272
-0.116959
0.105678
0.111602
0.0869806
-0.0997993
0.170358
-0.261092
0.223219
-0.14635
0.250141
-0.0593113
0.15077
-0.0748974
0.00448822
-0.147082
-0.10074
0.280476
0.169214
-0.146623
0.206117
-0.119509
-0.257623
-0.0733177
-0.149542
0.269132
-0.1688
0.152475
0.108636
-0.168121
-0.0438021
-0.132343
-0.257898
0.0436446
0.123717
-0.235153
-0.198183
0.08828
-0.0738141
-0.0976733
0.207524
0.108548
0.253286
-0.102847
-0.155758
0.0622491
-0.0844575
-0.117401
-0.108253
0.00748898
0.137232
0.0889075
-0.411385
-0.167909
-0.159
0.0888675
0.223032
-0.16264
-0.0287877
0.405379
-0.0521611
-0.137571
0.143424
-0.095645
-0.0256018
-0.0377138
-0.117034
0.0182928
-0.181934
0.139162
-0.0972618
0.168097
-0.0588756
-0.161652
0.0797673
-0.0878276
0.00472351
-0.0730871
-0.0802333
-0.0446021
-0.0605993
0.0301945
-0.375676
0.193987
0.264253
-0.004117
0.0478434
0.0273794
-0.0194178
-0.114854
0.157229
-0.0171505
0.00187916
-0.156615
-0.214189
-0.185181
-0.0453194
-0.198014
0.140063
0.00526789
0.13783
0.0478261
0.168556
0.398775
-0.220931
-0.128863
-0.109072
0.125088
-0.0139567
0.0768528
-0.144892
0.277299
-0.0801604
-0.0521021
-0.165561
0.133342
-0.233559
-0.108204
-0.176866
0.0432999
0.269038
0.139263
0.0945031
-0.00869227
0.264292
-0.0474742
-0.10132
-0.101997
0.0203673
0.164543
0.144713
0.0106058
-0.293946
-0.317199
-0.274105
-0.10504
-0.178801
-0.308374
0.0704978
-0.154086
-0.0628471
0.12596
0.168129
0.0734258
0.0190413
0.0956509
-0.00103984
-0.0343324
0.103536
-0.023295
0.316562
-0.230255
-0.33147
0.0236348
-0.0557879
-0.121763
0.0928755
-0.162294
-0.132835
-0.0534419
0.0764304
0.140618
-0.459714
0.137592
0.0541158
0.106116
0.0840402
0.0220245
0.11991
0.290217
-0.123225
-0.037024
0.129694
0.136818
-0.0714334
0.0485857
0.151594
-0.185835
-0.226139
-0.10665
0.133976
-0.222903
-0.366119
-0.115008
-0.333998
-0.0353862
0.234198
0.249185
-0.121061
0.0760441
-0.175966
-0.0717856
0.0353706
-0.0185201
0.0483362
-0.0374353
-0.0515987
-0.118667
0.115604
0.0663382
0.0960195
-0.0354196
-0.239044
0.0116171
-0.0409092
-0.0628303
-0.068758
0.0572409
-0.0271296
-0.101403
-0.089862
0.190381
0.00928708
-0.277763
0.182744
0.192547
-0.0834029
-0.0650521
0.0182803
0.256629
0.187817
-0.153855
0.180927
-0.10251
-0.00577551
0.0492656
-0.272735
-0.158303
0.246567
-0.058065
-0.150827
-0.126819
-0.390132
-0.140449
-0.0122695
-0.0112329
0.0769676
0.0891981
0.154725
-0.148064
0.0790246
-0.216381
-0.0896075
0.100041
0.106478
0.0642515
0.0342508
-0.452838
0.0688586
0.304785
0.154588
-0.327192
0.0403313
-0.0127775
0.065558
-0.097373
-0.0340289
0.2568
0.213966
0.0946349
0.0120978
0.0315706
-0.0866794
-0.0154478
-0.138095
0.449454
-0.0844081
0.264659
-0.0844585
0.225072
-0.230429
-0.0629868
0.0852908
0.0339563
-0.223887
0.179272
0.0534495
-0.141479
0.140875
0.0136485
0.0526329
-0.203107
-0.536878
-0.39254
-0.280362
0.120358
-0.443311
-0.0074634
0.0716834
-0.08909
0.133387
-0.0430576
-0.0202024
-0.140675
-0.239331
0.11294
0.0455134
0.13866
0.0398339
-0.265002
0.147703
0.417061
-0.110294
-0.0544307
0.165184
-0.156095
-0.0321838
0.0329193
0.11185
-0.0980754
-0.162393
-0.146366
0.114587
-0.0697275
0.0554269
0.0161935
-0.0424079
-0.0609985
-0.24245
0.213781
0.0178484
0.132667
0.0881755
-0.402768
0.0218883
-0.0184289
-0.145684
-0.0338204
0.0537661
-0.267709
0.029053
0.286505
-0.80041
-0.340621
-0.278709
-0.00653671
0.0484571
0.0838589
0.10895
-0.228087
-0.030752
0.155375
0.0354679
0.0996981
0.0468534
0.376086
-0.295321
-0.0313959
-0.263949
-0.00740126
0.156376
0.0315451
-0.0412876
-0.0718087
-0.0240587
0.0590312
0.22273
0.0160571
-0.0947884
-0.171172
0.160308
0.0606685
0.155732
-0.223633
0.234474
-0.0735412
0.0227403
-0.23152
0.115104
0.137006
-0.106652
0.0415891
0.0468397
0.0910034
-0.103546
0.352684
0.0625953
0.191381
-0.0970502
0.18313
-0.104233
0.176747
-0.555737
0.0157642
-0.666124
0.0180183
-0.0137097
0.118819
0.0137291
-0.173243
-0.221635
-0.12111
0.0532607
-0.333628
-0.106998
0.0679721
-0.234797
-0.0377793
0.0333927
0.19824
0.0943267
0.523585
-0.261448
0.0286534
-0.252098
-0.183675
0.322926
-0.157497
-0.0221075
-0.0113076
-0.237319
0.0909337
0.0242364
-0.247524
0.166952
-0.0946788
-0.216963
0.0912204
-0.0206901
-0.0555297
-0.167126
0.0107687
-0.210651
-0.126118
0.110112
0.393656
0.0400562
0.106742
-0.0662892
0.065229
0.326306
-0.0576491
-0.560598
0.279333
-0.0716719
-0.0382021
0.00506735
-0.297158
0.438125
-0.0925237
-0.126164
-0.24471
0.166535
0.0157174
0.365994
0.399603
-0.312659
0.0812955
-0.0210982
0.277006
0.24798
0.0710717
-0.183643
0.0183323
-0.0523451
0.202874
0.00218735
-0.046266
-0.030557
-0.0615034
-0.0465079
0.0286971
0.173705
-0.109966
0.152743
-0.0938606
0.0582914
-0.172569
-0.00504937
0.269842
0.0371375
0.206811
-0.0175357
-0.244201
-0.00472257
-0.00118408
0.0281535
0.0755653
-0.241886
0.167047
0.324597
-0.0326031
-0.259501
-0.105003
-0.116516
0.117234
0.0897028
-0.211151
-0.0822234
-0.326046
0.115734
0.0998021
0.156326
-0.130242
0.0741613
0.515303
-0.434911
-0.279926
0.00501618
0.27104
0.0655329
0.0982207
-0.100615
-0.0833694
-0.0534837
0.0230377
-0.0802513
-0.0865094
-0.101936
0.0171304
-0.064401
-0.0514713
0.0408898
-0.0702271
-0.19337
0.0148681
0.0675724
0.0985891
0.0924505
0.0591919
-0.211343
-0.170078
-0.147089
0.0070921
0.0402656
0.0408299
-0.293883
-0.0467848
0.117954
0.146722
-0.0273963
0.22263
-0.385851
-0.171413
-0.0194483
-0.0545222
0.0615899
0.248212
-0.012904
-0.153609
-0.0614874
0.0256434
0.314113
-0.0482363
-0.0574524
0.147161
-0.192221
-0.0426584
-0.289654
0.154463
-0.00352827
-0.179296
-0.174306
-0.0934488
0.117753
0.0183301
-0.0639305
-0.07625
-0.00582085
-0.069267
0.0961406
-0.407872
-0.199163
-0.0952523
0.082532
-0.166795
-0.26409
0.0452046
0.0694391
0.425625
-0.132385
-0.14739
-0.207945
0.286903
-0.0460885
0.105256
0.181395
0.0799548
0.0425685
0.062263
0.398843
0.148338
-0.323683
0.262842
-0.0787172
-0.045128
0.0886645
-0.109831
0.134672
-0.194522
-0.0230429
-0.0936253
0.0300237
0.0789783
-0.0652925
0.241149
-0.13255
-0.0302421
-0.0773658
-0.0255268
0.333522
-0.612492
-0.00521709
-0.126585
0.20913
-0.191862
-0.365064
-0.223097
0.195887
0.0243183
-0.0987276
-0.0706397
0.104571
0.19765
-0.102299
-0.0905386
-0.016043
0.174705
0.2709
0.0730856
-0.62906
0.185924
-0.0624297
0.0285905
0.0414937
0.0588328
0.303554
-0.163362
-0.0261461
-0.297718
0.0566366
0.211972
-0.192028
0.114529
-0.279124
-0.201397
0.0558153
-0.219886
0.197162
-0.23892
-0.0180961
0.0616986
0.208069
0.0761261
-0.158368
0.124467
-0.114079
-0.249799
-0.108302
-0.163861
0.309771
0.0876675
-0.293895
-0.0501378
0.0137609
-0.01898
0.119343
-0.138591
-0.326927
0.210329
0.101329
0.120635
-0.11835
-0.176378
-0.0861688
-0.0545141
-0.0613152
-0.0456133
0.160806
-0.200426
-0.304135
0.160621
0.00745736
0.109201
-0.221867
0.0283395
0.265361
-0.278702
-0.0678648
0.0723522
-0.0458849
0.169827
-0.0722687
0.340645
0.0801016
0.0500612
-0.186749
-0.0591911
-0.133894
0.0996677
0.0991405
0.0617673
-0.171124
-0.0431277
-0.169124
0.188764
-0.342842
0.0343605
-0.252487
-0.0394652
0.342502
0.184744
0.0372046
-0.0989534
0.0700841
-0.159715
-0.169414
-0.145153
0.0759074
-0.0293638
-0.206009
-0.00886611
-0.0980802
0.174021
0.193493
-0.120232
-0.0632457
0.256919
0.112959
-0.078503
-0.429855
0.000846179
-0.106222
0.309722
0.330736
-0.16413
-0.0771112
0.0905336
0.0354084
0.0698413
0.0771736
0.0992156
0.0190521
-0.00500113
-0.159909
-0.183683
-0.0988276
-0.197027
0.00391541
0.0173365
0.231038
-0.04411
0.21782
0.00275744
-0.18814
0.15144
-0.0840201
0.228354
0.0852535
0.0587018
0.0615898
0.081706
-0.0653487
-0.326619
-0.149991
0.267547
0.0247328
0.0555011
0.045497
0.00406016
-0.113907
-0.211263
-0.110369
-0.00256825
0.103432
0.10096
0.119497
-0.10375
0.236227
-0.130376
-0.310859
-0.209267
0.24384
-0.200732
0.390126
0.223863
-0.0167359
0.142975
0.190037
0.0258512
-0.235811
-0.0465869
0.11895
0.0425031
0.0652596
-0.160812
-0.0837198
-0.181805
-0.170105
-0.109241
-0.15524
0.115679
-0.00732946
-0.182342
-0.128878
0.223671
-0.243039
0.0530357
0.534763
-0.0750951
0.213059
-0.022757
-0.168614
-0.0461666
-0.0425728
-0.0742822
0.157435
0.0553925
-0.238488
0.379902
0.0645909
0.160522
-0.0349003
0.218907
-0.167586
-0.315047
-0.0391218
-0.203982
0.0217503
0.0252822
-0.372068
-0.135844
0.204823
-0.020354
-0.215226
-0.129013
-0.160141
0.285489
-0.0789476
0.303475
0.0135833
0.127651
-0.117668
-0.036931
-0.3174
0.138194
0.0645687
-0.0679354
-0.00254975
0.305055
-0.241102
0.119372
0.14706
-0.0894702
-0.0369867
0.16509
-0.198208
0.00543777
0.146268
0.215246
0.136223
0.0197708
-0.155006
0.200632
0.120408
0.150093
-0.0797142
-0.255004
-0.194683
0.460987
-0.00380393
-0.165818
-0.0175599
0.244426
0.00883426
-0.0589791
-0.0670323
0.0900401
-0.0443466
0.013288
0.0622472
-0.309623
-0.141451
0.0838865
0.0467434
0.0180555
-0.161922
0.0873598
0.156835
0.168084
0.0825936
0.275042
-0.383328
-0.0748869
0.100453
0.0928919
-0.127348
-0.0816439
0.101517
-0.107456
-0.308539
-0.0823186
0.0537795
0.0781325
0.105378
-0.220794
-0.430945
0.0203253
-0.117838
0.27302
0.0245032
-0.185231
-1.49828e-05
0.106528
0.052565
0.114296
-0.0200173
-0.0810507
-0.23486
0.0732635
0.0191467
0.0203843
0.0238756
0.130377
0.00161916
-0.142446
-0.0396304
-0.100717
0.219465
-0.0818764
-0.273335
0.0598815
0.163709
0.131414
0.0971849
0.0954025
0.19171
0.00302641
0.0626026
-0.12776
0.232241
-0.23191
0.317647
-0.327395
-0.233162
-0.0784678
0.116849
0.121145
0.234525
-0.156045
0.0982422
-0.16721
0.0959671
0.09571
0.138354
-0.0167563
-0.041722
0.0490378
0.275202
-0.0864799
-0.024685
-0.117759
-0.193833
-0.0322186
-0.0655882
0.00762267
-0.0270911
-0.00924826
0.132108
-0.0684175
-0.181138
0.0579437
0.187981
0.0368008
0.0172764
0.0504429
-0.0526228
-0.146525
-0.0400651
0.132611
-0.0697773
0.0479184
-0.179512
-0.00406025
-0.0893152
0.0452577
0.0226539
-0.131581
0.288993
-0.0108799
-0.0896317
-0.13363
-0.0659206
0.011948
-0.183756
-0.22915
-0.163996
0.0187327
-0.0481175
0.277772
0.0642225
0.11069
-0.220401
0.341154
0.0546921
-0.0373626
0.061628
-0.236212
1.99528e-05
-0.0267818
0.173915
-0.0791953
-0.125758
0.053322
0.0363286
-0.227488
-0.102468
0.39595
-0.0395115
-0.00785466
0.14939
0.283163
-0.140315
-0.217776
0.140036
-0.160011
0.0939367
-0.0834128
-0.0535416
-0.0315026
-0.137212
0.0513938
-0.0600399
0.0544348
0.010483
-0.077895
-0.0394397
-0.175974
0.126277
-0.0421918
-0.0974591
-0.21895
0.113306
0.21902
-0.0897937
0.12725
-0.122777
-0.0781785
-0.237745
-0.0371743
-0.0497883
0.120136
-0.368219
0.148225
0.068796
0.276271
-0.0976231
-0.139439
-0.0275535
-0.0375119
0.110009
-0.0526397
-0.0887241
-0.215508
-0.0362067
-0.025808
0.0809866
0.0823802
-0.0191053
0.0260487
-0.128868
0.000635959
0.0383584
0.208806
0.11922
0.142327
0.0427793
-0.102164
0.394404
-0.039573
0.112757
-0.497962
0.0270834
0.0291029
0.338263
0.0351608
0.0770494
0.0124134
0.14605
0.155605
0.164158
-0.0369137
0.0726189
0.136367
0.0271498
-0.0234634
0.0997304
-0.0801091
0.194172
0.0676013
0.118855
0.0937347
-0.295043
0.303848
0.136875
0.195652
0.00172337
-0.127976
0.253769
0.102361
0.227772
-0.0792954
-0.0664488
0.095976
0.0256749
0.0511217
0.0433694
0.18446
0.0411776
0.0713034
-0.258868
0.0992313
-0.113671
-0.00584694
-0.138356
-0.00738852
-0.28571
0.265959
0.00347388
0.166894
0.459177
-0.0058585
-0.0937884
-0.210407
0.0567085
-0.228592
-0.0240815
0.166367
-0.0419534
-0.206795
0.0145635
0.0482248
-0.0309629
0.178852
-0.214325
-0.0632055
0.129302
-0.0586918
-0.310992
-0.111447
0.299033
-0.119599
-0.0687909
0.265022
-0.190213
0.103159
0.0197346
-0.17631
-0.0481451
-0.322228
-0.148281
0.348779
0.0854749
0.219951
0.0092373
-0.096188
-0.240632
0.224935
-0.151453
-0.0311791
-0.184066
0.0399889
0.0271152
0.0633267
0.16847
0.0202085
0.109858
-0.103443
-0.0487312
-0.221626
0.351093
0.13798
0.12003
0.0191379
-0.0568411
0.16325
0.1232
-0.149729
-0.16616
-0.107576
-0.122465
-0.125558
0.0733123
-0.0332389
0.0995771
0.0799265
0.144384
0.215308
-0.041298
0.207606
-0.0127532
-0.117215
0.109304
-0.0023844
-0.0250184
-0.067487
0.19715
0.0431795
-0.137268
0.0867157
0.0457242
-0.0168183
0.0780881
-0.0315438
0.0519641
-0.156797
-0.0973988
-0.0186808
-0.197979
0.0288572
0.0349492
-0.0293978
-0.119866
-0.0996775
-0.0835209
0.01389
0.0191253
0.150399
-0.088411
-0.0814953
-0.0580781
-0.192614
0.0352734
-0.0543211
-0.0893738
-0.109906
-0.118285
0.168373
-0.147135
0.0865267
-0.151134
0.0256555
0.199128
0.325255
0.0850572
-0.129993
-0.0676868
-0.320468
-0.25316
-0.158438
-0.265097
0.274369
0.1453
0.076263
0.013813
0.0892506
-0.0930645
0.0306413
0.00888482
-0.0510657
-0.192295
-0.204288
0.0121347
-0.00378095
-0.0832623
0.0361092
-0.122512
-0.0135911
0.0199515
-0.0970312
0.0827956
-0.153311
0.0208518
-0.136558
0.021674
0.0120878
-0.352981
-0.0711747
0.282425
-0.202341
-0.163031
-0.0498253
0.0825205
0.165121
-0.0633462
-0.124268
-0.0220466
-0.227938
-0.180568
-0.115412
0.256591
-0.328606
-0.25491
-0.0651717
-0.149673
-0.270625
0.00144796
-0.118269
-0.143804
-0.249947
0.0381018
0.252394
0.0231954
0.0623909
0.236345
0.00330052
-0.133997
0.23441
-0.106552
-0.283724
0.151899
-0.0884236
-0.0411547
-0.248946
0.0203804
0.084928
-0.134536
0.00917297
0.113947
-0.0625382
0.0333582
-0.0710005
0.00822588
-0.033946
0.338026
0.308099
-0.252167
-0.0454862
-0.113007
-0.171385
0.157928
-0.286365
-0.188289
0.282766
0.0982428
0.0673459
-0.00623559
0.163588
0.164214
-0.247894
-0.14266
0.151405
0.130607
0.275038
-0.0446521
-0.018241
0.135706
-0.192068
-0.102927
0.239729
-0.0970298
0.1985
-0.0466018
0.0790782
0.036689
-0.00566575
0.122623
-0.0416854
-0.0406542
0.0849912
-0.131786
-0.0197189
-0.249069
-0.0220259
0.0851807
-0.186991
-0.0246503
0.220668
-0.225807
-0.1017
-0.117888
-0.165218
0.216606
0.14811
0.00452795
0.216897
-0.0520268
-0.0161807
-0.181192
0.092524
0.100534
0.211446
0.210751
-0.149634
-0.144305
0.0214724
-0.0289215
-0.029802
-0.0916605
0.168514
-0.344176
0.0934087
-0.112578
-0.011813
-0.0498998
0.0902809
-0.235637
0.0749012
0.262042
0.0881492
0.132754
-0.0775119
0.086184
0.159335
0.1981
0.129829
0.122765
-0.00589108
-0.101127
0.0556941
-0.0170782
0.175599
0.0679696
-0.120012
-0.0215502
-0.3088
-0.208981
-0.247087
0.232118
0.255991
-0.109677
0.159381
-0.0758176
0.126914
0.14825
-0.0449389
0.0541422
0.188654
0.0901129
0.00409534
-0.418735
0.0325452
-0.290248
-0.241507
-0.249244
-0.185746
-0.0600252
-0.249555
0.140695
-0.202553
-0.0733052
-0.192481
-0.130911
-0.00603983
-0.0692141
0.16668
0.304093
0.237921
-0.232313
-0.115386
0.14628
0.0498938
-0.172027
-0.0635638
0.00484592
0.155669
-0.00726353
-0.0327162
0.175439
-0.0740847
0.130197
0.18333
-0.0092743
-0.182868
0.322428
0.199327
-0.102407
-0.101631
0.107211
0.0897829
0.00165519
0.22835
0.12054
-0.0786561
-0.273163
0.196115
-0.265884
-0.10344
-0.150704
-0.0730215
0.110605
0.0212721
0.120133
-0.216004
-0.266189
-0.0883195
0.139034
0.0957901
-0.283081
0.210773
0.125697
0.0221484
-0.356569
-0.22496
-0.159423
0.0172277
-0.1215
-0.0654023
-0.0446582
0.222053
0.266355
0.0926748
-0.148012
-0.012516
-0.0998214
0.0104651
0.109473
-0.152111
0.051188
0.101173
-0.0289119
0.0563456
-0.0633084
0.0399354
0.0634932
-0.239094
-0.155813
-0.0979585
-0.322078
-0.0145552
-0.261317
-0.04618
-0.0750117
0.0348709
-0.0169985
-0.261352
0.0392558
-0.0799925
-0.170013
0.250013
0.019647
-0.00705337
-0.566887
-0.164777
-0.137811
0.23281
0.231244
-0.282145
0.0502133
-0.0930126
-0.00706657
0.106595
-0.0105436
0.0772607
-0.0731656
0.294896
-0.15596
-0.218017
0.187049
0.0788411
0.0176927
-0.0997345
-0.0133915
0.0448243
0.149727
0.0458642
-0.459993
-0.135783
0.000389874
-0.0453192
0.164515
0.115023
-0.162176
0.150642
0.151437
-0.208873
-0.204457
0.19493
-0.493607
0.0271714
-0.0851353
0.410301
0.039906
0.140864
0.0741322
0.629255
-0.181161
-0.230863
-0.479506
0.117066
-0.156876
-0.00781747
-0.250624
-0.0844199
-0.229987
-0.186144
-0.319961
0.0807936
-0.0534178
-0.0500637
0.138866
0.330009
-0.561603
0.108866
-0.341056
0.0199654
0.266314
-0.0920503
-0.0751112
-0.22836
-0.0743268
0.134486
-0.136531
-0.00585922
0.20724
0.111654
-0.267096
0.213269
-0.195986
-0.203758
0.00803283
0.122921
-0.0373034
0.139726
0.108832
0.0813951
-0.150182
-0.157092
0.0941154
-0.209689
-0.00884999
-0.0588531
0.118849
0.218553
0.232357
0.460117
-0.128889
-0.262503
0.0227955
0.250419
0.0409847
0.0721624
0.0596195
-0.236811
0.0847129
0.325432
-0.0109982
-0.206437
-0.0267751
0.0745744
-0.0158524
-0.288663
-0.498604
0.0251777
-0.40994
0.15621
-0.00413471
-0.303225
-0.160226
-0.270609
-0.0487699
-0.0536932
-0.060284
-0.128176
0.119416
0.013773
-0.266818
0.15239
-0.132953
0.12705
0.132031
0.134906
-0.341383
0.0209418
-0.0265737
-0.0265769
0.0346374
0.109934
0.0365142
0.122256
-0.162761
0.164853
-0.166865
0.221601
-0.0996348
0.289226
-0.347153
-0.0675121
-0.26757
-0.0540097
-0.115255
0.0666364
-0.16148
-0.0787653
-0.284363
0.193365
-0.0302749
0.313326
-0.231422
0.0104198
-0.177997
0.265031
-0.35385
0.0372551
-0.380251
-0.0320112
0.256739
-0.209262
-0.146917
-0.0296837
0.0735193
0.0677286
0.173094
0.071751
-0.227928
0.224544
-0.148891
0.243569
0.0841922
0.09529
0.270113
0.185631
-0.335188
-0.0389072
0.193906
-0.00844078
-0.0436857
0.380625
-0.0840177
0.210539
-0.102661
-0.0485554
-0.0871404
0.239176
-0.298345
0.301588
0.157263
-0.145521
0.0203065
0.0564853
0.0350334
-0.157468
-0.125616
-0.0634654
-0.160453
0.151748
0.109017
0.17357
-0.105974
-0.172513
-0.0291426
-0.00977528
-0.448107
0.0332815
-0.281786
0.369706
-0.130513
-0.155936
0.0678075
-0.182572
0.0426747
0.0149619
-0.158298
-0.0918014
0.184596
0.220839
-0.437651
-0.255443
-0.290042
0.000814012
-0.0519086
0.340258
-0.0582519
-0.0155535
-0.275326
-0.277954
0.0151021
0.116863
0.00280873
0.00799426
0.126553
-0.0324647
0.044445
0.0868917
0.257034
0.0832576
-0.268489
-0.228106
-0.213959
0.138663
0.105225
-0.0355974
0.133228
-0.132988
-0.0641095
-0.148376
0.0363323
-0.0667138
-0.290547
-0.0248618
0.203485
0.193903
-0.345891
-0.0157463
-0.508289
-0.146399
-0.128358
-0.0228495
-0.00788724
-0.0701927
-0.0116313
-0.0369704
0.106598
-0.100482
0.338078
-0.104671
0.000577439
-0.316985
-0.0486739
0.253396
0.0612407
0.259982
-0.118029
-0.0358692
0.199321
0.0779008
-0.142088
0.309896
0.290829
0.10678
-0.118441
-0.158483
-0.143002
0.0313792
0.111646
0.0445024
-0.183185
0.00393458
0.0863487
0.144379
-0.152776
-0.0999707
-0.248122
-0.0995653
-0.154614
-0.0984209
-0.104166
0.00932041
-0.0865868
0.225384
-0.0592702
-0.237989
-0.297755
-0.103463
-0.586152
-0.0140007
0.256443
0.0631131
-0.130364
-0.17556
-0.093669
-0.250003
0.199317
0.149832
0.131601
0.0775511
-0.190284
-0.0651877
-0.165257
-0.11519
0.0515894
0.353502
-0.0823082
0.136108
0.0236224
0.170674
0.228737
0.212418
0.00500676
0.0353534
-0.171921
-0.0328274
0.0381061
0.0702445
-0.278223
-0.110951
-0.157352
-0.1202
-0.142878
0.115908
-0.249001
-0.189538
-0.0694469
-0.0147518
-0.145014
0.41189
-0.110159
0.057729
-0.125505
-0.0631571
-0.188862
0.0116723
-0.30933
0.093632
-0.450093
-0.152475
-0.0489697
0.0572881
0.0113391
-0.133105
-0.333059
-0.00240858
-0.275224
-0.0619355
0.352049
-0.0304058
-0.187466
-0.00617917
0.0966685
-0.00482157
0.235839
0.127602
-0.288667
-0.129025
0.00831848
-0.193153
-0.197426
0.416138
-0.11351
-0.0231524
-0.0722775
0.171865
-0.333776
-0.184202
0.280193
-0.0989913
-0.0913502
-0.244693
-0.13186
0.166301
-0.0220566
0.178502
0.0642245
-0.0939346
0.0214736
0.0572997
-0.171085
0.0194267
-0.0990603
-0.124066
-0.0903057
-0.0604171
-0.265336
0.175433
-0.18696
0.0931217
-0.0670299
0.0140216
-0.021029
-0.0563555
0.0322557
0.0184655
-0.0355346
0.139004
-0.16678
-0.0217184
0.0581502
-0.084865
-0.446766
0.149305
0.111543
0.214753
-0.141023
-0.353946
-0.101054
0.0733453
-0.0787196
0.233357
-0.0828705
-0.0290895
-0.0935504
0.0142876
0.202119
0.293396
0.138643
0.138077
0.120175
0.0144207
-0.0314563
0.347626
-0.176649
0.141994
-0.0964422
-0.222896
-0.106236
0.122019
-0.00268622
0.0564109
0.0686782
0.203556
0.146366
0.109053
-0.271219
0.195076
-0.0346001
-0.0654986
0.291828
0.112193
-0.178652
-0.349935
-0.21036
-0.02228
0.0407988
-0.0322215
0.18657
0.138476
-0.096849
-0.050951
0.106295
0.026962
0.057233
0.402107
-0.287085
-0.147573
0.115428
0.0413291
0.302196
0.228666
-0.138105
-0.243005
-0.140639
-0.0466478
-0.184495
-0.0784891
0.126366
-0.0348791
-0.321084
0.219477
0.102985
0.189102
-0.0680136
-0.0754485
0.080037
0.169625
-0.0593019
0.0277253
-0.198122
-0.0765258
-0.133875
0.026177
0.21432
-0.0700358
-0.0129473
-0.0985809
0.0764665
0.0728071
-0.132793
0.0758236
0.266618
-0.126562
-0.0784648
0.146689
-0.110519
0.22614
-0.156352
0.0816881
-0.0325956
0.0671998
-0.116404
-0.0946182
-0.238545
0.0610165
-0.167821
-0.0265307
0.14306
0.175444
-0.0658218
0.254675
0.146722
0.112775
0.00572423
-0.280068
-0.260622
-0.0741894
-0.340437
-0.119254
-0.162211
-0.270789
-0.110067
0.369991
-0.202449
0.00614776
-0.193856
-0.515642
0.132428
0.202477
-0.109016
-0.0117503
-0.268154
0.0549408
0.0832217
0.228048
0.240977
0.130187
-0.0408474
-0.205167
-0.130712
-0.203146
-0.35673
0.0975038
-0.0509099
-0.0907179
0.201806
-0.195284
-0.130903
-0.0280457
-0.0457244
-0.0356137
-0.227071
-0.0854615
0.16599
-0.0244071
0.104391
0.119022
0.0178073
0.14807
-0.0614669
0.0594815
0.00833286
0.0739409
0.0247886
-0.0699872
-0.179786
-0.195658
0.220528
0.139241
-0.0931406
0.110356
0.162503
0.0914687
-0.18095
-0.0769323
0.330307
-0.0510632
0.260215
0.00513608
-0.247974
-0.0184396
-0.140993
-0.292078
0.35799
-0.163639
-0.0814673
-0.134892
0.335475
-0.0542375
0.163776
0.157855
-0.0296067
-0.121025
-0.0570249
-0.226586
-0.162128
0.0655348
0.141844
0.0914975
-0.112101
-0.117485
-0.0823344
-0.0488333
0.228611
0.172408
-0.149356
-0.224825
-0.140247
0.150565
-0.251838
0.135371
-0.00783949
-0.00236761
-0.121279
-0.170403
-0.0405015
0.0813543
-0.0914179
-0.26397
-0.064301
0.00106463
0.120529
0.196365
-0.148608
-0.250972
0.14794
0.0931792
0.163891
0.0761777
0.383619
-0.0219177
-0.0675667
0.0363016
-0.0090581
-0.0134348
-0.0846792
-0.0975352
-0.0175868
-0.0407731
-0.216378
-0.0154483
-0.369331
0.271074
-0.35322
0.0150009
-0.0948621
0.00686326
-0.116033
0.12159
-0.0247633
0.0356923
-0.0734278
0.180059
0.149211
-0.14808
-0.127299
-0.144677
0.258909
0.200753
0.0429414
0.307096
-0.186008
0.21315
0.0644595
-0.281014
0.210651
-0.0792729
0.0369775
0.136416
0.098131
0.0693984
0.142551
0.174488
-0.201292
0.0864601
0.159427
-0.318334
0.219087
-0.0612902
0.153864
0.275228
-0.0678477
0.037405
-0.0816069
-0.0942522
-0.189597
-0.0690945
-0.0708758
-0.180907
0.0115458
-0.338259
0.00861371
-0.19414
-0.213845
-0.0260095
-0.0163803
0.0187195
0.158045
0.0596795
-0.0178781
-0.0792821
0.308434
-0.12674
-0.0879356
0.21803
0.134784
-0.0057446
-0.127491
0.190377
-0.126021
0.32953
-0.123037
-0.0391421
-0.16685
0.179597
0.0768591
-0.0240274
-0.0118374
0.258558
0.0596963
0.148398
0.150535
0.0477168
-0.278331
-0.0842049
-0.079817
-0.116955
-0.0196608
0.00308846
0.0789423
-0.00296702
0.0944268
0.0859877
-0.12409
0.0603911
-0.0374414
0.162984
-0.127814
0.0772175
0.00901633
-0.183689
-0.236144
-0.0109162
-0.0619207
0.152548
0.106497
0.102817
0.020055
0.104835
-0.104497
0.274482
-0.0502191
-0.0797179
0.0296959
-0.273691
0.0559834
-0.170974
-0.0945841
-0.0877969
-0.160115
0.111079
0.233995
-0.0977504
0.125708
-0.225444
-0.200799
0.256196
0.128523
0.21627
-0.218565
0.0597856
0.0907377
-0.174179
0.225966
0.342389
0.215871
0.260808
-0.0430622
0.0432686
0.183238
-0.181231
-0.0108079
-0.294816
-0.257231
-0.0333742
0.0347753
0.084579
-0.0129453
0.0547848
0.293308
-0.237241
-0.226451
0.0190859
0.027825
-0.29546
0.0710545
-0.0398973
0.0735141
-0.0503362
-0.0933225
0.0707002
0.0998145
0.316487
0.0128575
0.164533
0.335733
-0.141779
-0.143912
0.160682
-0.0360786
0.29846
0.243499
0.134058
-0.156123
0.0905587
-0.539163
-0.0745078
0.170573
-0.248174
-0.10365
0.132915
-0.221528
0.147153
0.0345634
0.0673076
0.213898
-0.14896
0.0741621
0.2215
-0.122016
0.0144359
0.223892
-0.00574113
0.162607
-0.0985054
-0.00332819
0.136491
-0.00427185
-0.0754508
-0.385706
-0.238029
-0.0517472
-0.0773548
0.266219
-0.0444715
-0.0310282
-0.0295432
0.147502
0.129137
0.0849586
0.139031
-0.0624212
0.265045
0.154692
0.0977789
-0.0883097
-0.138788
-0.106562
0.0314489
0.178285
0.0997495
0.132061
0.157045
0.0871312
0.149575
-0.0707472
0.276582
-0.0392814
-0.0293145
0.229481
-0.0302443
0.101544
-0.208014
0.0637075
-0.0225027
-0.0995784
-0.418975
0.0967897
0.208046
-0.147467
0.105061
0.0873372
0.174115
-0.084278
0.0274954
0.0300381
0.0934194
0.160596
-0.0252261
0.030213
-0.0812944
0.133244
-0.125866
0.202887
0.0850765
-0.0398849
-0.349355
-0.0583139
0.029278
0.143993
0.0284003
-0.0881012
-0.126162
-0.236722
0.0707092
-0.230574
-0.0197733
-0.0419556
0.157684
0.224558
-0.0457517
0.0675225
0.298179
0.0619455
-0.181313
-0.021754
-0.313908
-0.234842
0.258975
-0.086202
-0.287724
0.106329
-0.129507
0.0193116
-0.228633
-0.0200679
0.199275
-0.0138325
0.0733878
0.00644187
0.313174
0.111065
0.210765
-0.137942
-0.109062
-0.173503
0.221764
0.00379004
0.0139635
0.0495379
-0.0524816
-0.0488803
0.184177
0.0949886
0.245127
-0.269398
0.0951282
0.345808
-0.0520217
-0.0433165
-0.165609
-0.14902
-0.119856
0.11621
0.0362694
-0.0059518
0.146709
0.0739377
-0.126895
-0.000479251
-0.0998767
0.22036
0.0500095
-0.190314
0.0450304
-0.114686
0.159381
0.338032
0.0986079
-0.0235944
-0.0591778
0.173681
-0.200533
0.0901451
0.040286
0.153126
-0.258251
0.0278041
0.308096
0.248667
0.142546
-0.0690098
0.145221
-0.0410347
0.155466
0.283558
0.296906
-0.166
-0.0204486
0.176379
-0.00543814
-0.0786794
-0.0594459
-0.00266716
0.12117
0.0684448
-0.0718739
0.128658
0.127393
-0.122522
0.0578158
-0.0120476
-0.330562
-0.135242
0.0714619
-0.0419514
0.148976
-0.133012
0.467331
0.105243
-0.261926
-0.131226
-0.00524799
0.114644
0.40006
0.131385
-0.137351
-0.0649421
0.206222
-0.0178226
-0.0555247
0.0989505
0.364733
0.00280479
-0.127796
0.0174089
-0.0799042
0.0454792
0.246764
-0.143744
0.0230031
0.299069
0.040553
0.0426503
0.120787
0.0199159
0.258987
-0.126124
0.203928
0.0350999
-0.285932
-0.278248
-0.0448598
0.0433487
-0.242039
0.0523339
0.229419
-0.105701
0.135079
0.00606528
-0.0599227
-0.0647968
-0.00391608
0.0733897
0.101618
-0.0793665
0.0688712
-0.0352484
0.223092
0.207132
-0.036606
0.0436885
-0.0261263
0.102391
-0.185181
-0.139082
0.335353
0.198211
-0.227054
0.188129
0.150452
0.0256069
0.0972887
-0.0880173
0.382104
0.366311
-0.194783
-0.0734132
0.167694
-0.219317
-0.0320888
0.0495804
0.000881399
0.0459431
-0.307183
0.342745
-0.232349
0.335133
-0.239528
-0.153063
0.264841
0.201281
-0.481157
-0.0878931
-0.0582025
0.0809647
0.248111
-0.295392
-0.0314944
0.0736248
-0.123459
0.0180851
-0.216093
-0.168221
-0.0229856
0.151449
-0.0717421
0.00504031
-0.229602
-0.0900235
0.0223961
-0.0389236
-0.12251
-0.21853
0.323875
-0.119293
0.104459
0.313626
0.281231
-0.00589259
-0.279132
-0.0456278
-0.0164974
0.114532
0.0627868
0.127911
-0.0269345
0.0320899
-0.0634617
-0.139278
-0.148912
-0.295907
0.020282
0.0122377
0.201808
-0.00443903
-0.250158
-0.092302
-0.101521
-0.116215
-0.00906501
0.191397
-0.0618312
0.138869
-0.171106
0.077641
-0.330557
-0.286894
0.332138
0.0156966
0.166314
0.0704939
0.115858
-0.0553926
-0.0904663
0.12796
0.0548813
0.0509816
-0.0126561
0.45362
-0.0686353
0.151429
-0.0783882
-0.124869
0.281207
0.102041
0.114217
0.0444999
-0.0604917
0.358568
0.0777803
0.246756
0.191984
-0.308787
-0.231824
0.0269538
-0.116344
-0.228377
-0.303758
0.0205079
-0.128823
0.0569798
0.0230863
0.199892
-0.035429
0.0854153
0.29439
0.0300198
0.259186
-0.180548
0.257899
-0.128454
0.0377509
0.171536
-0.130582
-0.196253
0.00392441
0.000431201
-0.036306
0.0191974
0.10058
-0.184546
0.039635
0.530752
-0.081616
0.0374691
0.231045
0.0604391
0.0338969
0.0513311
0.137892
0.214731
-0.0316644
0.185912
0.000453113
-0.367048
-0.0572081
0.0240058
0.091834
0.19348
-0.100054
-0.00470486
-0.301227
-0.00383563
0.0107256
0.0367871
0.0987262
-0.100631
-0.00566837
0.164027
0.243674
0.0144656
-0.177599
-0.0276681
0.133875
-0.104266
0.0633596
0.144257
-0.225343
-0.173184
-0.138304
-0.336327
0.0266461
0.210585
0.176285
-0.0964578
0.43672
0.207813
0.0681883
-0.571183
0.0220438
0.0273635
-0.169066
0.131979
-0.130629
-0.210838
0.0477097
-0.373076
-0.117567
0.065131
-0.034245
0.165204
0.0125388
-0.196514
0.0244409
0.0559777
0.220315
0.300802
-0.157217
-0.128728
0.223405
-0.0983423
-0.0704362
-0.0653999
-0.00526745
-0.0020057
-0.08842
-0.161051
-0.108914
-0.110316
0.348679
-0.265062
-0.0453873
-0.0337733
-0.0814161
-0.0163943
-0.0750083
-0.0640101
0.00293342
-0.244126
0.129856
-0.0264528
-0.0765717
0.329107
-0.248912
-0.0715158
-0.287534
-0.184832
0.268104
-0.11261
-0.0789738
-0.226968
0.0609127
0.0172931
0.020922
0.00619863
-0.109878
0.290823
-0.2318
0.246336
0.197351
-0.0279095
-0.13276
-0.105017
-0.0842284
0.163925
0.315262
0.193212
0.11005
0.280165
-0.240526
0.0151772
0.362267
0.0847047
-0.0522231
0.369609
-0.0659623
-0.0144313
-0.0578056
-0.069703
0.19641
-0.0327941
-0.173302
-0.0924869
0.228016
-0.333537
0.0126593
-0.189557
0.33638
-0.0304618
0.0565858
0.212466
0.00932477
-0.0712313
-0.102295
0.00948556
0.16891
0.18287
0.201665
-0.0794649
0.0029581
0.0679305
0.153041
0.133699
0.0253575
-0.200203
-0.0222101
0.214301
-0.186889
-0.102132
-0.0647393
-0.0742321
-0.0355306
-0.0850453
0.0312641
0.168293
0.0376969
-0.245137
0.513892
0.122958
0.103005
0.0747537
0.170634
-0.191131
-0.0939874
-0.0494068
-0.256691
-0.0021017
0.285063
0.20225
0.0592357
0.0308378
0.108955
-0.291032
0.181083
-0.0970481
0.187621
-0.0868348
-0.231315
-0.0941651
0.214262
-0.161984
-0.257649
-0.0289973
-0.00332092
0.0358
-0.223437
-0.267705
0.193473
0.0829726
0.233058
0.241016
0.105162
0.071255
0.0985747
-0.154505
-0.0727403
-0.206453
0.115555
0.189545
0.0629563
-0.0759043
0.45548
-0.0224212
-0.0327776
0.00842739
-0.129474
0.15069
0.366254
-0.224757
-0.240087
-0.254918
0.0825074
-0.0232047
0.159567
0.106837
-0.0288449
0.103901
0.243318
-0.0497994
0.0143407
-0.240994
0.00640021
0.0486133
-0.0862616
-0.090587
0.0553332
-0.120912
0.057193
0.226597
0.0726348
0.157697
-0.128119
0.0140798
0.170818
0.0304408
0.17304
-0.310374
0.136896
-0.543013
-0.15561
-0.0233077
0.0420307
-0.0843816
0.0984733
-0.0778429
0.0643742
-0.025521
-0.0110628
-0.0478024
0.19766
-0.0997602
-0.00401961
-0.00310638
0.129642
-0.140007
0.0953235
-0.00224892
0.138185
0.059858
0.0429049
-0.192507
0.395641
0.275803
-0.105523
0.0606733
0.0458432
-0.135543
0.116652
0.0187232
0.38537
-0.226901
-0.200162
-0.20476
0.0494263
-0.00696926
0.0299654
-0.0847204
0.185269
-0.0563777
0.0710443
-0.0613025
0.0711943
0.0323315
0.102463
-0.0982166
0.084286
-0.0978992
-0.0455148
-0.061858
0.265842
-0.139787
-0.0646397
-0.0238287
0.549944
-0.0717712
-0.106439
0.195086
0.0866967
0.092165
0.36257
-0.11824
0.182949
-0.237564
-0.0245539
0.0421639
0.0711845
0.0889028
0.24653
-0.336646
0.162634
0.0986236
0.280402
0.070673
-0.0916707
-0.0783477
-0.156649
-0.171155
0.0056788
-0.115718
-0.112968
-0.336466
-0.0339018
-0.295118
0.243497
-0.00216279
0.0527617
-0.417544
0.0268348
0.138176
-0.0884476
0.0977946
-0.00690587
-0.206476
-0.0472861
-0.120163
0.00153759
0.183886
-0.158792
-0.425808
-0.0716759
-0.0378219
0.0544429
0.137737
0.217121
-0.19128
-0.21953
0.177753
0.25917
-0.181075
0.161325
-0.00778306
-0.202156
-0.0610663
-0.072732
0.102157
0.0146314
0.197736
0.324418
-0.247349
-0.259298
-0.309673
0.0071818
0.0127679
-0.0286988
0.0108395
-0.241573
0.0672893
-0.0924113
0.0167083
0.181477
-0.00901055
-0.214658
-0.254437
-0.146535
-0.507283
-0.0109196
-0.30286
0.0806498
-0.104771
-0.101002
-0.0275514
-0.158664
-0.0196626
-0.0160312
-0.112961
0.138016
-0.0998484
0.133963
-0.0990997
-0.126317
-0.136281
0.362307
-0.266241
0.135736
-0.135593
0.321999
-0.182672
0.0789739
0.309918
0.343121
-0.0945534
-0.260751
-0.209285
-0.152689
0.115613
0.15622
-0.18658
0.325577
-0.062101
-0.156264
0.066285
0.0307253
-0.0905698
-0.118976
-0.0515833
-0.00721336
-0.0449272
0.102802
0.0698013
0.285018
-0.0639798
-0.111291
-0.207505
0.147298
-0.152162
0.248383
-0.356364
-0.00455276
-0.0622664
-0.13243
-0.0322832
-0.188619
0.139064
0.18626
0.110065
-0.150231
-0.109526
0.109665
-0.091235
-0.0337466
0.114577
-0.0603517
0.0133996
0.0339901
0.0817366
-0.131453
-0.098792
-0.429566
0.0123026
0.171898
0.183857
0.0345193
0.137314
0.312013
-0.0685432
0.0381269
0.0178502
0.05318
-0.0647041
-0.117133
-0.2073
-0.137375
-0.0976314
0.0180549
-0.000107436
-0.0363108
-0.0275342
0.0586824
-0.250986
-0.184184
-0.413222
-0.0331964
-0.182231
0.125387
-0.0251046
0.219174
-0.325417
-0.00601994
-0.0637974
-0.0705511
-0.266153
-0.0461483
-0.176192
0.0849988
-0.0912694
0.0694012
0.0732572
-0.174901
-0.0246018
-0.0705838
-0.117613
0.0640988
-0.18246
0.422701
-0.0506492
-0.115968
-0.234485
0.0109522
0.0456151
0.191264
0.0400265
0.346691
-0.127047
0.123486
-0.0519135
0.0039676
0.206287
0.183471
-0.261267
0.0526039
-0.268575
-0.147808
-0.14486
-0.061245
-0.141182
-0.0264151
-0.10486
0.065089
-0.15444
-0.0892283
-0.10645
-0.103391
0.0916114
0.0629159
-0.00636489
-0.117729
-0.132197
0.156036
0.116744
0.0943122
-0.0588378
-0.0479999
-0.242874
0.00809733
0.0787941
0.0901837
0.126885
0.211631
-0.161515
-0.208444
0.144065
0.0497538
-0.168204
0.265281
-0.126977
-0.00794301
-0.116563
-0.174785
0.0508648
0.583946
-0.182426
-0.0490248
-0.164393
0.130332
0.226085
0.0295977
-0.161088
-0.0188704
-0.0675169
0.207756
-0.0634441
-0.0307186
-0.120925
0.10506
-0.278593
0.0384136
0.0627855
0.0683605
-0.0513996
0.141866
-0.256235
-0.18188
0.224744
-0.0118159
0.202879
0.140456
-0.339219
-0.0687742
-0.074651
-0.0764623
0.127819
-0.05173
-0.183187
-0.250033
-0.169761
0.184974
-0.0471318
-0.151739
-0.170447
0.0470176
-0.0880693
0.0167158
-0.0152752
0.697013
-0.145473
-0.0112663
0.0657582
0.10243
0.143101
-0.00365269
-0.108454
0.310273
-0.00401286
-0.0560751
0.074068
0.316594
0.262103
-0.168623
0.0947189
-0.0197451
0.0218346
0.0286624
0.23997
-0.260259
-0.34391
-0.0534443
0.0814398
-0.0810346
0.0140772
0.0705446
-0.276228
0.0221517
-0.0151404
-0.260357
-0.107074
-0.0219459
-0.325001
0.000601127
0.0286578
0.113323
-0.205639
-0.0514115
-0.41059
0.0623706
0.0257317
-0.070456
0.132836
0.0651988
0.149142
-0.0371145
0.0135725
0.0627103
-0.105308
0.465305
-0.137803
0.112424
-0.0946417
0.192477
-0.263861
0.184783
-0.221004
-0.258829
-0.0912463
0.0615271
-0.0779411
-0.0108259
-0.21706
-0.011344
-0.30461
0.0276979
-0.10288
0.226996
0.0894616
-0.0809983
-0.275921
0.0816978
-0.0738492
-0.00179699
0.01324
-0.0393073
-0.405144
-0.0158242
0.00873509
-0.0199825
0.066344
0.0226374
-0.13607
0.107359
-0.0256004
0.195713
-0.114232
0.00859163
0.0981275
0.0244136
-0.116739
0.103421
-0.111136
-0.013402
0.051201
0.0491014
0.0112372
0.0175716
0.111258
0.482271
-0.283644
0.102363
-0.180336
-0.165599
-0.0860651
0.208258
-0.141612
-0.125572
-0.0170583
-0.086302
0.0567868
0.17835
0.034358
-0.0478654
0.212368
-0.279359
-0.0185705
0.315962
-0.0167508
-0.0668933
0.104399
-0.016326
0.193997
-0.0519147
-0.00795338
-0.020427
0.0502668
-0.13201
-0.126804
-0.0146409
-0.120701
-0.0498663
0.0815679
0.0990737
0.0599745
0.0922103
-0.097036
-0.0871752
-0.286172
0.0131584
-0.0863194
0.154883
-0.227048
-0.00829022
-0.115168
-0.07885
-0.00150275
0.0648719
0.00470977
0.362948
0.140669
0.161297
-0.0714353
0.00236447
-0.428794
0.114139
-0.15444
0.108176
-0.14856
0.201654
-0.0173635
0.201518
-0.0619093
-0.0876789
-0.159855
-0.00489784
-0.0844731
0.280857
0.149192
-0.0534113
-0.189567
-0.0585011
0.305229
-0.187714
-0.10727
0.102327
-0.0968512
0.00819602
-0.182645
0.144698
0.0571535
0.192475
-0.0350771
0.0060621
-0.0779751
-0.145895
-0.304557
0.122582
-0.32131
0.161417
-0.151394
0.0403337
0.304521
-0.00251344
0.0816654
-0.297816
0.121849
0.32024
0.167537
0.239881
-0.0702463
0.116163
-0.0389237
-0.259311
-0.0776579
0.338064
0.168273
0.0958161
0.0020709
0.165095
-0.114515
-0.141361
0.255449
0.104822
0.127083
0.26025
-0.0553439
0.152911
0.0488973
0.137599
-0.073951
0.589081
0.179274
0.033631
-0.137462
-0.0738547
-0.0532885
-0.0763303
0.20134
-0.215969
0.0270985
-0.0932208
0.152887
0.0588632
-0.200097
-0.044779
-0.269351
-0.125987
-0.307514
0.0488337
-0.127192
-0.12072
-0.0635255
-0.0611804
0.251284
-0.171618
-0.0882893
-0.0718705
-0.174301
0.106864
-0.0847342
0.255703
0.015066
-0.187179
-0.366774
0.0400763
-0.313412
-0.204679
-0.0752486
0.361019
-0.0814509
-0.0184356
-0.506809
-0.146827
0.0701334
-0.0640705
0.401416
0.0683926
0.0549124
-0.0459123
0.0311764
-0.211911
0.40893
0.0662778
0.061632
-0.0605822
-0.38226
0.0552317
-0.0310738
0.00781062
0.252325
0.27842
0.230264
-0.262149
0.109079
-0.226201
-0.128268
-0.082246
0.106847
0.074824
-0.00251757
-0.445263
-0.0759826
0.0391074
-0.0477462
-0.0458585
-0.0836748
0.176515
0.288093
0.422501
0.154306
0.274976
0.215193
-0.233829
-0.0406459
0.173431
0.00862805
0.211946
-0.053853
-0.0722489
0.024536
-0.0205534
-0.203958
-0.0404558
-0.089995
-0.014044
-0.0127625
-0.0841627
0.155331
-0.242177
0.0430421
-0.0203288
0.265269
0.223918
-0.00975082
-0.0420484
0.0709843
0.108552
-0.127321
-0.146481
-0.205248
-0.140686
0.109236
0.0880845
-0.0094448
-0.125113
0.0552859
0.275597
-0.367122
-0.194208
-0.0264173
0.0442868
-0.162722
-0.0170454
-0.0297405
-0.0925132
0.171569
-0.0729629
0.267321
0.104406
-0.3324
0.121846
0.128165
0.0445016
0.12412
-0.130602
0.139342
-0.00052818
-0.367477
-0.0660043
-0.0160145
-0.189524
-0.143233
0.448615
-0.183092
-0.077355
-0.074051
0.0234274
-0.261907
-0.0384908
0.140145
0.229005
-0.0239815
-0.0516082
0.105599
-0.144696
-0.0376803
0.13353
-0.243414
0.152836
-0.0919203
0.0916647
-0.312689
-0.302463
-0.134463
0.116817
0.240565
-0.0555352
0.1233
0.0155874
0.0554643
-0.0734873
-0.17572
-0.0648438
0.157442
-0.172696
-0.0943348
0.137895
0.0846882
-0.0372227
-0.0219771
-0.038162
-0.0635882
0.0571034
0.0865289
0.231368
-0.280574
0.0935052
-0.0659518
-0.148157
0.23593
-0.188865
0.0697494
0.0549096
0.175903
-0.0951989
0.131104
0.0937533
-0.0962577
-0.1703
0.100944
0.105151
-0.242885
-0.0853579
0.183848
0.0741877
-0.176714
-0.112166
-0.153365
-0.108604
-0.163335
0.164688
0.212641
0.106736
0.0612761
-0.0128501
0.0326404
-0.0918485
0.225708
0.19601
-0.202789
0.179238
0.0607375
-0.0890868
-0.11377
0.114833
0.272225
0.125279
0.217649
0.0439783
-0.246649
-0.0594192
-0.057968
0.325177
0.286092
0.0442633
-0.243029
0.0834727
-0.176096
0.391627
-0.315415
-0.331106
0.111293
-0.0542747
0.339963
-0.431408
-0.0141509
0.104672
0.0642396
0.251628
0.251668
-0.0382833
-0.077828
0.0545394
-0.0254082
-0.0717185
0.0276065
-0.00908417
0.32418
0.115374
0.0860015
-0.25561
0.0518761
0.0633193
0.0171003
-0.0367056
-0.254105
-0.160563
-0.0585098
-0.130222
0.363389
0.061787
-0.135407
-0.248774
-0.0220452
0.0106688
-0.463643
0.104246
-0.0831423
-0.0438059
-0.0307132
-0.292155
-0.0829919
-0.0654012
0.11925
0.00720007
-0.309774
-0.241155
-0.146761
0.070496
0.0251536
0.058408
-0.0386565
0.0549505
0.0311351
0.0508244
-0.00968265
0.0141197
0.0512629
-0.0975803
-0.291081
0.233204
0.0114281
0.043599
-0.0210283
0.10158
-0.235898
-0.291582
0.159172
0.245251
-0.00285436
0.100117
-0.144866
-0.0485358
0.058938
0.302723
0.142168
0.0766777
0.0456729
0.0634278
0.0726968
0.43018
-0.234695
-0.217411
-0.142072
0.179374
0.204627
0.0703261
-0.0825444
-0.216272
0.00726141
0.0355315
0.0634772
0.123515
0.0618507
-0.135611
-0.222562
0.0277523
0.0635565
-0.0300113
0.243477
-0.106304
0.284229
-0.196369
0.318316
0.115889
-0.17364
0.0673552
0.122237
-0.374814
-0.168429
-0.102299
0.0334241
0.067359
-0.125856
0.0357986
0.126944
-0.0247382
0.0782291
-0.0477566
-0.0238924
-0.00986536
0.285524
-0.144452
-0.0509167
0.0887494
0.0161613
-0.216622
-0.009693
-0.192774
-0.0350699
0.0512743
-0.078417
-0.0684259
0.111695
0.198994
0.0994288
0.0974005
-0.0167227
-0.0016861
-0.0216337
0.113464
-0.0773963
0.025247
-0.27209
0.128534
0.393183
-0.205829
0.0342814
-0.151737
-0.0785779
0.11915
-0.0352778
-0.142095
0.12029
-0.135245
-0.0792611
0.119069
-0.0668279
0.108593
-0.0113625
-0.259405
-0.0248225
-0.0895593
0.114776
-0.0610673
-0.0442028
0.0636455
0.0856828
0.0691666
-0.0370105
-0.0391123
-0.0130463
-0.150133
-0.231922
0.178053
-0.0674413
0.122112
-0.0234777
0.145227
-0.00772899
-0.284417
0.0085645
-0.0041398
-0.0887088
0.0210187
-0.172531
0.0589818
0.0817052
0.465514
0.0915124
0.225902
-0.272731
0.0400856
-0.275637
-0.0278036
-0.158908
0.00931546
-0.0835153
-0.0462222
0.241885
-0.200112
-0.150443
0.0448166
-0.0239994
-0.0249442
0.28461
-0.0946592
-0.039915
-0.138238
0.181408
0.0800256
-0.246999
-0.00164482
0.0517013
0.014538
0.0958018
-0.21173
0.0406577
-0.0178349
-0.0716862
0.137961
-0.124985
0.27262
-0.149613
0.0492434
-0.147738
0.062042
0.330703
0.00395162
0.158133
0.0943703
-0.108268
-0.0214657
0.00318731
-0.0278906
0.195215
0.0557194
-0.110313
0.0514848
-0.046941
-0.0381573
0.17222
0.0615988
0.0828538
0.254561
0.194272
0.311758
0.0787537
-0.0319664
-0.0575022
-0.171274
-0.0924792
0.105048
0.185665
-0.242345
0.0447129
0.104421
-0.0390571
-0.161217
0.0850022
-0.118909
-0.163733
-0.0490082
-0.228915
-0.147611
0.0621651
0.026205
0.0426311
-0.217423
0.230205
-0.0607331
0.0341648
-0.262957
-0.0911537
0.0929535
-0.266426
0.0236348
0.177007
0.135285
-0.20119
0.0121529
-0.00956121
-0.0734311
0.191808
-0.180086
-0.0577853
-0.0870731
0.26977
-0.17426
0.253855
-0.0331778
0.20635
0.104554
0.146681
0.246947
0.187234
0.31919
-0.113363
0.110991
0.138379
0.0643169
0.0503622
0.26285
-0.124677
-0.0957155
-0.0119991
0.0508442
-0.0647349
0.118
-0.204224
-0.257871
-0.113809
0.269264
0.0184261
0.161021
0.0265129
0.0406979
-0.0247061
-0.0566181
0.0968796
-0.207394
0.0797851
0.209744
0.277684
-0.158191
-0.212414
-0.272249
0.286169
-0.0672822
0.19689
-0.045659
-0.0512323
0.0358852
0.0630862
0.131605
0.0158381
-0.00551304
0.206226
-0.152771
-0.155346
0.172529
0.138129
-0.195611
-0.200995
-0.108724
-0.0376863
0.000149072
0.0131032
-0.139105
0.0202919
-0.158975
0.165752
-0.0383881
-0.00832309
-0.0536718
-0.289018
0.216918
0.0193614
-0.0463244
-0.0877145
-0.140339
-0.0929716
0.197901
-0.0629409
0.000889918
0.0459736
-0.0408997
0.00136666
0.114626
0.118515
-0.464051
-0.115285
0.182456
0.36457
-0.181592
-0.0314754
0.0753538
-0.0336648
0.214766
0.0221515
0.0935617
0.168311
-0.0727833
-0.16233
0.0713602
0.0215062
-0.201959
0.104993
-0.0980187
-0.112944
-0.0693326
-0.00898964
0.0170617
0.0204696
0.202421
0.15263
0.134661
-0.092145
0.0436084
-0.128857
0.078323
-0.17067
-0.0258171
-0.239851
-0.310607
0.0561649
0.359377
0.0225059
0.341391
0.0562313
-0.149623
0.253165
0.315338
-0.188335
0.166434
-0.185692
-0.0244995
-0.0157352
0.285412
0.0699891
0.0841278
-0.1048
0.248375
-0.23045
-0.10068
-0.134036
-0.0762683
0.171427
0.125957
-0.16915
-0.0590955
-0.0394493
0.254062
0.056385
0.315216
0.263707
0.184193
-0.0315299
-0.0415147
0.0857096
0.209485
0.0342393
0.195787
-0.147224
-0.0459104
0.191821
0.204292
0.0572098
0.204135
-0.0897105
0.040672
0.371725
0.116014
-0.233021
-0.062861
0.150288
0.642142
0.0175033
0.143809
-0.152111
-0.243352
-0.161577
-0.0853574
-0.14287
0.120579
0.118371
0.0294815
-0.0540561
-0.0928392
0.149555
-0.115314
0.052152
-0.177517
0.05496
0.134496
-0.0737619
0.162395
0.0466187
-0.129768
-0.0830586
-0.122106
-0.210349
-0.262351
-0.177354
-0.393093
-0.102446
-0.168311
0.244876
-0.0829421
-0.180066
-0.204372
0.105197
0.369848
0.215106
0.161335
-0.189813
0.095059
0.0473593
0.00563155
0.0756463
0.0161713
-0.065937
0.408728
0.062116
-0.221146
-0.199404
0.428183
0.111517
-0.0607791
-0.113559
-0.0924403
-0.154473
0.137748
-0.16337
-0.00949778
-0.181739
-0.268133
-0.207232
-0.138515
-0.0192657
-0.270128
-0.0962654
0.0247199
-0.0508419
-0.351347
-0.0713236
-0.245365
-0.10391
0.207832
-0.0569968
-0.165177
0.186842
0.265151
0.0368586
-0.207141
-0.148762
0.145371
0.153385
-0.116766
-0.121961
0.0673943
0.175562
0.091408
-0.220409
0.0577391
0.0374245
0.0968235
-0.117578
0.00366706
-0.356699
0.0264536
-0.00984145
0.179104
-0.0940062
-0.290026
0.0139156
-0.0442058
-0.124171
-0.129468
0.118685
-0.143045
-0.0937191
0.00743836
-0.257418
0.160611
-0.49148
0.0160193
0.0445072
0.163007
-0.307531
0.0205536
-0.293469
0.226872
0.101955
-0.0161593
-0.261632
0.131878
-0.155661
0.178991
-0.00805526
0.254408
-0.0529395
-0.0379487
-0.0886049
0.0436793
0.198144
-0.0904988
0.0889947
-0.117512
-0.170921
-0.279987
-0.0968484
0.106847
-0.0638073
0.0667828
-0.117405
0.0812459
0.158403
-0.0738545
-0.0880924
0.0364225
-0.118658
0.217707
-0.373331
0.0467462
-0.0594097
-0.175877
-0.160957
0.0109145
-0.005127
0.194957
-0.0452554
0.00260342
-0.172226
0.137307
-0.0776527
-0.0212832
0.173319
-0.164721
-0.13337
0.0257258
0.0520267
0.0593053
0.240772
-0.0658545
0.0087223
-0.10292
0.10636
-0.100538
-0.144872
-0.102521
-0.167516
0.192855
-0.238863
0.0307307
0.193509
0.0027146
-0.0371868
-0.208957
-0.148079
0.0183541
-0.0412169
0.216926
0.131271
0.0997505
0.111351
0.0974223
0.0494717
-0.0220739
-0.025045
0.271592
0.0874426
-0.0619071
0.0634781
0.183928
0.101493
0.171189
-0.0469425
-0.0991263
-0.0578202
0.0753283
-0.00380903
0.0606242
-0.0401032
0.240105
0.049014
0.0721586
-0.26408
-0.0741881
-0.308747
0.0456389
0.020377
0.0617311
0.0961703
0.0332719
-0.0505978
-0.202306
-0.0957332
-0.0269932
0.193459
0.0568842
0.0488537
0.0854829
-0.332204
-0.045486
-0.217072
-0.276782
0.152887
-0.415884
-0.133653
0.0115544
0.461482
0.0165521
0.227753
-0.05976
-0.0187353
0.195947
0.273692
-0.117322
-0.105944
0.261593
0.141462
-0.0425922
-0.0425122
0.10091
-0.0194463
0.22477
0.0250891
-0.125463
0.0970452
-0.0258949
-0.252292
-0.0171366
-0.0606411
0.214935
-0.254435
-0.0887093
-0.0165109
-0.00430176
-0.257412
0.00343594
0.00844601
0.161828
0.188799
-0.124557
0.0984818
0.0163488
0.0684646
-0.0506069
-0.0969675
-0.242791
0.0233406
-0.126604
-0.320741
0.329555
-0.225847
0.135475
-0.144459
-0.00932814
-0.14432
-0.236539
0.148315
-0.00181834
-0.266413
-0.286745
-0.0730662
0.253043
-0.176421
-0.252639
0.232741
-0.177626
0.396217
0.102413
-0.0898262
0.0186247
0.00387155
0.0187018
0.0656049
0.0975749
-0.0835986
0.109544
-0.0570565
-0.0139197
0.00174124
-0.114879
-0.138733
-0.114936
-0.0441055
0.0865544
-0.611916
-0.103378
-0.193766
0.204952
0.232066
0.0950546
-0.0218671
0.264588
-0.162366
-0.0355778
-0.164378
0.0861319
-0.0466581
0.072839
-0.106269
-0.586287
-0.00127419
0.105639
0.111719
0.118379
-0.193525
0.0870361
-0.00364053
0.0828031
0.0592229
-0.150009
-0.281103
0.0644524
0.176166
-0.163308
0.15428
0.139988
0.000388542
-0.00962912
-0.0960275
0.00258307
0.0280382
0.184075
0.00917835
-0.0670773
-0.174725
-0.115105
-0.0832884
-0.219141
-0.143806
0.236304
-0.118951
0.0761632
-0.137067
0.118128
-0.305513
0.0570879
0.0522383
-0.126649
0.267886
-0.0504003
-0.0900821
-0.152787
-0.174791
-0.151919
0.132381
-0.0414857
0.413055
0.0366984
0.00516229
-0.132954
0.083052
-0.109634
-0.211082
-0.0339367
-0.127068
0.0893962
-0.150221
0.312204
0.116443
-0.0616204
-0.0932977
0.0918099
-0.0780768
0.0320832
-0.0924586
0.231695
-0.0241557
0.0291598
-0.345164
-0.0660619
-0.0155836
0.0237282
0.00780436
-0.000450944
0.139163
-0.10224
-0.152108
0.126489
-0.213317
0.305728
-0.277184
0.0216078
-0.0836269
-0.0511032
-0.481902
0.218197
-0.117906
0.165205
0.150083
0.106369
0.227788
-0.00022622
-0.400112
0.0181478
-0.0962057
-0.0315695
0.270936
0.051935
-0.0842336
-0.0205043
-0.153823
-0.0226806
0.176278
-0.134206
-0.151241
-0.122329
-0.260636
-0.412853
0.101548
-0.220999
-0.0234355
-0.231585
0.0462401
0.0598874
-0.129173
-0.0207258
-0.108381
0.131132
-0.284408
-0.220853
-0.00853295
0.0518072
-0.0992974
0.183947
0.00551649
-0.0957482
-0.0137111
0.127338
0.0601021
0.0961015
-0.158569
-0.0188035
-0.188672
-0.0333322
-0.24728
0.0166174
0.212264
-0.092976
-0.0757303
0.00275532
-0.0860322
-0.00249356
-0.298578
-0.262636
-0.0601259
0.0301873
0.0237275
-0.161955
-0.120207
-0.249103
-0.0920048
-0.0781305
-0.115965
-0.162574
-0.0711087
0.142444
0.141088
-0.0674715
0.0183482
-0.0613096
-0.401109
0.102905
-0.00743546
-0.117259
0.0740907
0.0231779
0.0705409
0.0980892
-0.198114
-0.076575
-0.0606074
0.0110928
-0.108835
-0.169637
-0.113283
-0.0613763
-0.168265
0.0795013
-0.373264
-0.0228502
-0.121675
-0.0313455
-0.012329
-0.0709038
-0.284965
-0.0113472
0.115948
-0.0328073
0.0572056
-0.115076
-0.194934
-0.000171612
-0.362024
0.0731001
0.00490751
0.00564523
0.00673515
0.125059
0.000943404
0.233924
-0.194943
0.190334
-0.096156
0.0163763
0.0611632
-0.0175866
-0.0552827
-0.299597
-0.160955
-0.0735233
0.0543291
0.303156
-0.0689367
0.0713
-0.244182
-0.342392
-0.0971368
0.17398
0.00187368
-0.0637318
0.168003
0.324127
0.0927137
0.161304
0.0681208
0.189457
0.200628
-0.0770816
0.148218
0.0565394
-0.0295785
-0.116313
-0.065271
0.163992
-0.0492862
0.0736539
-0.104734
0.0857009
-0.0888947
-0.110172
-0.300887
-0.122717
-0.354153
-0.000483704
-0.123505
0.224882
-0.0770148
-0.130974
0.104298
-0.0273168
0.129816
-0.433842
-0.0597695
0.0802364
0.0386339
0.0137433
-0.0919027
0.0445634
0.127568
-0.016168
-0.14063
-0.179046
0.053373
0.167397
-0.0884594
-0.120066
-0.217527
0.056306
-0.172695
0.420475
-0.0484433
0.180937
-0.0764773
0.135755
0.010828
0.284876
0.00422136
0.0628293
-0.392383
-0.00909149
-0.172767
0.0628408
0.0706923
-0.185583
-0.0331689
0.191985
0.0867002
-0.1046
0.0649217
0.00354741
-0.538823
-0.169686
-0.200647
0.21313
0.0640058
0.202022
-0.222375
-0.0611026
-0.0170326
0.209694
-0.0596122
0.0847062
0.13867
0.177599
-0.0522656
0.0810972
-0.0157705
-0.228791
-0.0304681
-0.034698
0.0988573
0.289537
-0.0677415
-0.18006
-0.0251389
0.0957438
-0.00206001
-0.114524
0.132662
0.0233346
0.150779
0.122264
0.100136
-0.209925
-0.114108
0.151015
-0.0990543
0.0785287
0.0408291
-0.0739464
0.0198979
-0.00787092
-0.04923
-0.100102
-0.0932758
0.0759829
-0.00576078
0.0448694
0.163752
-0.0284105
-0.123175
-0.0343663
0.43655
0.0018879
-0.021991
0.0654558
0.146823
0.104035
0.0106859
-0.0120142
0.0154522
-0.0673071
-0.259934
0.0548644
-0.0618466
0.197257
-0.276918
-0.0206537
0.104568
0.241274
-0.132761
0.00768315
-0.0776248
0.124508
0.124329
0.227052
0.173389
0.383464
0.000600131
0.206537
-0.0114393
0.127644
-0.11045
-0.0809352
-0.0753919
0.288254
0.305633
0.0648253
0.177129
-0.150338
-0.392303
-0.20581
0.0251197
-0.066659
0.338465
-0.113463
-0.0102376
0.140927
-0.146144
0.0613932
-0.241591
-0.0399187
0.238412
0.102826
0.0535469
0.152848
-0.257164
0.0406914
-0.0868373
-0.0562552
-0.00884329
-0.103528
-0.103575
-0.136514
0.050845
0.0954496
0.0339706
0.286164
-0.163736
0.0995707
-0.218282
0.125074
-0.0917206
-0.0547581
0.0475538
0.0649405
-0.0256344
0.260392
0.0451128
0.188579
0.213289
-0.0754929
-0.141472
-0.0565174
0.0963352
0.146432
0.359906
-0.0783392
0.0390371
0.0340535
-0.117634
-0.116566
-0.0158403
0.0854421
0.435919
-0.0754382
-0.0473
0.138464
0.140028
0.125853
-0.228299
-0.0403265
-0.254855
-0.134384
-0.0614515
-0.203275
0.0397375
0.137628
-0.319509
-0.0189556
0.0935201
0.257039
0.042681
0.29921
0.0666598
-0.165645
-0.0250553
-0.0831788
-0.0215963
0.0319444
0.165513
0.148726
0.0493551
-0.245489
0.0207774
-0.0569282
-0.258091
0.121211
0.0479575
0.184817
0.487756
0.0137095
-0.139564
-0.175115
-0.169435
0.279474
0.516853
0.139174
-0.0934778
-0.0346945
-0.340002
0.0979128
0.165206
-0.167712
-0.0892727
0.148022
-0.0480694
0.22995
0.0231076
-0.0529546
-0.130956
-0.102721
0.120306
-0.0644603
-0.0743813
-0.0247705
-0.0799275
0.188362
0.0509824
-0.0956347
0.135648
0.0295129
0.33352
0.101393
0.096672
-0.0111162
-0.0124799
-0.292391
-0.0478426
0.254916
-0.0851856
-0.00955558
0.0837895
0.0683109
0.0153036
0.0574809
-0.0294507
0.465321
-0.0596023
0.01847
-0.105723
-0.112396
-0.168224
-0.126264
0.241584
0.265558
-0.140819
0.136398
0.115867
0.089172
0.260122
-0.0979187
-0.0768848
-0.00442256
-0.392371
-0.147317
-0.0454571
0.264293
0.235179
0.0749835
0.242859
0.101145
0.00800068
-0.0708172
0.105542
0.0352692
0.16854
0.0612858
-0.209191
0.44638
-0.14976
0.0166116
0.308308
0.150102
-0.0885009
0.109286
-0.0946458
-0.0558722
-0.10742
0.034296
0.10845
0.100413
0.077539
-0.295945
-0.372586
0.0536892
0.0751095
-0.316863
0.120645
-0.11245
-0.0102751
-0.143759
-0.0283386
-0.0361093
0.259531
0.122323
0.209005
0.116203
0.033072
0.165089
0.0735894
0.0741604
0.0220721
-0.186166
0.115851
-0.0114444
-0.360745
0.110752
-0.0133118
0.153523
-0.00467958
0.146339
-0.0339067
0.00854526
-0.111141
0.0229571
-0.0379572
-0.00577077
-0.384611
-0.367027
-0.189176
0.0381176
0.160938
0.129089
-0.350136
0.00746043
0.00679424
0.283712
0.0297482
0.0255503
-0.0693015
0.0617844
0.00921226
-0.0560491
-0.133042
-0.227159
0.271426
0.100818
-0.0843998
0.171133
0.0845221
0.091603
-0.340677
-0.0517893
-0.105087
-0.0382986
0.0284616
0.218193
0.195966
0.189221
0.0766875
-0.2467
0.142592
0.0872803
-0.201701
0.045807
-0.117488
-0.289862
-0.0223036
0.104225
0.0671539
-0.198178
0.18189
0.133212
-0.137726
0.156574
-0.0177676
0.138927
-0.06531
-0.148718
-0.0708078
-0.00151166
-0.153731
0.0747274
0.115665
0.0514939
-0.0966513
0.104995
0.398473
0.0606796
-0.109962
0.0935928
0.0710174
-0.128495
-0.208946
-0.109755
0.0551898
-0.0115754
-0.24134
0.0544618
-0.146303
0.00535714
-0.129495
0.112876
0.184245
0.161285
0.0613255
0.088781
0.0107192
0.1206
0.223851
-0.0388642
0.106977
0.0253948
-0.207535
-0.109403
-0.0645923
-0.0698849
-0.0813254
-0.0327832
-0.0634923
0.350599
-0.0605539
0.153462
-0.197346
0.182168
0.198343
-0.190968
0.0728099
0.0533895
0.0925162
-0.185143
0.122897
0.0810478
0.233372
-0.0748121
-0.0110159
0.221924
-0.182525
-0.035173
0.116984
-0.256089
0.0618034
-0.0367179
-0.275561
-0.116746
0.105808
-0.0194935
0.360534
0.302938
-0.0806818
-0.183265
0.0522817
0.0694666
-0.024531
0.0914924
0.15703
-0.135758
-0.156905
0.0621776
0.0273281
-0.345634
-0.128413
-0.00247599
0.0366671
-0.129261
0.0546676
0.0235651
-0.0183946
-0.0821496
0.0399374
0.0653836
-0.0109036
-0.0733103
0.210437
-0.0592565
0.290888
0.189143
0.102005
-0.0288903
0.17232
0.119805
0.0387585
-0.14798
-0.337167
-0.216761
0.219315
0.0422391
0.186821
-0.100922
0.00706157
-0.181141
-0.138635
0.0958402
0.112519
-0.165028
-0.243175
-0.107605
0.0163073
0.360737
0.424957
-0.0635668
-0.0918949
0.0952724
-0.255149
-0.207273
0.121786
-0.0367881
0.0175625
0.0477484
-0.286427
-0.088872
-0.276569
-0.0357777
0.0159496
0.401318
0.0366858
0.398285
0.0460774
0.122019
-0.0731363
-0.237909
0.176479
-0.0423455
-0.218332
0.361733
0.0206256
-0.0239508
-0.0643626
0.290539
0.293372
-0.160934
-0.358805
-0.340149
-0.03472
0.19271
0.165186
0.209766
0.148344
0.177623
0.0423981
-0.117837
-0.04509
-0.167139
0.120611
-0.03875
0.283864
-0.1474
0.0642779
0.0498852
-0.0733071
-0.101773
-0.0112889
0.0127967
0.344219
-0.00721827
-0.104728
-0.101756
0.21532
-0.177105
-0.163058
-0.0277625
-0.0189019
-0.187145
-0.19523
-0.010515
0.149747
-0.165322
0.0802417
-0.143397
-0.180004
0.132404
0.153282
-0.00246327
-0.154462
0.150683
0.0537221
-0.139688
0.13057
-0.00283292
0.0549879
-0.0779434
0.120996
-0.119511
-0.175216
-0.122686
-0.11795
-0.0963576
-0.294634
-0.13832
-0.385519
0.0372611
0.0324128
0.0463821
-0.0868548
0.088296
-0.0941064
-0.234446
-0.197729
0.0668574
0.165105
-0.0305534
-0.029613
0.0565748
-0.00808689
-0.0345824
-0.211459
-0.0342581
0.19053
-0.321957
0.281809
-0.127343
0.116415
-0.0195018
0.0992933
0.0776487
-0.00283947
-0.160033
0.112601
-0.148825
-0.137871
0.0475122
0.398415
-0.253757
0.0962711
0.121255
-0.0841683
0.0360994
0.0498097
-2.07334e-05
-0.0146471
-0.060646
0.126803
0.00746635
-0.206981
0.0383292
0.142359
-0.211929
0.187132
-0.00322057
-0.147461
-0.116542
-0.0317215
-0.0300737
0.101716
-0.0988909
-0.16046
0.245411
-0.0312949
0.207573
0.0768514
0.165757
-0.0162449
-0.0218127
-0.112914
-0.123811
-0.312774
0.0887836
-0.177111
0.118664
-0.064574
0.0782201
0.164587
-0.136252
0.0520791
0.0774802
-0.0714226
0.0555346
0.0479461
-0.0475548
0.166879
-0.0866905
