5
-0.988963
-1.29186
-0.847587
0.131568
0.0416791
-0.313651
-0.0546254
0.541765
0.467826
-0.135648
0.0491282
1.25398
1.13411
0.637639
0.634573
0.607845
0.994925
0.385899
0.00197917
0.10829
-0.201249
-0.061593
-0.658484
-1.27471
-0.826814
-0.156744
-0.027717
0.302973
0.0510515
-0.531449
-0.863232
-0.708318
-1.00472
-1.77202
-0.834939
-0.542358
-0.883434
-1.68243
-1.53221
-0.550321
-0.0424802
-0.530113
-0.0899491
0.649386
0.981675
0.76172
0.434362
1.02951
1.00455
1.15662
-0.939565
-1.47195
-1.85292
-1.58001
-2.20786
-1.01354
-1.64819
-1.93207
-2.05618
-2.77175
-1.04518
-1.55777
-1.30083
-1.40334
-2.4809
-0.69536
-1.14208
-1.23256
-1.5458
-1.67581
-0.181268
-0.397321
-0.427388
-0.767276
-1.22938
-1.49849
-1.61887
-0.859448
0.213776
0.656354
-2.09384
-1.71563
-0.665506
1.37919
1.18357
-1.44125
-1.29417
0.122656
1.61724
1.32654
-0.620764
-0.164792
0.393543
2.27561
1.71457
0.0792365
0.0269924
0.295799
1.15879
2.05167
-0.84578
-1.14871
-1.01661
0.139189
0.54642
-0.602007
-1.21091
-1.30521
2.06254
2.21607
-1.39128
-1.31158
-0.284949
3.25285
4.21707
-2.26743
-1.52322
1.04568
4.74164
5.07981
-1.97581
-1.12896
1.98211
4.27854
4.04052
0.312554
-0.353422
-0.56925
-1.39624
-2.10437
-0.536692
-1.35485
-1.08464
-0.824711
-0.530956
-0.781104
-1.29885
-0.202419
0.914292
1.07382
0.231352
0.710973
1.41206
0.940533
0.406993
1.72659
0.289889
-0.13311
-0.636239
-0.716198
86400
-0.198517
0.0201551
0.192634
0.349587
-0.00764396
0.121723
0.0406322
-0.116286
-0.053011
-0.153054
0.366556
0.103067
0.0413429
0.360973
0.206011
-0.0424898
-0.0824788
0.085663
-0.0138491
0.152621
-0.0496399
0.15415
0.0402287
-0.0828985
-0.0402811
0.00851392
-0.100533
0.288143
0.129516
0.134247
-0.113741
0.111912
0.127532
0.148141
0.157911
0.147137
0.104714
0.00194924
-0.0809021
0.166462
-0.120566
0.0843695
-0.0936615
-0.231811
-0.240135
-0.333937
0.217325
-0.05556
-0.0538984
0.00570208
0.0212621
0.0433819
-0.23633
-0.0503226
0.11398
-0.235107
0.062077
0.00742906
0.0901968
-0.0654279
0.163702
-0.17206
-0.213433
-0.0385423
0.341941
0.304363
0.108933
0.112271
-0.126104
-0.0433063
0.198783
-0.068006
-0.0502412
-0.324509
-0.146079
-0.032261
-0.0794457
0.204487
-0.134945
-0.0990388
-0.132877
-0.215221
0.0489042
0.0855717
0.109027
0.21116
-0.0367414
-0.123617
0.203034
-0.196957
0.0303312
-0.0502659
-0.208081
-0.0911407
0.210408
0.0154222
0.190758
0.143283
-0.0929634
-0.0618091
0.061024
0.281114
0.212655
-0.00662237
0.256231
-0.285884
-0.195849
0.106648
-0.183725
0.150532
0.298184
0.0588555
-0.0644655
-0.00434274
-0.0677578
0.00123391
0.115507
0.135214
-0.110699
0.158796
0.000636401
0.0836053
0.090919
0.374461
-0.00319101
-0.17329
0.119627
0.120177
0.118152
0.12504
0.0887225
0.197543
-0.119843
0.0964498
0.155944
-0.116376
-0.0814025
0.261836
0.118083
0.136489
0.0762379
-0.273273
-0.125612
0.107933
0.062296
-0.142002
-0.0203909
-0.0230881
0.323771
0.0173615
0.266977
0.222008
0.135272
0.171793
-0.096105
-0.0137145
0.0122264
0.182621
0.119224
0.289066
-0.260566
-0.10379
0.0383129
-0.191456
0.0361131
0.175433
0.00257826
0.162719
-0.0737008
-0.03596
-0.0944758
-0.107722
0.182441
-0.0503885
-0.0291659
0.125927
0.0340678
0.0346345
0.0704266
0.0564227
0.17687
-0.0753285
-0.0984151
-0.286852
-0.148243
0.17356
-0.139578
0.130974
0.0237962
0.0499392
0.0435154
0.332044
0.152438
0.145705
0.0552312
0.0206392
-0.026415
0.134569
-0.0369465
0.0582898
0.235316
0.0773611
-0.098296
-0.172159
0.0212327
0.130636
0.082557
-0.00774914
-0.0255037
-0.120733
-0.172844
0.101747
0.188514
-0.173157
-0.191498
0.0973718
-0.0946984
0.0830599
0.135078
0.242165
0.0448676
0.149637
-0.0673253
0.241537
-0.00337846
0.347609
0.0612781
-0.125253
0.0117694
-0.325545
0.248083
0.188112
-0.0292456
-0.135015
0.257199
-0.187952
0.0830686
-0.074461
-0.0915877
0.167031
0.203242
0.0976677
-0.140677
-0.0209834
0.0190081
-0.238019
0.250736
-0.285115
0.345021
-0.305366
-0.168392
0.1226
-0.103091
-0.250932
0.0315963
-0.00542614
0.109053
0.163565
0.0608677
0.2665
0.184739
-0.0603669
-0.207925
-0.0393656
0.14361
-0.102033
-0.0880676
-0.035983
0.0981374
-0.0842608
-0.00671035
0.0682698
0.038776
-0.0375296
0.273074
0.0626841
0.251703
-0.199294
-0.0161512
0.0816401
-0.0981922
-0.239747
0.108374
0.0563873
0.236128
-0.132916
0.0285043
-0.0670033
0.0474063
-0.00534596
-0.192846
-0.159725
0.192278
-0.189258
-0.20377
0.208767
0.0156182
-0.068997
-0.239022
0.0636168
-0.297365
-0.039042
-0.182354
-0.0205235
0.373426
-0.122162
-0.237138
-0.172269
0.0375885
-0.101634
-0.0127286
-0.0876866
-0.00515822
-0.0544291
0.292935
-0.0338885
-0.0184655
-0.0761137
-0.274177
-0.086126
0.00551597
0.0648038
-0.087563
-0.296877
-0.0574548
0.0801038
0.00232891
0.227548
0.299376
-0.0121909
0.188927
0.0711703
0.0446679
-0.34229
0.0162955
-0.19132
0.272614
-0.0957494
-0.347667
-0.118882
0.40344
0.0216294
0.237787
-0.00871503
0.108345
-0.0211276
-0.0453638
0.250051
0.331764
-0.129845
0.0419041
-0.106915
0.217632
-0.0417181
-0.117014
0.0581173
0.0464718
0.0168013
0.246596
-0.041824
-0.0218761
-0.167658
0.184567
0.0632098
-0.216342
0.174834
-0.113703
0.0984753
-0.108667
-0.102791
-0.0311751
0.210976
0.17765
-0.0630795
-0.135684
-0.0724334
-0.24755
0.0514847
0.0440596
0.0259746
-0.161062
0.143031
-0.143033
0.368633
0.0466333
0.257283
-0.358988
-0.401061
-0.0593208
0.314688
0.0199188
-0.078208
0.103616
-0.228973
0.224466
0.262275
0.175458
0.160451
-0.0606702
0.100217
-0.0286007
-0.0269908
0.0352462
0.0384299
-0.15771
-0.358496
-0.334095
0.061872
-0.402607
0.0964994
-0.231354
0.240791
0.133166
0.0735482
0.31391
0.00610257
-0.0891767
-0.215484
-0.101886
0.0478159
-0.0583404
-0.115109
-0.0204147
-0.184111
-0.0242464
0.314241
0.165611
0.18319
0.0514081
-0.00382053
0.0409956
0.0637592
0.179539
0.1054
-0.181185
0.176329
0.311165
0.375773
0.147974
0.394339
0.0619436
-0.324247
-0.258915
-0.411185
0.23898
-0.0129629
-0.113584
0.167965
0.280415
-0.0658203
0.144595
-0.0682259
-0.0557483
0.100269
0.229239
-0.0046673
0.13495
0.322177
-0.111469
0.273406
-0.0406997
-0.0788953
0.181198
-0.0396178
-0.163037
0.135888
-0.258599
-0.15909
0.204475
-0.324545
-0.164579
0.0890962
0.00696939
-0.0889711
-0.0457034
0.111359
-0.343519
0.0835427
0.166916
0.187442
0.00164765
-0.0690511
0.0114843
-0.371046
0.136343
0.263847
-0.0867717
-0.266007
0.0720899
-0.0706111
0.0593953
-0.0861591
0.0666686
-0.0082088
-0.01793
0.03604
-0.0055654
0.190069
-0.0254915
0.125001
0.0632431
0.128186
0.140996
0.0100514
-0.0202431
0.044367
0.0410666
-0.235355
-0.221107
-0.151455
-0.000257261
-0.0313217
-0.246906
-0.0266195
0.0696159
0.0314066
0.157436
0.251264
-0.110058
0.189105
0.0240497
0.209162
0.0529032
0.182936
-0.014652
-0.0527395
-0.0282416
-0.16877
-0.00621456
-0.161363
-0.0679183
0.134888
0.29292
-0.0365785
0.166062
0.0521071
0.0101495
0.266925
-0.0352371
0.299158
-0.0454765
-0.0402329
-0.123115
-0.412981
0.210072
0.0694894
0.108324
0.0165968
0.228918
-0.266564
-0.203131
0.0122212
0.0263139
0.163834
-0.378581
0.114502
0.0631666
0.163058
0.184038
-0.0367085
-0.204281
-0.247861
-0.0218095
0.129912
-0.0379561
0.17701
0.0827776
-0.117793
-0.0950621
0.113756
0.107847
-0.013256
0.224599
-0.100954
-0.232979
0.186456
0.0091604
-0.0381634
0.111984
0.156983
0.202745
0.106207
-0.0834935
-0.069558
-0.0405411
-0.15447
0.130748
-0.444877
0.00241113
-0.156396
-0.00517945
0.137636
0.121788
0.01259
0.314756
-0.0118928
0.169287
-0.26922
-0.211061
0.0906303
0.0955105
-0.199433
-0.0699534
-0.0673785
-0.0644519
-0.00349104
0.00639847
-0.0276136
-0.122091
-0.224304
0.219527
0.305751
-0.0588884
-0.141224
0.194668
0.432785
-0.299734
0.183505
0.307274
0.0300874
0.0539462
0.0953401
-0.0148369
0.0173464
0.147321
0.0954732
0.000560725
-0.0928817
0.155003
-0.202919
0.076768
-0.177408
-0.233797
-0.462883
0.0665756
-0.0861306
-0.145291
0.166313
0.203631
0.156066
0.321643
0.102804
0.188603
-0.217579
-0.250296
0.246558
0.0315617
0.0788204
0.153579
-0.313881
0.139395
0.148179
0.0333944
0.12711
-0.257401
0.117576
-0.227041
-0.0507578
-0.00480878
0.06171
0.0288167
0.298301
0.0580312
0.187896
-0.221675
-0.0403997
-0.0392148
-0.0787717
-0.0894652
-0.438714
0.0909682
0.205188
0.0937081
-0.133808
-0.116279
-0.105502
-0.0764342
0.141109
0.180987
0.363184
-0.0314524
0.0635474
0.161652
0.154385
0.152514
-0.136888
0.000492601
0.00619081
0.0344727
-0.0252907
0.00222143
0.0310715
0.0741386
-0.22468
0.313215
0.40799
-0.239654
-0.186173
-0.0548589
-0.126005
-0.172415
-0.00402042
-0.423546
0.183715
0.217972
-0.0929049
0.144263
0.0263942
-0.0274656
-0.343773
0.147786
0.0271854
0.112394
-0.150655
-0.0872087
-0.184521
0.21896
0.339088
0.136226
0.204429
-0.237471
-0.071947
-0.0361261
0.162621
-0.169565
-0.0201378
-0.116307
0.178322
0.0715307
0.127673
0.111219
0.257872
-0.0757744
-0.22533
-0.102638
-0.285343
-0.020459
0.334696
-0.00647894
0.385166
-0.0739467
0.25718
-0.0711681
-0.174166
0.119595
0.0608843
0.098511
0.112811
0.206876
-0.044417
-0.0352116
-0.0266193
-0.135084
0.10642
0.140967
0.235699
-0.236235
-0.0412176
-0.278801
-0.0255344
-0.125558
0.091408
0.0660017
0.102788
-0.253798
-0.0259635
0.0537496
-0.264312
0.0680867
0.00920294
-0.0391053
-0.232753
-0.00931153
-0.229011
-0.227316
0.0463022
-0.11754
0.204823
0.0856791
0.474151
-0.0458883
0.308588
0.0200265
0.140071
-0.0192622
-0.0219928
0.0306903
-0.380671
-0.0265569
0.112928
-0.0111184
0.201064
-0.222772
-0.351275
0.0365901
-0.0955151
-0.0310299
-0.0410564
-0.0762655
-0.08971
0.185986
0.0362757
0.299844
-0.0765905
-0.228847
0.18138
0.0990986
-0.0289978
0.0726516
-0.0781828
0.0248813
0.159349
0.0930287
-0.121143
-0.164962
-0.0281266
0.0246994
0.176692
-0.128731
0.17501
-0.0206912
0.0848227
0.19907
-0.106899
0.356396
-0.113066
0.0351965
-0.0998946
-0.00424806
0.105506
-0.00370252
0.0288971
-0.200456
-0.0936793
0.0457327
-0.0120195
0.0884721
0.270382
0.0710796
0.127278
-0.0607704
0.00220977
0.166744
-0.382037
0.0531113
0.232305
0.105528
0.0518684
0.0678414
-0.25203
-0.122102
-0.1857
0.18193
0.0656773
0.0048213
-0.170713
0.163883
0.144591
0.116602
-0.295534
0.189154
-0.142479
0.261534
0.260832
0.00580076
-0.126311
0.0463431
0.129425
-0.23089
0.23802
0.213676
0.0213108
-0.355445
-0.0638708
-0.134015
0.164092
-0.250274
0.333317
-0.027927
0.386614
0.200043
0.156084
0.00198047
-0.0946063
-0.229342
-0.208031
0.100353
-0.217613
-0.0316656
-0.0202312
0.102986
0.0254523
0.0619097
-0.217965
0.0214874
0.221714
0.170955
-0.253438
-0.0389746
0.0608047
0.2527
0.113232
-0.063341
-0.210757
-0.0978944
-0.0303386
-0.113549
0.0325787
-0.104272
-0.0257295
-0.115816
-0.0628998
-0.0116648
0.00436782
-0.205845
0.13887
0.0632775
-0.236041
0.159136
-0.0311753
0.135981
-0.0401665
0.0370995
-0.31528
0.126897
0.103727
0.0184987
-0.0730146
0.0117416
0.104497
-0.228556
-0.155096
0.255772
-0.190393
-0.00488563
-0.215094
0.160569
0.499946
0.0778715
0.15751
0.00182482
-0.241939
0.0704807
0.0216184
-0.234697
0.205982
-0.0929326
-0.226589
0.124899
0.0689435
-0.177383
-0.148202
-0.114478
-0.108772
0.193146
-0.195926
0.121901
-0.0185018
0.10325
-0.0101391
0.0321089
-0.256699
-0.0984038
0.0931955
-0.0189901
0.271943
0.368244
-0.0863471
0.0214483
-0.232582
-0.0777189
0.00203308
-0.157943
-0.273972
0.0614865
-0.0505298
-0.00931411
-0.10508
0.0613429
0.160972
-0.0700651
0.0648167
0.208012
0.184369
0.237318
-0.0441035
-0.252355
-0.123445
0.064546
0.0978446
0.130179
-0.213957
0.173753
0.0573428
-0.00246081
-0.0667385
-0.206708
-0.233928
-0.0184606
-0.0247368
0.247683
0.026274
0.212699
0.0544322
-0.0311481
-0.025874
0.211308
-0.0272098
-0.148906
-0.115709
-0.255147
-0.118379
0.0382601
0.00287743
-0.259234
0.26639
0.0217483
-0.0410713
-0.0270587
-0.210515
0.0275364
-0.189362
-0.23852
0.114925
0.0134852
0.0472639
0.101458
0.0534699
-0.320467
0.0913458
0.126296
-0.000207267
-0.056423
-0.0690763
-0.194412
0.0119412
0.292805
0.0411952
-0.0291588
0.0193202
0.0112764
-0.139008
-0.059523
0.144443
-0.152337
-0.0126565
0.167247
0.0345834
0.176542
0.0453505
-0.0132528
-0.0164446
-0.0665735
0.130448
-0.186642
0.139056
0.0899582
-0.152143
0.00174787
-0.0778425
0.0174813
-0.246281
-0.149515
-0.0225186
-0.255527
0.296807
-0.102063
0.0570494
-0.26478
-0.080637
0.000145886
-0.0545078
-0.0621194
-0.0189056
-0.018236
0.0271621
0.116575
0.33321
-0.0837946
0.211607
0.0813047
0.285667
-0.201952
0.0611067
-0.0108418
0.052376
-0.143743
-0.0490341
-0.336668
-0.146473
-0.0366406
-0.232941
0.168189
0.0172343
-0.0743282
0.00157464
0.258048
-0.297675
-0.0031527
0.217577
-0.130723
0.146757
-0.0710789
0.0806199
-0.147502
-0.256304
0.0807571
0.0518315
-0.162488
-0.344843
0.189534
-0.0111172
-0.240839
-0.0233572
-0.134771
-0.146812
-0.0927316
0.114718
-0.173214
-0.191366
-0.063713
0.150924
0.0107203
0.0898086
-0.0108509
-0.015037
0.246254
0.299785
0.386668
-0.11716
0.158023
0.0277344
0.224581
-0.118351
-0.0886028
0.13115
-0.129241
0.078926
0.05031
-0.0423388
-0.175531
-0.176873
-0.271602
-0.0584496
0.356549
0.137913
0.320486
-0.105339
0.179191
-0.0954443
0.0465441
0.0132562
-0.0909815
0.00759819
-0.368912
0.110982
-0.0668842
0.165667
0.0446223
0.164739
-0.113656
0.0811015
-0.332775
-0.13341
-0.240012
-0.0516175
0.0867355
0.174788
0.215175
-0.108384
-0.317853
0.0981925
-0.3836
0.00875797
0.17395
-0.0453664
0.0851109
0.0320658
-0.164172
-0.265865
0.104386
0.16297
0.00418308
0.382014
0.161708
-0.223658
0.109142
0.0984425
0.184573
-0.168124
-0.0101668
0.125159
0.0644781
-0.151942
-0.0067211
-0.00494318
-0.00297179
0.00570273
-0.195051
0.235729
-0.0118599
0.0121564
0.236896
0.204746
0.176516
0.026797
-0.180433
-0.172702
-0.0175994
0.00459357
-0.0402198
0.131798
-0.0121614
0.0414485
0.042457
0.380995
0.00989598
-0.0622002
0.0542782
-0.194242
0.263715
-0.235496
0.197449
0.0660923
0.159466
0.0423449
-0.136845
0.17079
0.284498
-0.000781281
0.0696567
-0.206024
-0.0143299
-0.177323
-0.0410497
0.0761635
0.232978
-0.25144
-0.179761
0.0255844
-0.0933322
0.134553
-0.00776889
0.149441
0.127001
0.302994
0.189682
-0.00692261
0.196948
-0.259876
0.163207
-0.183643
-0.273045
-0.274059
-0.133646
0.110143
-0.0347277
-0.236858
-0.54426
0.0830119
0.126094
-0.119621
0.0350573
-0.346944
-0.0898273
0.103314
-0.276324
0.174272
0.118355
-0.0595488
-0.20773
-0.184174
-0.175221
-0.148271
0.063777
-0.189562
0.108457
0.0952247
0.262046
0.307091
0.15451
-0.0560309
-0.111357
0.0314879
0.336943
-0.140369
0.125898
-0.207111
-0.132942
-0.265891
-0.00772402
0.0840836
-0.0222666
0.183771
0.12067
-0.125211
-0.335408
0.054672
0.134187
0.134576
-0.0325574
0.0806162
-0.0695723
0.14228
0.214576
-0.0078789
-0.0637715
0.144874
-0.111403
0.267814
-0.068931
-0.0994643
-0.280987
0.273156
-0.00730235
-0.0781321
0.0271217
0.335451
-0.0211269
0.0875448
0.254257
0.0773071
-0.232556
0.386808
0.0413312
0.177392
0.0344316
0.0264082
0.0915517
-0.0279321
0.104524
0.0377341
0.160407
-0.102122
-0.0242019
0.100511
-0.101164
-0.0505467
0.0964912
0.124932
-0.189507
0.030832
-0.0219613
0.0804854
-0.0458026
-0.00119977
0.0581176
0.112522
0.00926713
-0.0648886
-0.0289715
0.151237
0.0170654
0.370831
0.348428
-0.0975601
-0.249444
0.160912
0.0242827
0.143374
0.282279
0.0195307
-0.0433608
0.0120907
-0.126117
0.216372
0.0286342
-0.0106866
-0.161275
-0.152511
-0.0286989
-0.111247
0.220684
-0.0882285
0.030661
-0.158825
0.0276042
0.00497953
0.190324
0.169371
-0.0996461
-0.101437
0.121817
-0.0696674
0.263962
-0.422302
-0.113557
-0.229118
0.197941
0.22139
0.191807
-0.119963
0.112251
-0.0861132
-0.072636
-0.015999
0.0448145
-0.00648738
-0.0703096
0.146274
0.198365
0.0974781
0.265289
-0.0284062
-0.0495198
0.0110469
0.474344
-0.0954025
0.208146
0.128369
0.00214765
0.0923922
-0.177131
0.0130029
-0.176463
0.0365673
-0.0344956
-0.133265
0.353301
-0.0607032
-0.0296618
0.169111
0.03304
0.0857013
-0.299509
0.104286
-0.302138
0.0147967
-0.0160739
-0.0999443
-0.165216
0.0328062
0.036368
-0.0137268
-0.144928
0.167289
0.154995
-0.0197599
-0.0165215
0.185917
-0.107689
-0.286837
0.0879008
-0.0922221
0.0788309
0.0877409
-0.0321283
-0.0285496
-0.397418
0.0602802
0.106817
-0.247958
0.0896228
0.149515
0.125624
-0.149578
0.055384
0.0143396
-0.0542234
0.223502
0.323338
0.164847
-0.0052954
0.0625873
-0.282472
-0.00196464
0.138576
7.09517e-05
0.0141019
-0.00104498
0.195378
0.149034
-0.0687116
-0.193706
0.0977255
0.114922
0.0344861
0.247231
0.207521
0.020415
-0.151624
-0.152425
-0.0825194
-0.103004
0.00986633
-0.0724602
-0.0385696
-0.0402611
0.00930025
0.342061
-0.257472
-0.109052
0.152397
-0.16311
-0.0916185
0.114579
-0.215121
-0.234078
-0.105952
0.186177
-0.112707
-0.343675
-0.00665654
0.29785
0.256733
0.294434
-0.132638
-0.0622983
0.014939
-0.0693928
0.0182268
0.0635865
-0.0556017
0.0534869
0.201313
0.0840767
0.0834082
-0.222492
0.195215
-0.0942879
0.0217372
-0.0153443
0.0174752
-0.107879
0.0218039
0.168165
0.238932
0.201968
-0.0327455
-0.0502708
0.281547
0.0709629
-0.0109521
-0.325279
0.100706
0.0713961
0.0841388
0.10565
0.0618349
-0.0163938
0.317045
0.121911
0.0494772
-0.157305
-0.107671
-0.029373
0.309105
0.083502
-0.10127
0.144917
-0.200247
0.0920373
-0.219289
0.0703807
0.0857624
0.245269
0.12291
0.100338
-0.115998
0.0691806
0.0704196
0.14243
0.0746784
0.180556
-0.0279799
-0.279301
-0.269959
0.0448663
0.139338
0.0378203
0.0372877
-0.11996
0.313645
-0.289056
-0.0999202
0.131958
-0.0840112
-0.087281
0.0937346
0.192833
-0.338985
0.103965
0.336765
0.101459
0.0375574
-0.127441
-0.00279701
0.222678
-0.0159312
0.0189699
0.277183
0.18663
-0.0113186
-0.159096
0.0531974
-0.180876
0.14174
-0.197928
-0.0395456
0.190114
0.203241
0.20866
0.11795
0.267746
-0.0820382
-0.0988996
0.240001
-0.0805918
-0.0843789
0.0296569
0.137392
-0.315084
-0.103429
-0.21833
0.00716916
-0.00399705
-0.05932
0.129153
-0.123992
-0.0500924
0.271253
-0.240575
-0.0139922
0.250137
0.409925
-0.0807776
-0.205449
0.00864439
0.0266212
-0.0649739
0.0859413
0.00875956
0.0820577
0.00049729
-0.0724419
0.199755
-0.0339253
0.120646
-0.0883498
0.177681
0.000953027
-0.0890523
-0.0297778
-0.0954101
0.0429942
-0.31299
-0.131235
0.101096
-0.257525
0.0456974
0.188018
0.010622
0.0680136
-0.164603
0.198031
0.0877201
0.190811
-0.0743252
0.20483
0.236242
0.0233733
-0.0346092
0.0445464
0.159168
-0.341344
0.0103296
0.263605
0.00412757
-0.195191
0.0598357
0.0558741
0.00196505
-0.0750918
-0.0897186
-0.185364
-0.239661
0.0809571
0.182101
-0.00149239
0.46063
-0.120862
-0.0467991
-0.311006
0.123415
0.16099
0.182508
-0.00533991
0.201775
-0.0544562
-0.0795939
-0.161682
-0.100719
-0.040315
-0.118483
-0.129973
-0.175944
0.155088
-0.0355113
-0.0472075
-0.0528661
0.205123
0.136655
0.303932
-0.0889583
-0.00172735
-0.286041
-0.112031
0.00232431
-0.00589146
0.155198
-0.0217352
0.157377
0.172044
-0.133277
-0.388712
0.31057
-0.0072566
-0.000126478
-0.0114153
-0.0802781
-0.0837858
0.241958
0.0359312
-0.0962463
-0.07221
0.113274
0.149213
0.484588
-0.041222
0.0890935
0.0600662
0.18084
0.107065
0.152403
-0.00964408
0.303682
0.111781
0.139764
0.332576
0.122081
-0.0621618
-0.220919
-0.117914
0.157739
-0.137353
0.223005
0.0973705
0.149391
-0.0890468
-0.252762
0.216605
0.279343
-0.0215142
0.201074
0.0941414
-0.0512043
-0.0278545
0.319058
0.0665859
-0.314283
-0.0259332
-0.309119
0.190519
0.153572
0.0396519
-0.0867224
-0.0845161
-0.188193
-0.112326
-0.122755
0.164057
0.188927
-0.0849701
-0.130665
0.114723
0.557583
-0.146637
0.0315335
-0.0387312
0.401164
-0.0922347
-0.155141
-0.133842
0.00237686
0.148738
0.00339901
-0.256425
-0.166454
0.473137
0.0543625
0.110671
0.0162828
0.0920847
0.159321
0.104957
-0.125749
0.188728
0.0669076
-0.0509133
0.140673
-0.0869997
0.00982779
0.184656
0.139863
0.041736
0.261091
-0.00347757
-0.0709601
-0.233812
0.0113017
-0.0287487
-0.253043
0.0570169
-0.273138
0.00611503
-0.18643
0.117707
-0.163248
-0.00193496
-0.0952817
-0.113514
0.0393277
-0.183036
0.126197
-0.253278
0.118101
-0.156192
0.132514
0.098312
-0.0587506
-0.0629094
0.0072514
-0.0250512
-0.220905
-0.0598611
0.00986914
0.0285655
-0.10044
0.126799
0.00742913
-0.0111099
-0.0593605
-0.0973143
0.0797423
-0.404574
0.0397
0.20104
-0.00831985
-0.266818
-0.243369
0.267885
-0.185889
0.0987541
0.170007
0.0409273
-0.0321591
-0.267493
0.298821
0.0272405
0.135522
0.147706
-0.0382071
-0.080406
0.140504
0.0502624
0.0417115
-0.109374
0.157981
0.500886
-0.111417
0.266851
-0.167535
-0.0823876
-0.0514982
0.123942
0.0357467
-0.0226604
-0.0911192
0.0209958
0.184493
0.0815068
-0.0640435
0.0936441
-0.101855
-0.289331
0.0995572
0.0128551
-0.10963
0.0224025
-0.224907
-0.175495
0.115809
-0.241624
0.215986
0.19993
-0.0682674
0.0345449
0.121385
-0.00821602
0.0394174
0.0191131
0.277523
0.314416
0.257848
-0.00217546
-0.15202
0.109395
0.0505258
-0.0905704
-0.0836906
-0.256828
-0.253253
-0.0637662
-0.373115
-0.174812
0.0991443
-0.065496
0.0484882
-0.216635
-0.0535776
0.0951165
0.277365
0.381787
-0.0140377
0.111959
-0.11382
-0.042784
0.330582
0.0372388
0.0852143
-0.160313
-0.120199
0.129646
-0.106531
-0.179108
-0.122869
0.0719685
0.377949
-0.130488
-0.0511746
-0.136706
-0.259556
0.0941775
0.00617779
0.327125
0.126963
-0.0892494
-0.0231944
0.0365817
-0.209615
0.0227642
-0.314351
0.411898
0.0514398
0.0901706
-0.0329
-0.274825
-0.0564641
0.0862801
-0.157635
-0.344514
-0.0856143
0.11302
0.357064
0.0720518
0.0742332
0.0990579
0.219744
0.167448
-0.0626026
-0.0841661
-0.0803386
-0.214469
-0.0260277
-0.00712213
0.0467423
-0.188094
-0.0537253
-0.260853
0.12661
-0.536782
-0.113965
0.147932
-0.341757
-0.101121
-0.339074
0.00306427
-0.0153166
-0.0523971
-0.00835537
0.0418363
0.2391
0.103073
0.103005
-0.188905
0.0525842
-0.130331
-0.0642414
-0.189528
-0.0707322
-0.0804787
0.200093
-0.145239
-0.0105419
-0.0315682
-0.187607
0.0956634
-0.302376
-0.042434
-0.10111
0.241866
-0.194736
0.0501919
-0.190562
0.265183
0.0346029
-0.0424444
-0.0302469
-0.135093
-0.0248576
-0.205087
-0.0305306
0.165918
0.22526
0.0381152
-0.206804
-0.0123621
0.193771
0.0324154
-0.13366
0.0413088
0.0508881
-0.0656553
-0.0621459
-0.0786273
-0.119429
0.290411
0.147433
0.0594042
-0.0565555
0.0485452
-0.015889
-0.237475
-0.104687
-0.253861
0.0628216
-0.0637538
-0.243202
-0.0363722
-0.217723
0.0365567
0.163144
-0.0883847
-0.0718009
0.0326126
-0.0650113
0.17728
0.0798604
-0.0699836
-0.127199
0.233063
0.0282056
-0.137654
0.05204
-0.0312265
0.147743
0.121038
0.050356
0.0234223
-0.242492
0.324646
-0.0595462
-0.322461
0.0361441
0.10706
0.543201
-0.0630417
0.344435
-0.16097
0.12623
-0.0497447
0.241449
-0.386103
0.151637
0.0653575
-0.0853277
0.400291
0.0847882
-0.0715511
0.258818
-0.147237
-0.053666
0.086947
0.276213
0.136734
-0.11269
0.0214853
-0.0921047
-0.0323159
0.0789177
0.13915
0.288974
0.189144
0.192818
-0.107755
-0.0340451
-0.0730579
0.1699
0.0251554
-0.263774
0.152146
-0.0762291
0.115831
-0.19782
-0.116666
-0.147572
-0.014774
-0.0542124
0.0758002
0.553876
0.260449
0.164835
-0.0411407
-0.003321
-0.213998
0.00684272
0.0878572
0.337071
0.207167
0.121205
-0.0738249
0.111151
0.35068
0.0804911
-0.0832643
-0.0689514
0.189662
0.280303
-0.0570217
-0.107134
-0.0481119
-0.0439568
0.175182
0.0202936
0.0769654
0.327878
0.241339
0.28964
-0.0313099
0.154838
0.0439133
-0.123463
0.0258791
0.194159
0.171978
0.217743
0.189641
0.0686572
-0.0691975
-0.191182
0.261683
0.148863
-0.138493
0.264402
0.100946
-0.191722
0.0268438
0.0103225
0.234591
0.179333
-0.100239
-0.206874
-0.0528495
0.0957743
0.141163
-0.0422691
-0.258989
-0.248723
-0.00614865
0.0453382
-0.271494
0.211038
0.0682404
0.0412131
0.0599308
0.00345112
0.24437
-0.0663547
-0.296558
0.231101
0.220096
0.124284
-0.0116559
0.188432
0.0124285
-0.18192
-0.059668
-0.0255304
-0.014659
0.0221749
0.0439988
0.177762
0.295427
-0.000600763
-0.0895848
0.129169
-0.106813
0.18875
-0.0112205
-0.106761
-0.408049
0.0152683
-0.087672
0.0894976
-0.0976958
0.0987868
0.0555516
0.0683542
-0.0641106
0.209896
0.0712789
0.0773409
0.191003
0.0129587
-0.108517
0.124499
-0.259045
-0.0494723
0.100815
-0.347162
-0.0660354
0.172381
0.00929054
-0.18053
0.107378
0.0347084
-0.0259214
0.0505132
-0.0762756
0.0858156
0.0545075
0.0396242
-0.153904
-0.0117135
-0.194967
0.093608
0.023256
0.147984
0.183219
-0.20829
-0.0894368
0.158238
-0.0918723
0.139858
0.0245805
-0.311757
0.0317997
0.0483903
-0.111009
-0.0694959
-0.0577177
-0.190692
0.212409
-0.130333
-0.0575477
0.0230447
-0.0999149
-0.047309
0.133652
0.0231352
-0.0777597
0.0785052
-0.114447
-0.0310146
0.203536
-0.0917309
-0.0425293
0.115646
0.00715544
0.290557
-0.0623155
0.153683
0.119775
0.0601029
-0.105989
0.145513
0.0653904
-0.249594
0.0651678
-0.0551897
-0.0570885
-0.00736292
0.348864
0.28088
0.220733
0.00216211
0.0605406
-0.0972736
-0.312152
-0.190991
-0.036189
-0.0814998
-0.0614518
-0.0922474
0.240913
-0.00677856
0.142695
-0.229903
0.302509
-0.145718
-0.238323
-0.176561
0.218584
-0.0449898
-0.0193299
0.0326229
0.0618225
-0.334605
-0.160226
0.154289
-0.0801258
-0.0463808
-0.165072
-0.246557
0.0238964
-0.128121
0.0162023
-0.0492173
0.0180675
-0.127502
-0.157262
-0.0859614
0.258003
-0.0035185
-0.108627
-0.269394
-0.14446
0.342618
-0.0910196
0.202671
-0.241003
-0.190778
-0.176413
-0.127771
-0.19152
0.186049
0.183439
0.161592
-0.0155905
0.30883
-0.03503
0.211369
-0.0808405
0.0772415
0.061317
-0.190876
0.0451517
0.385698
-0.01309
0.127292
0.0611384
-0.253352
0.0157702
-0.0402758
0.0599921
0.0364028
-0.0234197
0.0521924
0.0802888
0.145294
0.126242
0.136177
-0.124454
0.125659
0.275847
-0.144364
0.274212
0.0129646
-0.0964926
-0.0571534
0.0333109
0.00679396
-0.0170273
0.419539
-0.0118264
-0.049529
0.17989
-0.0737858
-0.262453
0.290924
-0.0568591
-0.237694
-0.010883
0.0414373
-0.18773
-0.0127634
-0.0806007
-0.0747185
-0.121407
0.0791994
0.197467
-0.0544293
0.00987072
-0.00157719
0.272134
0.151301
-0.0251418
0.22931
-0.192523
0.0991872
0.0372305
-0.0712144
-0.118926
-0.0451292
-0.153503
-0.162152
-0.159447
-0.0659339
0.0347808
0.254952
-0.197548
0.103427
-0.0648386
-0.0134117
-0.00378272
-0.2571
-0.138061
-0.0765657
0.155472
0.0351338
-0.202742
0.0974683
0.0712807
-0.0138113
-0.0253865
0.0943286
0.16086
-0.140532
-0.00365043
-0.107512
-0.28744
-0.0372611
0.00521989
0.0480451
0.188219
-0.125683
0.281641
0.0726679
0.0384459
-0.0412625
-0.263845
-0.394967
-0.0245208
0.144631
0.245067
0.145674
0.043439
0.247487
0.308467
0.0655152
-0.168892
-0.270989
-0.0400075
0.0769832
-0.156391
-0.100155
-0.425783
-0.0173219
0.0805314
-0.0733623
-0.0782587
-0.196279
-0.300485
-0.274149
-0.248576
0.0144015
0.243435
-0.215456
-0.0870641
0.200282
0.0346427
-0.264709
-0.0234377
-0.0711415
-0.055004
0.0418803
0.148572
0.210763
-0.117444
-0.0547012
0.00475879
0.176573
-0.203508
-0.0353867
0.0565853
-0.0129975
-0.0266502
0.0250095
0.101419
0.00287875
0.29498
-0.211201
0.0728558
0.0595247
-0.0222601
0.0720693
0.0189769
-0.0607367
0.2371
-0.0801824
-0.0252322
-0.157838
-0.327488
0.0685904
0.128641
0.125866
0.0704393
0.21485
0.151113
-0.0214301
0.149713
-0.24965
-0.117941
-0.0116744
0.338378
-0.0489494
0.0940708
-0.0821493
0.186351
0.214639
-0.0683312
-0.388015
0.35159
-0.0514757
-0.0734286
-0.277476
-0.0687863
0.209983
0.0473248
0.0567565
0.0181022
-5.8714e-05
0.222067
0.0565126
0.183492
-0.0412195
-0.196514
0.333548
0.300567
-0.200134
-0.21901
0.0925767
-0.220366
0.137959
0.0999897
0.0436043
0.294065
0.0696618
0.211155
-0.0841215
0.173676
0.274692
-0.0644878
0.0731941
0.0915331
0.00941222
-0.0689338
0.19319
-0.293479
0.154697
0.111494
0.0360948
0.371921
-0.0446111
0.0600792
0.121007
-0.0381836
0.157764
-0.228742
0.0301352
0.187927
-0.0224323
-0.188654
0.0104971
-0.164776
-0.0989355
-0.114682
0.0901837
0.0754168
0.202948
0.0575142
-0.095758
0.119143
-0.251004
0.311056
0.0110631
0.16044
-0.234875
-0.215258
0.12224
0.218197
-0.0381487
-0.04497
0.167803
0.0247733
-0.290363
-0.346727
0.0969471
0.110749
-0.243152
-0.00519961
0.165252
-0.106622
0.318125
-0.0157838
-0.17486
0.0503753
0.143655
-0.0956299
0.111774
-0.106276
0.159084
0.236802
0.0479432
-0.16229
-0.26146
-0.0390275
0.0073257
-0.00495012
-0.241688
0.000101524
0.0963774
-0.223659
0.000556221
-0.0973544
-0.124147
0.056675
-0.00673278
-0.187352
0.0622621
0.0812333
-0.00727581
-0.0335666
-0.136743
-0.182016
-0.0099706
-0.269651
-0.0283071
0.128789
-0.233783
-0.318629
-0.0219193
0.124345
0.103705
-0.276623
0.209228
0.0773893
-0.0754249
0.344319
-0.0506505
0.339432
0.0461669
0.0134987
0.0768501
0.0325947
-0.216105
0.548165
0.0841387
0.187193
-0.113067
0.0488477
0.000246505
0.0664369
0.14081
-0.0770837
0.0108564
-0.414343
0.11979
-0.116988
0.21266
-0.215063
0.0499871
0.0287952
-0.142264
0.00149227
0.227303
-0.000989229
0.259672
0.0984048
0.0513309
-0.0400594
-0.00998577
0.0235392
0.323865
0.173478
-0.157424
-0.130218
-0.179059
-0.252729
0.136954
0.0560179
0.0412357
-0.0642964
0.0765819
-0.0602349
0.014824
0.209005
-0.0226042
-0.0861254
0.108065
0.0570728
-0.0108762
0.104957
0.101866
0.165311
0.25053
0.222185
0.0923697
0.209478
-0.0943482
0.200749
0.0477285
0.103335
-0.0981164
-0.165146
0.124541
0.115855
0.231839
0.325128
-0.174723
-0.0338933
-0.158571
-0.0811906
0.0878696
-0.2367
-0.233581
-0.0340914
0.0986845
0.112192
0.215263
0.195833
-0.00229756
0.0120225
0.158142
0.0557322
-0.139142
0.126077
-0.0109997
-0.178076
-0.0373343
0.073262
-0.00185013
-0.063854
-0.0997872
0.31308
-0.0517911
-0.210964
-0.0629206
-0.120156
-0.128058
0.0211438
-0.283268
0.0640751
0.116617
-0.449436
0.0750222
-0.0266574
0.0502055
0.261339
0.0452745
-0.185989
-0.242735
-0.119241
-0.372635
-0.144763
0.174834
-0.0831259
-0.171717
-0.101358
0.523648
0.138124
-0.200316
-0.148279
-0.153442
0.240461
-0.0615343
0.0494594
0.168047
-0.347221
-0.0186543
-0.109532
-0.168558
-0.131961
0.107589
-0.169815
-0.0874161
0.038615
-0.0878791
-0.188724
0.201667
0.420662
-0.230673
0.0807715
-0.19572
0.130581
0.0204407
-0.0475783
0.0269744
0.0250532
0.139573
-0.337292
-0.0415635
-0.206832
-0.235791
-0.250611
0.117795
-0.179849
0.0323815
-0.0165939
-0.343438
0.114464
0.124296
0.0623313
-0.0683454
-0.198804
-0.279707
0.0693488
0.118531
-0.177755
-0.0410773
-0.10633
0.0906012
-0.151714
-0.138478
0.0386759
0.244037
0.313369
-0.0229228
-0.280137
-0.0668585
-0.207887
0.114312
-0.0581852
0.0451277
0.124831
-0.0931339
0.0664054
0.0355804
-0.0838208
-0.144185
-0.0491833
0.160996
-0.187179
0.164656
-0.105227
0.066559
0.0735879
0.248189
-0.262501
0.160057
0.158846
0.0617249
0.221489
0.0765767
-0.192188
-0.0326905
0.0902813
-0.0144551
-0.00439012
0.189182
-0.0730383
-0.0720226
0.135922
-0.0534599
0.00553836
-0.0767089
-0.157044
0.23895
0.170355
0.251726
-0.204041
-0.0379306
-0.00811367
-0.00388784
0.0400806
0.0231232
-0.103042
-0.00661777
-0.146319
0.497295
0.152333
0.146515
-0.156229
0.159639
0.00876657
-0.138906
0.185296
0.076343
-0.364459
0.0524318
-0.00492644
0.00716999
0.245737
-0.103988
-0.067151
-0.0148788
0.00540505
-0.0398615
0.0166349
0.144433
0.0646717
-0.026952
-0.316494
-0.465971
0.0495877
-0.143325
0.227937
-0.0594021
-0.0818255
-0.041146
-0.145339
0.00363861
-0.0901229
-0.226782
0.436655
-0.0836891
-0.0518622
0.226509
-0.138762
0.117834
0.257045
0.302442
0.500579
0.110367
0.318398
0.120556
0.0913153
0.239385
0.00898555
-0.0117783
0.11048
-0.186074
0.14273
-0.0527035
0.134619
-0.0117917
0.0925635
-0.0660334
0.194711
0.0218592
0.199453
-0.142697
-0.00773618
0.357043
-0.0566504
-0.0878823
0.210617
0.0110107
0.0485306
-0.173043
-0.148761
-0.17022
0.150984
0.0374886
-0.21233
0.0215496
-0.0844878
-0.15627
0.0588612
0.168971
-0.00829478
0.0165075
-0.0743095
-0.214115
0.212505
-0.0215591
-0.245853
0.0659733
-0.220574
0.0816934
-0.1597
0.107382
0.241052
-0.00770116
-0.0210439
0.240008
0.13745
-0.0211053
-0.0102114
0.458731
0.0860889
0.155669
-0.00480828
0.213616
0.159195
0.052468
-0.0385995
-0.0116074
-0.159955
0.379916
0.274059
0.302277
-0.0469742
0.102881
-0.380633
-0.0412383
-0.0133407
-0.130812
-0.082856
0.197918
-0.243051
-0.195953
0.14802
0.0140132
0.0972352
0.204524
-0.0104286
-0.184342
-0.0873809
-0.24412
-0.0807135
0.163518
0.494032
0.0472859
-0.0050285
-0.17775
-0.0849446
0.0110584
-0.230598
-0.120193
0.0650903
-0.145927
0.0758385
0.0640022
0.057908
0.0318001
0.213278
-0.0120863
-0.211337
0.0253012
-0.272802
-0.0573063
0.0596662
0.105336
0.036582
0.163636
-0.185241
-0.115673
0.0613805
-0.155675
0.207011
0.267766
-0.0269637
0.015806
-0.0088389
0.0761705
0.00784793
0.0898129
-0.127782
0.112973
0.156294
-0.0928238
-0.0197896
0.447154
-0.226733
0.0932546
0.218151
-0.161843
0.225003
-0.0534412
0.165895
-0.167855
-0.19357
-0.0986169
0.00471497
0.0246879
-0.167809
-0.0864249
0.109458
0.022624
-0.158447
-0.194587
-0.0525359
0.269141
0.0271625
0.148276
-0.0684235
-0.278669
0.0357805
0.326638
0.16511
0.268508
0.047812
0.133763
-0.0561754
-0.0528167
-0.189885
0.324896
-0.27382
0.00487856
0.0954056
0.0918494
0.127746
0.218157
-0.15784
-0.00110369
0.110251
-0.0392955
-0.127243
0.221123
-0.0277153
-0.419209
-0.158139
0.199124
-0.042215
0.181162
0.0120459
-0.0838875
0.223683
0.214805
-0.22484
-9.13678e-05
-0.0239964
0.0125397
0.00487657
0.087862
0.00188308
0.17193
-0.0596401
-0.040302
0.144271
0.111558
-0.0725501
0.0279817
-0.310131
0.041482
0.288873
0.132572
0.00226404
-0.0223882
0.0805813
-0.284977
-0.0718788
0.0301363
-0.174745
-0.0690397
0.0981796
-0.348385
0.120282
0.0382012
-0.214348
0.19591
-0.0508908
0.0289127
0.0139933
0.121334
0.0140394
-0.0961958
0.146356
-0.0777952
-0.0833789
0.012171
-0.0605617
0.160996
-0.0418173
0.204497
0.0143183
-0.0605379
0.140928
-0.0188454
0.226937
-0.0161256
-0.398531
0.248666
-0.0857109
0.203975
-0.354709
-0.187413
-0.298024
-0.155279
-0.349631
-0.207163
-0.146925
-0.119918
-0.128444
0.0381868
0.281656
-0.13825
-0.00676365
0.0597225
0.26072
-0.097503
0.161334
0.121041
0.0871361
-0.103792
-0.0793161
-0.0235989
-0.069481
-0.0125899
0.0813664
0.311871
0.147046
0.15398
-0.0463744
0.139565
0.0992321
0.00521355
-0.131711
0.111178
0.432615
-0.139751
-0.164066
-0.54258
0.185201
0.101647
-0.0200217
-0.0468286
0.195542
0.00928431
0.105943
0.0236802
-0.0400732
-0.108587
-0.14621
0.0681533
-0.0902031
0.135424
-0.248923
-0.332126
0.109442
0.0140616
-0.234605
0.0676215
0.212612
0.0540406
0.0629167
0.295066
0.132589
0.0117429
-0.103811
0.0113078
-0.15818
0.0240439
-0.125284
0.0229886
-0.0759446
-0.15706
0.30458
-0.193573
-0.153285
0.0617897
0.174667
0.0401982
0.158145
0.381106
0.31653
0.134555
0.214809
0.27614
0.0661734
0.143343
0.145301
-0.209334
0.038552
0.000486655
0.00352599
-0.0419007
0.116725
-0.163001
-0.298103
-0.0545938
-0.227953
-0.0638517
0.225644
-0.0494006
-0.175856
0.0967854
-0.115303
-0.135784
-0.0590869
-0.0889263
-0.0427857
0.00967338
-0.5243
0.0791837
-0.172153
0.0705633
-0.388055
0.0853449
-0.0206612
-0.147312
0.00502308
0.086352
0.259343
-0.14805
0.206375
-0.234683
-0.26156
0.245643
-0.0852523
0.142297
-0.159605
0.188763
0.0490629
-0.118173
-0.0627417
0.0663315
0.0462434
-0.209084
0.178512
-0.189758
0.0554436
0.00376611
0.220596
-0.152953
-0.0839194
-0.223593
-0.159278
-0.116932
-0.0429819
-0.162516
0.0212909
0.0380504
0.00937524
0.213505
0.00440637
0.182102
0.199824
-0.295281
-0.0908135
-0.274301
-0.0303919
-0.198316
0.0194029
0.0281764
-0.0878273
0.0838532
-0.00506532
-0.266545
-0.033497
0.0981074
-0.0990948
-0.110468
-0.0218639
-0.0838951
0.211753
0.0137043
0.256815
-0.0288445
0.237634
-0.177568
-0.0345164
-0.218238
-0.373233
-0.0682482
0.220274
0.137958
0.188347
-0.0219922
-0.0969591
0.129623
-0.0983001
0.0767763
-0.0251518
-0.0133379
0.211876
0.0458164
0.239829
0.0476555
0.102353
-0.0433751
-0.284159
-0.323547
0.345207
0.0154301
-0.209023
-0.00913583
0.0432452
-0.238993
0.153496
0.181159
0.125437
-0.122883
-0.0553177
-0.110845
-0.00540914
-0.18706
-0.215322
0.223149
0.221456
0.157501
-0.0886993
0.570892
0.163068
-0.311584
0.249385
-0.146495
-0.245256
0.132041
-0.00466323
0.226363
-0.0673681
-0.0822576
0.0754052
0.149021
0.139499
0.0190573
0.124065
-0.194086
-0.174898
0.0200737
-0.0798855
-0.107555
0.05224
-0.0311671
-0.0791759
0.0435998
-0.000646373
0.0442491
-0.161251
-0.0236126
0.328538
0.226093
0.0422069
0.00362428
-0.0527868
0.0645353
0.202883
0.108123
-0.155392
-0.000267876
-0.0908024
-0.322081
0.0157756
0.0945061
-0.250661
0.218637
-0.222322
-0.130231
-0.19495
-0.200198
-0.0239452
-0.309966
0.0404859
0.0520757
0.152542
-0.235276
0.188295
0.12328
-0.199027
0.165264
0.45677
-0.193633
0.00961039
0.0996211
0.0695998
0.181288
0.049612
0.0668946
-0.043541
-0.101643
-0.0988152
0.0269031
0.11013
-0.098691
0.0957275
-0.188096
-0.11339
0.171778
0.193435
0.270498
-0.322468
-0.124842
-0.0353546
0.212163
0.147188
0.0495857
0.0350262
0.116302
-0.121572
0.319614
0.0872439
0.161008
0.287631
-0.0338784
0.113626
-0.0804156
-0.104306
0.0295556
0.0976938
0.117812
0.0313264
0.0874952
0.0688108
-0.111804
-0.0962628
-0.0849233
0.0305599
-0.230004
-0.10828
-0.106444
0.10145
0.0753462
0.119994
0.0489628
0.0992595
-0.172773
-0.238173
-0.0473637
0.0564927
0.143348
0.210881
-0.113349
-0.242824
0.0138516
-0.235522
0.208729
-0.123426
0.0361015
-0.245765
0.102103
0.242928
-0.0353137
-0.00872868
0.0943735
-0.224445
-0.349462
0.097684
-0.191404
-0.0681134
0.0805701
-0.108037
-0.0568383
0.208783
0.139622
-0.0528438
-0.0177856
-0.00278189
-0.0584369
0.0947212
0.0859254
0.106101
-0.322919
-0.135872
-0.0799127
0.0191883
-0.166705
0.234988
-0.365167
0.0724647
-0.0531938
0.0821998
-0.0306637
-0.254267
0.00118093
0.0812189
-0.0319361
0.153199
-0.176429
0.0237032
0.0286479
-0.0699452
0.11391
-0.155152
-0.220304
0.00477778
-0.0510517
0.215412
0.158504
0.482147
-0.188843
-0.0963044
-0.335803
-0.143185
-0.10324
-0.136779
-0.419756
0.0468085
0.13534
-0.0237686
0.282356
0.00250352
-0.0143268
-0.293723
0.0966886
0.0291356
-0.198614
0.240764
0.147002
0.0133784
-0.121342
0.202794
0.206668
-0.176294
-0.208147
-0.491997
0.0395417
-0.242421
0.15979
-0.219635
0.075335
0.0429866
-0.201906
-0.0234118
-0.0165117
-0.086717
0.229873
-0.0297525
0.0808756
-0.265217
0.0869524
-0.164448
0.0939755
-0.0695108
0.246594
0.102855
-0.0076589
-0.145418
0.173883
0.0736888
0.314294
-0.139272
0.223047
-0.474295
-0.186673
-0.261548
0.0514983
0.159541
0.064281
0.106304
-0.118843
-0.0685451
0.165848
-0.0425549
0.173039
0.251393
-0.143617
0.0849439
0.262754
0.0519676
0.0288389
-0.14425
-0.252346
0.00466811
-0.140842
0.100224
-0.290117
0.0765905
0.226704
0.243241
0.106553
0.199367
-0.153732
-0.214398
0.101513
-0.206861
0.0443615
0.107036
0.152875
0.0452293
0.137127
-0.0513958
0.25327
-0.0315367
0.213129
-0.118296
0.0591422
0.122703
-0.119434
-0.00332213
-0.220044
0.258422
-0.214037
0.0897604
0.0141059
0.0196149
0.0355074
-0.230206
0.162282
-0.00675988
0.000786349
-0.0622198
-0.0721828
0.266039
0.0432854
0.0175622
0.263144
-0.283958
-0.132048
0.196092
-0.178558
0.0615787
0.030229
0.207151
-0.0628432
0.0632158
0.0430344
0.182156
0.223782
-0.0457849
0.393855
-0.0635037
-0.00420328
0.226972
-0.044386
-0.491825
0.326481
0.117991
0.117492
-0.18682
-0.0352774
0.0637651
-0.212748
0.0719329
-0.0505093
0.0791172
-0.335677
0.0285416
-0.208009
-0.288676
-0.227939
0.0143728
0.0816489
0.152405
-0.0114658
0.181312
-0.136092
-0.0912674
0.0148745
0.0845976
0.158364
-0.264241
0.186111
-0.0652465
0.0250984
0.0587121
0.111491
-0.0775435
-0.0583925
0.0666183
-0.194593
0.0590759
0.235644
-0.250207
-0.079739
0.172898
-0.064061
0.0950479
-0.175758
-0.258291
-0.0460008
-0.272641
-0.0281536
-0.0162158
-0.0317875
-0.145172
0.136108
-0.0617288
0.243509
0.0322759
-0.053538
-0.133566
0.047593
-0.0287487
0.129689
-0.0541284
-0.0759009
-0.107837
0.0870029
0.134798
0.318255
-0.0416093
-0.242069
-0.107057
-0.15259
-0.0334305
-0.14168
0.171204
0.192487
-0.130543
-0.0198896
0.225828
-0.121347
0.114981
0.0503495
-0.0535125
0.0304532
-0.224125
-0.0721345
0.224629
0.00408193
0.0207469
0.0660274
-0.0844715
-0.0839803
-0.163724
-0.125645
-0.0648363
0.181572
0.0974099
0.000595344
0.122297
-0.0597631
0.0479915
-0.13498
0.0940473
0.338028
-0.123924
0.104616
-0.123894
-0.242238
-0.0129158
-0.15741
-0.226395
-0.214252
-0.0676548
0.17317
-0.145415
0.00613712
0.0786926
0.202641
0.11692
0.230657
-0.0335497
0.211515
-0.0871003
-0.247919
0.0939394
-0.128817
0.187325
0.0561675
-0.203339
0.128129
0.15016
-0.0656983
0.145288
0.132953
0.0688918
0.0860995
-0.25725
-0.206703
0.0915602
-0.239894
-0.0849976
0.370989
-0.146781
-0.0343976
0.251718
0.0704679
-0.0776019
0.0961801
0.177061
-0.0864513
-0.344263
-0.129722
-0.0903352
0.16125
0.0133333
0.15715
-0.0290432
-0.126981
0.193839
-0.073389
-0.350558
-0.276309
-0.130437
0.0504318
0.025359
-0.189688
0.200141
-0.17215
-0.116937
-0.463427
-0.175306
-0.132098
-0.0281149
-0.0193141
-0.123284
0.237722
-0.000361344
0.0144086
0.152009
-0.0540309
0.0190124
0.268324
-0.0639633
-0.0181387
-0.146598
-0.0996407
0.107058
0.102606
0.124549
0.019718
0.0118553
-0.0300211
0.00258043
0.0143776
-0.15774
-0.151852
0.156884
0.331936
0.155137
-0.0323214
-0.252268
-0.04706
-0.248576
0.113001
0.056856
0.202512
0.0739795
0.137234
-0.0708797
-0.366817
-0.0560447
0.270458
0.00728067
-0.254102
0.0509321
-0.0600998
0.15803
-0.0810127
-0.231338
-0.0780902
0.239177
0.225716
-0.0194764
0.243862
-0.0238913
-0.134387
0.0966037
0.22861
-0.0382542
-0.192571
-0.0439292
-0.100483
-0.0075807
0.070936
0.305628
-0.141192
-0.00962273
-0.101668
-0.217659
-0.0310739
-0.329251
0.320204
0.0658648
-0.204482
-0.0574627
-0.223647
-0.121491
0.0413363
-0.0810732
-0.289226
-0.0370654
0.0459215
-0.215973
0.279547
-0.0381536
-0.032293
0.03455
-0.0341648
-0.211227
0.361145
-0.217533
0.172445
0.0568537
0.0189908
0.152198
-0.111892
0.0572432
-0.243713
-0.105861
-0.367487
-0.121547
0.0445833
-0.132855
-0.195776
-0.00657577
0.367882
-0.0237106
0.0843499
-0.246011
-0.134167
-0.286646
-0.0759771
0.0365859
-0.0395046
-0.00437721
0.192353
0.0114287
0.11193
0.0773567
-0.343909
-0.150342
0.172576
-0.110867
-0.156543
-0.376428
0.217913
-0.0261035
0.0808596
-0.0329476
-0.1343
0.273326
-0.0667734
-0.250931
0.0425119
0.0434906
0.0392036
0.3427
-0.0876955
-0.055925
-0.179841
-0.322489
-0.190978
-0.116058
0.0109611
0.297032
0.0244025
-0.0683453
0.0899771
-0.0683397
0.036022
0.137234
-0.226878
-0.150239
0.227381
0.196709
-0.125217
0.00189657
0.127135
0.116558
-0.138899
-0.0378844
-0.0757937
0.0939421
-0.0780513
-0.0869379
0.0883276
-0.128258
-0.076193
0.078317
0.374597
-0.314268
0.0100399
-0.0122381
0.153711
0.113944
-0.280243
0.301003
-0.240489
-0.126488
0.160839
0.0683174
0.0624717
-0.144329
0.392368
0.0607228
0.152136
0.0588679
0.0773777
0.180033
0.277287
0.0262208
0.257357
0.113333
-0.111914
-0.117058
0.0902773
0.173025
-0.328139
0.0411942
-0.111321
-0.0618977
-0.000633622
-0.235365
0.05688
-0.266353
0.122185
-0.0867265
-0.0663679
0.191193
-0.108573
-0.0887474
-0.118992
-0.0653159
0.0861689
-0.165449
-0.0770805
-0.0994732
-0.237245
0.0852456
-0.021319
-0.174788
-0.155875
0.233829
-0.0538877
-0.208262
0.243856
0.193406
0.178267
-0.142932
-0.228639
-0.11093
-0.243275
-0.0659542
0.0885915
0.0942133
-0.0413022
-0.103814
-0.207522
-0.0748348
-0.227477
0.0365613
-0.126918
-0.308168
0.0675432
0.029467
0.283468
-0.0686101
-0.0433636
0.0685306
0.290548
-0.236086
-0.136872
-0.0204779
-0.106711
-0.0528059
-0.280004
0.271221
-0.0684788
0.255338
0.197659
0.11794
-0.422722
-0.0238494
0.0214959
-0.123713
0.037201
0.225526
-0.0511872
-0.135369
0.0761609
-0.134413
-0.0436681
0.0783678
-0.176275
0.0739292
-0.17223
-0.0249705
-0.0186053
0.260418
-0.0211479
0.194231
0.0741011
0.11755
-0.00664855
0.112832
-0.366097
0.204687
0.12577
0.0652056
0.0567975
-0.153506
0.145431
0.0700492
-0.110122
0.138575
0.00375941
0.209341
0.0718659
-0.162271
-0.100558
0.14756
0.0798095
0.228528
0.144379
0.0772776
-0.0656349
-0.0843952
0.276453
-0.118885
-0.0702866
0.106099
-0.143422
-0.192389
-0.11069
-0.005405
0.136775
0.187765
0.124996
0.0568902
-0.0316967
-0.20259
0.192233
-0.0457407
-0.094575
-0.32345
0.213463
-0.0379707
0.00216556
-0.00922081
-0.0451529
0.0845575
0.0457209
0.250581
0.0370556
0.187842
-0.0254958
0.234449
-0.237977
-0.0265926
-0.0362414
-0.0288441
-0.0682776
0.255145
0.102168
-0.0209906
0.327883
-0.0483386
0.129044
0.0392914
-0.00478717
-0.246745
-0.192258
-0.14116
0.350262
-0.146915
-0.179796
-0.00563467
-0.0465459
0.213437
-0.113959
-0.125565
0.165195
0.142329
0.0423194
-0.176907
-0.00508716
0.202828
0.277475
-0.0280464
-0.0513464
-0.1548
0.00342752
-0.200227
-0.0594166
0.424738
-0.072217
-0.186715
-0.0898777
0.151383
-0.121481
0.10152
0.310716
-0.141259
0.103518
-0.112152
0.00666437
-0.236294
-0.0126194
-0.0739925
0.202987
-0.069204
0.252288
0.0158732
-0.0605852
0.0530265
0.00134687
0.00722788
0.0291626
-0.131562
-0.034595
-0.00983228
0.205422
-0.175387
-0.0454501
0.132527
-0.0954867
-0.041528
0.0709877
-0.0186675
-0.0501667
-0.0900845
-0.01816
-0.152882
-0.0906327
0.376638
0.0411028
-0.117472
-0.0891742
0.227256
0.210337
-0.226937
-0.103034
0.0901016
-0.0464952
-0.280212
0.374609
0.089201
-0.17495
0.0432832
-0.0441009
0.00516982
0.00462813
-0.152526
-0.118575
-0.105443
-0.0373796
0.134423
-0.30603
-0.0630497
0.118669
0.0540872
0.0405712
0.174268
-0.0767973
-0.140941
-0.122916
0.192128
-0.19071
-0.0098539
0.0917682
0.0709725
-0.35851
-0.0940509
0.182689
0.0019529
-0.160776
0.251391
-0.0226062
0.175339
0.0692174
0.305962
-0.163103
-0.177417
0.0693052
0.147589
0.0251635
0.00559692
0.234849
-0.0200412
-0.00521026
0.278419
0.126592
-0.0401846
0.171937
-0.00327302
0.0272219
-0.0791511
0.104379
0.160461
-0.0662753
0.028066
0.0441846
0.0519626
0.0419912
0.0799647
-0.125379
0.0176557
-0.225879
-0.265883
0.0956312
-0.193263
0.0830571
0.149923
-0.0663161
-0.092612
0.0716712
0.0932863
-0.204083
-0.0683176
-0.163864
-0.00282047
0.181412
-0.0691272
-0.113479
0.0272247
0.10903
0.0599936
0.0181735
-0.131391
-0.199352
-0.0291747
0.189596
0.0523243
0.0854056
0.116427
0.110947
0.0235741
-0.224332
-0.249448
0.158771
-0.113113
-0.172027
0.254245
-0.0171704
-0.170917
-0.0908247
0.201426
-0.0291429
-0.111476
-0.216678
-0.238049
0.221567
-0.126891
0.0364969
0.013478
-0.0180589
0.217229
-0.226565
-0.0823971
-0.217711
-0.171692
0.131569
-0.0494082
-0.101788
-0.0696844
0.00119944
0.0565845
-0.0301513
0.21997
0.214134
-0.134737
-0.0149608
-0.0260453
0.195508
0.0767177
-0.169879
0.135116
-0.198393
-0.104201
0.0488739
0.109639
0.0722868
-0.00819614
-0.193097
-0.251731
-0.0808095
-0.152339
0.0745063
-0.202192
-0.0883822
0.0585974
-0.086901
-0.01454
-0.111578
0.162938
-0.0246443
-0.150784
0.199519
-0.0252877
-0.224426
0.0334452
0.0794873
-0.228934
-0.0491589
0.0340103
0.0969592
0.0892706
0.0182307
0.0924517
0.13321
-0.129093
-0.0864368
-0.122142
0.149542
0.372654
-0.0179421
0.030848
0.0304302
-0.0298057
-0.103657
-0.147733
0.382592
0.368173
-0.0589912
0.0158367
0.0570545
-0.0506199
0.104668
-0.0549434
-0.114513
0.0718598
0.331415
-0.0736928
-0.077656
-0.0324114
0.255768
0.11761
-0.00210594
0.142315
0.380638
0.191213
-0.0937961
-0.215628
-0.0367854
-0.232261
-0.165612
0.0743354
0.0558289
0.25332
-0.292187
0.0814542
-0.118817
0.125087
-0.253463
0.34192
0.0180677
-0.0139871
-0.0759015
-0.00670792
-0.33784
-0.133817
0.0173782
-0.199734
0.0766352
-0.111044
0.00627029
0.00369733
0.0614441
-0.0326509
0.121579
-0.411229
0.0972096
-0.121809
-0.295409
0.125134
0.175083
0.0248324
-0.0428387
0.0604485
0.197293
0.0477224
-0.0556034
-0.20148
0.140506
-0.0922126
-0.0244882
0.264815
0.183981
-0.166463
0.062491
-0.143194
0.0476423
-0.23262
-0.154329
0.18324
-0.0687534
-0.137717
-0.0707664
0.0639681
0.0136254
-0.203195
0.128727
-0.0286742
0.0899171
0.213558
0.00405491
-0.00513252
-0.0163079
-0.201417
0.166199
-0.0472391
0.0464469
0.066983
-0.0427326
0.124959
0.0903214
0.0547556
0.291138
0.00836879
-0.115097
-0.0613818
-0.156577
0.196102
0.0992525
-0.0580805
-0.0356336
-0.158456
0.491767
-0.107703
-0.194952
0.139272
-0.0497336
-0.0401197
-0.0637909
-0.140054
0.104969
0.0372204
0.0885824
-0.174446
0.241087
-0.071381
0.129612
-0.082179
-0.23536
-0.0417265
-0.0911755
-0.0346843
-0.190462
0.0423232
-0.0820685
0.113321
0.143025
-0.0921322
0.00291398
-0.0200101
-0.182626
0.0387839
-0.00965729
0.103971
0.093435
-0.301479
0.0590262
0.160495
-0.0762607
-0.137778
-0.151991
0.166887
-0.026661
0.166197
-0.31233
0.1247
-0.223927
-0.216028
0.108089
-0.0189808
0.217628
-0.0950949
-0.0674284
0.0784216
-0.245591
0.24272
-0.446452
-0.236139
-0.107361
-0.151874
-0.0269798
-0.180334
0.254882
-0.160661
-0.159118
0.112525
0.0514222
0.0463391
-0.0698797
0.0976323
0.0788662
-0.12789
0.0948986
0.0253587
-0.171226
0.0727051
0.272319
-0.2371
0.167948
0.0334292
-0.0642877
-0.0412218
0.0439603
0.223274
0.091046
-0.310533
0.0164934
0.303036
-0.144561
0.0587348
0.0273038
-0.14927
-0.0934665
-0.221958
-0.0561241
-0.30277
-0.360695
-0.0436118
-0.0890743
0.367026
0.0491424
-0.111502
-0.158836
0.109506
-0.0606679
-0.0640328
0.152333
0.0507222
-0.344297
0.012379
0.0310048
-0.199284
0.0662059
0.176261
0.340474
-0.0284992
6.74131e-05
0.101879
-0.146141
-0.0961165
0.143258
-0.0480902
-0.0361528
-0.296889
0.0672307
0.0395842
0.0468275
0.391133
-0.097526
-0.172302
-0.313657
0.0998322
-0.17712
-0.226783
-0.16677
-0.061294
-0.274912
0.0717408
-0.202941
0.182616
0.249483
0.010175
-0.0586538
0.0300389
0.187403
0.180882
0.136775
-0.419056
0.128253
0.0151202
0.36064
-0.113823
0.0834272
-0.170609
-0.00167863
-0.117204
-0.231617
-0.324215
0.412595
-0.14083
-0.0723656
-0.0350365
-0.087155
0.0508271
-0.136366
-0.10184
-0.128667
0.193858
-0.0466329
0.306994
-0.115429
-0.0548394
0.0876382
-0.0845516
-0.204477
0.131821
0.122222
0.079804
0.257407
-0.0544253
-0.0456635
-0.0845894
-0.0900088
-0.0844188
-0.0377107
0.188462
-0.187416
-0.173742
-0.171914
-0.111463
0.232772
-0.0655918
0.0975393
0.0618453
-0.355618
0.226408
-0.0936943
-0.0571191
-0.174377
0.136844
0.146343
-0.0956703
0.179822
-0.293977
-0.446686
0.0791689
-0.114225
-0.123448
-0.0984997
0.2535
0.172626
0.261194
-0.0216516
-0.165582
0.0307751
0.0172942
-0.0307143
0.116979
-0.0180708
-0.00747711
0.259182
-0.0313891
-0.102631
-0.184297
-0.240464
0.0190161
-0.137425
-0.0134144
0.20831
-0.0133008
0.163699
0.17642
-0.272501
-0.0670087
0.154383
-0.068379
-0.234248
0.000151109
-0.0119227
0.0959451
0.135434
-0.185571
-0.163007
0.184372
-0.200884
-0.198518
-0.145296
-0.202242
-0.103391
-0.0577829
0.129476
0.244786
-0.00187654
0.19216
0.186483
-0.15576
-0.147834
-0.085381
0.024668
-0.151363
-0.143962
0.184292
0.195774
-0.012681
-0.256603
-0.220413
-0.0938554
0.381086
0.0451797
-0.0704861
0.0308449
-0.346344
-0.0883134
-0.0500674
0.17105
0.10914
-0.0371855
-0.1167
0.130533
0.00205133
-0.0147341
-0.0665723
-0.0256296
0.0965282
-0.0194163
0.15199
0.15799
0.0415675
0.00989811
0.33485
-0.155239
0.0657257
-0.112049
0.160278
-0.098238
0.136478
0.0214628
0.0661156
0.0459294
0.118704
0.182647
-0.0695653
0.0834692
-0.0165102
-0.050581
-0.103535
-0.108295
-0.190992
-0.183852
0.118875
0.025706
0.246138
-0.253357
-0.0367426
-0.186847
0.0867215
0.0800444
0.121124
0.00968951
-0.0531669
-0.0567373
0.0781336
0.0743929
0.0669744
-0.210883
-0.119319
-0.0112552
0.131221
-0.26993
-0.035871
0.19469
-0.354915
-0.0886937
-0.220235
0.0680707
0.110645
-0.0532768
-0.0937704
0.14773
-0.116722
-0.0102401
-0.0388644
0.123758
0.0470345
0.0378469
-0.303482
-0.00990456
0.0443079
-0.0571158
0.0548259
0.0720982
0.178717
-0.0675633
-0.251984
0.111708
-0.194681
0.328672
0.236151
0.222137
-0.0787218
-0.134499
-0.0598315
0.202428
0.084202
-0.122408
0.00399824
-0.303775
0.3672
-0.0587544
0.393643
-0.0199212
0.0429088
-0.0633164
-0.129199
-0.372485
0.308631
0.130219
0.0987621
0.10095
-0.171453
0.160986
0.0590062
-0.170649
-0.217533
-0.206953
-0.0865952
0.171094
0.099011
0.155175
0.0109957
0.196255
-0.163969
0.0495771
-0.280487
-0.12609
-0.0409075
0.0762676
-0.223646
0.0174691
-0.0542456
0.125252
-0.309605
0.146436
-0.326484
-0.0291202
-0.119376
0.043341
-0.155412
-0.103479
0.0846048
0.0536139
-0.00299475
0.040644
-0.138753
-0.248837
0.135495
0.0852642
-0.207731
-0.119555
0.0742544
0.169435
0.110967
-0.138395
0.122397
0.0447228
-0.066203
0.0303775
-0.0712189
0.0538712
0.00184965
-0.0128992
0.0791264
0.313695
-0.0803034
-0.30533
0.0428423
0.181172
0.102539
-0.0615216
-0.176817
-0.285265
-0.14557
-0.161128
-0.193705
-0.124325
0.0151983
0.121732
0.0237164
0.179039
0.097966
-0.1207
-0.00282535
0.0619713
-0.171382
0.0757014
0.0555283
-0.0753969
-0.145155
-0.346616
-0.0548083
-0.0584701
-0.0748764
-0.199483
0.163507
-0.0397805
-0.112698
-0.13247
-0.191953
-0.359738
0.208389
-0.194286
0.0337808
-0.0187678
0.161508
0.0656273
0.0521878
0.388542
-0.197948
0.334738
0.0639648
0.0940163
-0.0880188
-0.00813714
0.00957218
0.0155831
-0.0860595
0.0761087
0.145667
-0.266403
0.219488
0.0485724
-0.0807824
0.102725
-0.321902
-0.137877
-0.0777562
0.340858
0.0666524
0.200279
0.100928
-0.0262959
-0.069338
0.0167869
-0.0924244
0.0781896
-0.115641
0.0197111
0.120681
-0.172212
0.197682
-0.110321
-0.195825
0.0178599
-0.0294641
0.16926
0.194637
-0.234465
-0.12031
-0.00604792
0.231181
0.281921
-0.041697
0.268044
0.183736
0.220266
0.174582
0.0943173
-0.0336367
0.00887254
-0.0740028
0.207629
0.245488
-0.0887455
-0.0325457
-0.020312
-0.245551
-0.084739
0.116068
-0.0112463
0.13959
-0.113868
0.131594
0.0272076
0.129236
0.225757
0.0858458
-0.0318621
-0.227254
-0.115179
-0.230804
-0.189331
0.054392
-0.00440271
-0.0603607
0.0727505
0.0518925
-0.0450985
-0.109287
0.133984
-0.114726
-0.188664
0.0727648
0.15758
0.223129
0.240511
-0.0839095
-0.126159
0.222586
0.0789233
-0.0568168
0.0541402
0.316701
-0.0777173
-0.112893
-0.00984006
-0.293063
0.15597
-0.178169
0.238319
-0.102298
-0.079834
0.0817332
0.133751
-0.193195
0.0604226
-0.083825
0.0913785
-0.12524
0.187681
0.0222649
-0.0755742
-0.01606
-0.282371
-0.0262947
-0.142027
-0.111262
0.0355676
0.0486161
-0.0243955
-0.149788
0.0551952
0.0932709
0.203982
0.0797621
0.098238
0.0697836
0.0648799
-0.149901
-0.0938179
-0.189291
-0.0771121
0.11269
0.059027
-0.215188
-0.0170026
-0.15224
-0.164018
0.193247
0.0181115
-0.343189
0.0739257
0.182269
-0.14041
0.040312
-0.33679
-0.132723
-0.234723
0.20581
0.20804
0.0125907
0.0121143
-0.0677188
-0.124989
0.101342
-0.00530721
-0.0186375
0.137061
-0.0783812
0.11225
-0.0540722
0.0895477
-0.338064
0.104301
0.353714
-0.0942973
0.159038
-0.156105
-0.131168
0.0317567
-0.193874
-0.139319
0.407362
0.0845029
0.0303937
0.112437
0.0584568
-0.0199953
0.0696406
0.147496
-0.223295
-0.00654067
-0.162414
-0.226662
-0.081272
0.0255745
-0.215339
0.0132118
0.366869
0.00715183
-0.172209
-0.147352
0.161683
0.3006
-0.00193369
-0.00865886
-0.0643261
0.147285
-0.0382463
0.230067
-0.177321
0.0109712
8.13754e-05
-0.0312176
0.165116
0.175324
-0.170424
0.20881
0.0432865
-0.343607
0.351954
-0.322168
0.237294
0.00862498
-0.1656
-0.504694
0.277153
0.215644
0.0680142
-0.0673509
-0.0123602
0.170628
-0.036552
0.138499
-0.0287615
0.0207507
-0.151303
-0.000625611
0.0466668
-0.165038
-0.0724695
0.0729628
0.0249088
-0.0449864
0.115448
0.102224
0.180457
0.27708
0.00444918
-0.0582252
-0.13789
-0.136398
-0.0849759
0.270075
-0.086484
-0.0563432
-0.108733
0.00793833
0.0654885
-0.0600235
-0.136737
-0.158017
0.0882697
-0.159805
-0.206767
-0.215256
0.110247
0.156135
-0.0699377
-0.0659214
-0.125819
-0.165736
0.285128
-0.0794043
0.107256
-0.103107
-0.134605
-0.0127773
-0.244235
0.339041
0.0178622
-0.226443
-0.0731796
0.0235023
-0.0184529
-0.207022
0.0590347
-0.349307
-0.0549415
-0.0127671
0.0745665
0.223619
0.091414
0.0301803
-0.125993
0.0198607
-0.0304727
0.203999
0.108793
0.140315
0.000825186
-0.202132
-0.199877
0.0892457
-0.0781604
-0.0106168
-0.0336338
-0.0545867
0.0416813
0.115935
-0.21866
0.00606268
0.0340227
0.0214662
-0.0707341
0.216328
-0.202273
0.119241
0.0367487
-0.289433
-0.125156
-0.123388
0.0120331
0.0370512
-0.284944
-0.0726051
-0.208621
-0.0124456
0.00910942
0.0408875
-0.217787
0.106938
-0.254358
0.00215003
-0.00387554
-0.0484436
0.161182
-0.272984
0.0624511
-0.202299
-0.0328056
0.00276484
0.124908
0.115027
0.0411029
-0.123984
0.264044
-0.0178109
0.103333
-0.235927
-0.10708
0.115493
0.0924383
-0.0840827
0.169125
-0.0647223
0.0392401
-0.219458
-0.0458659
0.0330473
-0.150616
-0.115792
-0.0751839
-0.177756
-0.268147
-0.153712
0.0794056
0.0352107
0.0164564
0.0386863
-0.0955983
-0.0597057
0.134545
-0.0201324
-0.0411956
-0.172518
0.11195
0.0417099
0.111913
0.241196
-0.0641578
-0.151759
0.203271
0.154419
-0.0175662
-0.0058701
-0.217501
0.0607312
0.263584
0.185409
0.158003
-0.0182205
0.177323
0.175816
0.0195714
-0.135838
0.048044
-0.260636
0.0572486
-0.0135926
0.285536
-0.241924
0.173347
0.203563
-0.116969
0.0420604
0.284983
0.0685663
0.0640264
-0.091171
-0.0324653
-0.0535131
-0.0334826
0.19896
0.257023
0.263539
-0.0299292
0.103047
-0.0269526
-0.137948
0.0553651
-0.0291218
0.0974045
0.100417
-0.0531736
-0.0757923
0.0960618
0.217987
-0.220292
0.160081
0.139755
0.146467
0.127924
0.0700411
0.314024
-0.0560746
0.161143
0.0479082
0.0289347
0.0540721
0.106024
-0.0334557
0.149538
0.219019
-0.227681
0.0876634
-0.0649737
-0.365278
0.00261671
0.0228733
0.0347231
-0.216509
0.202118
0.0386021
-0.0394045
-0.228509
0.183014
0.242629
-0.0545902
0.13196
0.123506
0.196378
-0.210771
-0.131589
-0.353712
-0.39903
-0.01327
-0.0198544
0.0697509
0.139554
0.0132613
-0.150492
0.0435807
-0.00634809
0.376436
-0.0200799
0.0350674
0.0235646
-0.10858
0.171884
0.0213764
-0.075774
-0.157238
0.322255
0.149843
-0.00467551
0.289643
0.330548
-0.0176238
0.208502
0.107706
0.0485
-0.271382
0.269171
-0.0932544
0.123704
0.0583693
0.070778
0.0989073
0.00698139
-0.165989
0.334884
-0.162233
-0.0993814
-0.243506
-0.146488
-0.0491173
0.298117
-0.0551254
-0.0972684
-0.0400014
0.0769485
0.0859276
-0.255679
0.267142
0.387195
-0.106909
-0.0922062
0.0514374
0.0290721
0.0905156
0.0417415
0.0764211
0.0979893
-0.167812
-0.0768402
0.119411
0.134635
0.0624084
-0.110224
0.314817
0.285072
0.00425744
0.113142
0.00536837
0.0273213
-0.101808
0.194655
-0.252988
0.252117
-0.0255403
0.0781814
0.0430749
-0.0354957
0.0388635
0.192988
0.234963
-0.0432715
-0.0225877
-0.0888394
-0.175114
0.0367998
-0.0824445
-0.174783
0.176126
0.0193296
0.24458
-0.0568428
-0.291323
0.0927912
-0.0764521
0.103485
-0.0441721
-0.0230769
-0.443098
0.198361
0.259051
0.209581
0.131307
0.0345089
-0.154251
0.152764
0.0649716
-0.200718
0.0672252
0.269227
0.370751
-0.0462296
-0.160125
0.0702441
-0.0495533
0.00677654
-0.117629
0.0430363
-0.173664
0.142178
-0.29875
0.129854
0.195483
-0.247044
0.0241213
-0.0458874
0.127927
0.301863
-0.0404111
0.0830352
0.0329567
0.01494
-0.0866559
-0.0331112
-0.0958155
0.0693078
-0.00797664
-0.172048
-0.179968
-0.0365931
-0.156863
0.383462
0.0420338
0.0809024
-0.123526
-0.177532
0.0863072
-0.255024
0.0913295
-0.195499
0.0443107
0.0635996
0.216458
-0.00841529
0.281858
-0.0113744
0.0221078
0.110893
-0.202212
-0.0386901
-0.00521119
0.233042
-0.319501
0.146344
0.164703
0.0767772
0.0851886
-0.0690413
0.076361
0.0645954
-0.23206
0.204966
0.19294
0.0115006
-0.135965
0.15189
-0.141904
-0.240996
0.0259246
-0.0942831
0.134516
0.215563
0.174175
-0.217613
-0.0270999
0.118999
0.401743
0.0521404
-0.146685
0.0254392
0.353139
0.121455
0.160221
-0.0134037
0.0219256
-0.124376
-0.212914
0.0512638
-0.478175
0.0947354
-0.180719
0.167136
0.360581
-0.176617
0.0658657
0.257495
0.0347627
-0.0586379
0.0769674
-0.0294041
0.0430908
0.0269866
0.0858148
0.216616
0.124138
-0.119737
0.13986
0.224968
0.153739
-0.00400885
-0.0532382
-0.198349
0.155146
0.0343203
0.0845068
-0.104176
-0.116702
0.0777007
0.214246
0.00349327
-0.198557
-0.0149121
-0.089144
0.0635568
0.027595
-0.0147634
-0.0319219
-0.0588845
-0.0391553
-0.143103
0.0157588
-0.258534
-0.0913639
0.0731784
0.0494878
-0.340014
-0.0760454
0.134097
0.0455636
0.17522
-0.0455442
0.190702
-0.0735456
-0.166816
0.0539676
0.0184576
-0.0756748
-0.0834975
-0.0887813
0.100928
-0.0365686
-0.161075
0.00605412
0.310166
0.0160223
0.0847041
-0.153121
0.304111
0.0161699
-0.123696
-0.0521285
0.0100204
0.0478889
-0.0543423
-0.316258
0.329253
-0.198821
-0.101703
0.076597
0.0556802
0.0852652
0.0251104
-0.166579
0.185582
0.11314
0.159108
-0.309167
0.129095
0.151358
-0.0463707
-0.265008
0.0469599
-0.0615173
-0.237802
-0.174264
-0.0613935
0.260173
0.147167
-0.387914
-0.0722552
0.0659125
0.041959
-0.00332105
0.0349438
-0.0646136
-0.268308
-0.134696
-0.0719434
-0.0391211
0.028027
-0.0545434
-0.0163091
0.152444
-0.177465
0.0602082
-0.30662
0.509879
0.12701
0.129766
-0.0153303
0.104872
0.0461113
-0.0660711
0.11454
-0.109139
-0.193057
-0.261795
0.0515398
-0.262957
-0.253327
-0.0477565
0.0117073
0.0548397
0.129941
-0.0337446
0.0484002
0.0754107
0.153057
0.093247
0.0008327
-0.224075
-0.186077
-0.0251646
0.00718177
-0.0178879
0.180372
0.136543
0.0342147
0.0954006
0.128677
-0.0437487
0.0970713
-0.0451068
-0.0145625
-0.0224496
0.142074
0.11594
-0.0267189
0.400275
-0.00933562
-0.0745045
-0.0266326
0.128006
-0.0206136
-0.309618
0.295803
-0.0288723
0.26088
-0.205314
-0.193224
-0.12187
0.195051
0.306607
-0.184666
-0.0929667
-0.0637234
-0.151277
-0.108997
0.107377
-0.0747943
0.171621
-0.251235
0.128596
-0.168973
-0.0543413
0.0438544
-0.251861
0.241065
-0.0768278
0.0583575
-0.175543
-0.034468
0.294964
-0.0414747
-0.136274
-0.111132
-0.0319443
0.184455
-0.0804315
-0.0290737
0.11401
0.0577051
0.273332
0.114477
-0.16867
-0.0839345
0.00543334
0.000266897
-0.0997705
-0.0387748
-0.0504482
0.0909768
-0.00646389
-0.0562935
0.0246358
0.0735855
-0.0851878
0.0348572
-0.0875001
-0.195008
0.277122
-0.190713
-0.112868
0.154369
-0.0682809
0.0736888
-0.0100708
0.248649
0.0819593
-0.0965872
-0.212799
0.00519347
0.110666
-0.138952
0.113259
-0.0415298
0.216095
-0.0105454
-0.137668
-0.181125
-0.0935642
0.0012859
-0.107017
0.136248
0.0386922
-0.322599
0.29557
-0.0602438
0.127091
-0.441928
-0.176299
0.304239
0.0133308
-0.376592
-0.15846
0.0462673
-0.0771609
-0.18812
0.0605238
-0.222607
0.0993401
-0.161157
0.315401
-0.176273
-0.0475941
0.224333
-0.133058
0.141755
0.250371
0.0534731
-0.0154286
0.0481548
-0.202115
-0.274386
-0.224929
-0.0129275
-0.0130752
0.266294
0.0986087
-0.0793278
-0.0835045
0.0496897
0.381794
-0.314704
-0.108812
0.214297
0.268733
0.104263
-0.224919
-0.178391
0.251823
-0.29202
0.00596632
-0.287384
0.0504682
-0.0250135
-0.0643208
0.0390123
-0.122368
0.0904712
0.187819
0.215556
0.103357
0.211763
-0.149789
-0.3487
-0.225438
-0.327297
0.217329
-0.151984
0.0948821
-0.250025
-0.0187706
0.133795
0.00944253
-0.0425194
0.16619
0.342934
0.16302
-0.0233546
-0.220414
-0.104928
0.245777
0.159728
-0.0498519
0.106491
-0.106369
-0.00976994
-0.000171781
0.00694798
0.210289
-0.0410805
0.292987
-0.189389
-0.13139
-0.263518
-0.212391
-0.0202047
0.255817
0.129347
-0.183621
-0.176494
0.264249
-0.033876
-0.0753312
0.150029
0.293976
-0.126189
0.0592116
-0.145502
-0.0530474
0.0527611
-0.255292
-0.255764
0.00263692
0.191161
-0.0546457
-0.135519
-0.176783
0.024862
0.00344767
0.0178557
0.0595577
-0.17922
0.00119238
0.425385
0.191124
0.228757
0.189079
0.0484622
0.117063
0.0989281
0.274793
0.0112257
-0.102573
-0.235228
0.0159927
0.0384339
0.168828
0.0927064
-0.00449965
-0.0615232
-0.000150841
-0.057331
-0.050237
0.0486044
-0.0129513
0.331841
0.423446
-0.111379
-0.0709755
-0.00941082
-0.0808998
-0.138698
-0.230939
0.0729111
0.105235
0.0614625
0.140207
0.11462
0.370481
0.183062
0.201874
0.0043296
0.119108
-0.106712
0.0248859
-0.132882
-0.0498234
0.0572512
0.00772216
-0.0858283
0.152356
-0.164495
0.309009
-0.261357
0.0617567
-0.164372
0.0154282
0.196786
-0.141689
-0.365656
0.0959158
0.150648
0.0645589
-0.0393192
0.129914
0.0363802
0.240072
0.220548
0.0651639
2.70903e-05
0.105357
0.0415553
0.025549
0.215571
0.140956
0.0851422
-0.0981082
0.0937577
-0.117274
0.295242
0.0947
0.165559
0.129535
0.0840398
0.407851
-0.152263
-0.0110527
-0.0570356
-0.153205
0.0498028
-0.0301747
-0.183188
0.175403
0.237837
0.0780539
0.246446
-0.265459
0.116543
-0.175493
0.374055
0.24559
-0.0258359
0.112845
0.0283344
-0.180497
0.209372
-0.230546
0.053377
-0.202201
-0.104322
-0.123945
0.104317
-0.131766
0.288984
-0.0963073
-0.0936425
0.134348
0.17771
0.0404004
0.258504
0.0363028
0.122607
0.0394102
-0.0797622
0.173297
0.0334081
0.0230137
-0.048409
0.0123119
0.0633824
0.119177
0.218478
0.105889
-0.0827426
-0.0224529
-0.0555884
0.0956522
-0.0983792
-0.0866074
-0.0181152
-0.127325
0.0274243
0.0279408
0.0220538
-0.0246663
0.0846781
0.139947
0.163092
-0.0438795
0.0543959
0.180705
-0.0294085
-0.0462272
0.10815
-0.181923
-0.0580234
0.0954724
0.153366
-0.154318
0.241036
-0.0748505
0.134864
0.0372811
0.0495401
0.192722
-0.13979
-0.0570833
0.108364
-0.0417943
-0.141495
0.107859
-0.023554
-0.0504123
0.115176
-0.0550709
0.115164
-0.0930192
-0.273756
0.116919
0.0387282
-0.0802489
0.23098
0.104451
-0.138575
-0.136988
0.386799
0.0722003
0.199728
0.113823
0.199651
-0.184854
-0.542332
0.0934175
-0.236208
0.168902
0.0918737
0.171767
-0.171763
0.0998942
0.109809
0.144595
-0.201888
-0.0966724
0.0148895
0.098629
0.0746504
0.0473515
0.0707557
-0.25456
0.179504
0.179602
-0.0128972
-0.125133
0.0884185
-0.0410596
-0.0976082
0.0941218
-0.219366
-0.0629268
-0.0603825
-0.092242
0.23521
-0.34671
0.0588779
-0.0176553
0.0433946
0.105047
0.123576
0.117573
0.0332217
0.131874
-0.145566
0.0479774
-0.255693
-0.000735318
-0.159859
0.101262
-0.270051
-0.0697723
0.0604601
-0.157191
0.126094
-0.0511211
-0.0343488
-0.244155
-0.0323149
0.185097
-0.236916
0.0346081
0.124141
-0.389562
-0.23131
-0.348574
0.0957804
-0.0103554
0.213663
0.227451
-0.292668
0.130706
0.10828
0.0155981
0.0459288
-0.18467
0.246183
0.175571
-0.0209836
0.208211
-0.194435
-0.115054
0.131417
0.118398
0.088712
-0.17229
-0.15313
-0.0375796
0.385739
-0.0634516
0.0707803
-0.0397102
0.201881
0.270695
0.0681041
0.0463914
-0.253142
-0.0748069
-0.144411
-0.318652
0.0795954
-0.0377032
0.0113473
0.122189
-0.264846
0.110798
0.0569669
0.136255
-0.0281449
-0.143751
-0.116946
0.0915673
0.0285601
0.012981
0.104403
0.305096
-0.113246
-0.319242
-0.0136048
0.0504125
-0.00422136
0.0501868
0.0931212
-0.315253
-0.324461
-0.0756512
0.158751
0.0833196
0.158053
-0.074071
0.171506
0.0238224
0.0260085
0.0735641
0.161256
-0.156882
0.182316
0.143419
-0.0131125
0.214714
0.133531
-0.0691803
0.12188
-0.272333
-0.231703
0.259059
-0.0508816
0.0873386
-0.0859417
0.034195
-0.203262
-0.194368
0.0183178
-0.140082
0.0121538
-0.262542
-0.00947229
-0.253384
-0.0853648
0.101423
0.193683
0.0701048
-0.0616251
-0.0262453
0.253473
-0.389192
0.0777357
-0.160867
-0.0788162
-0.0559573
-0.301858
-0.0889697
-0.18459
-0.00307216
0.210741
0.143911
0.176604
0.0754929
-0.150234
0.119355
0.065423
0.26416
-0.0299956
-0.023608
-0.128755
-0.303426
-0.21972
-0.101095
-0.0479585
0.120631
-0.0549985
0.304936
0.217533
0.233561
0.176422
-0.0684337
-0.0379134
-0.0917231
0.241159
-0.282834
-0.276379
0.0472318
0.0043906
-0.00317135
-0.300716
0.193934
-0.233388
-0.173617
0.0505052
-0.274835
-0.23567
-0.0332474
0.191068
0.10232
-0.0996434
-0.252683
-0.304716
0.178495
0.0976576
-0.129468
0.211418
0.00486263
0.121105
-0.0104631
-0.58996
-0.0281853
-0.00895638
-0.157715
0.204596
0.024827
0.0430341
-0.170309
-0.158624
0.0675513
0.0361508
-0.108414
0.311712
0.307721
-0.121556
0.2558
-0.105305
0.0929948
0.240083
0.195039
-0.1693
0.207158
0.153904
-0.0430102
0.00460125
0.00332545
0.053322
-0.0638791
0.058317
-0.0102048
-0.0973237
-0.13031
0.0194569
-0.121916
-0.239002
0.191897
-0.132416
0.321485
0.0836477
0.153679
0.110564
-0.14384
0.103753
-0.024204
0.0284795
0.081192
-0.104951
-0.0705994
0.0464147
-0.247716
0.0451875
-0.0873809
0.265047
0.0133367
-0.11191
0.05553
-0.0161701
-0.0437028
-0.0514796
-0.00901273
0.185539
-0.134219
0.132786
-0.128953
-0.101105
-0.178957
0.495845
-0.0556881
0.46597
0.249237
-0.101691
0.0898998
-0.0790199
-0.122824
0.145193
-0.0992211
-0.0713027
-0.120671
-0.0808522
-0.101977
-0.361297
0.315275
0.127492
0.4292
0.206691
-0.13096
-0.126488
-0.354458
0.044207
-0.201028
-0.0053519
0.0394838
-0.180927
-0.18134
0.230589
-0.140712
0.0708353
-0.226079
-0.128421
0.0771325
-0.401796
0.11639
0.192069
0.000727395
-0.174445
-0.313323
0.109188
0.131056
0.283421
0.112271
0.037583
-0.0132343
0.0596544
0.124992
-0.0642896
0.0950087
-0.0734873
0.119315
-0.107417
0.122101
-0.0250692
0.365811
0.0137784
-0.0255969
-0.174262
0.0696906
0.0223639
-0.141557
-0.0333757
-0.0895021
0.209849
-0.0565223
0.0767159
-0.0524906
-0.181718
0.188319
-0.0261432
0.00458158
-0.259196
0.0383164
0.0655887
-0.164373
0.125336
-0.0966672
0.161307
-0.0126943
-0.0661134
-0.188448
0.170707
0.0151465
0.0619563
0.0975369
-0.0849749
-0.0464887
0.00348702
-0.0869433
0.0368699
-0.0355946
0.0800673
0.077873
0.247777
-0.0118343
0.0829375
-0.107901
-0.163259
-0.206062
-0.268001
-0.245635
0.10074
-0.016272
0.130971
0.209277
0.0371032
-0.062292
0.109591
-0.202967
-0.0184399
-0.278142
0.181004
0.0371606
-0.149364
-0.140073
0.018178
-0.190645
-0.0341515
-0.200424
-0.145203
-0.0517585
0.0888818
-0.0222154
0.0322003
-0.070517
0.042442
-0.0851509
0.161407
0.00323154
-0.412696
-0.0869282
0.0934095
-0.032098
-0.0717903
0.139185
0.2049
-0.058862
-0.0457273
0.0196061
-0.0544635
0.193882
-0.179521
0.022047
-0.216665
0.114988
0.0408564
0.0472522
0.320246
0.178097
-0.0302414
-0.245037
-0.12438
-0.0335632
-0.232309
-0.115315
-0.0119499
-0.107185
-0.138239
-0.0482368
0.043296
0.168143
-0.245168
-0.0278869
0.0741229
-0.0302625
0.181549
0.0963703
0.0910312
0.473308
0.149538
0.0875992
0.0245737
-0.08543
0.297511
-0.470678
-0.0594643
0.0744285
0.331802
-0.050989
-0.175279
0.0343995
-0.0500911
0.100808
0.205592
0.0987512
-0.106641
0.182014
0.28201
-0.0760735
-0.0236835
0.00203203
0.119017
0.154217
-0.0678871
-0.0796254
-0.0281356
-0.0225669
0.0910521
0.13256
-0.00138727
0.120233
0.0890387
-0.00566703
0.153562
0.129451
-0.0565427
0.177708
-0.0336685
-0.0903605
-0.191025
-0.410545
-0.252299
-0.221305
-0.115735
-0.114278
-0.092157
0.212817
-0.00955426
0.190491
-0.240305
-0.146032
0.093311
-0.0874035
0.136479
0.0610399
0.189759
0.342978
-0.0638087
0.0621437
-0.318908
-0.158228
0.131894
-0.12782
0.109536
-0.180696
-0.144339
0.0315578
-0.137371
-0.0487506
0.0401435
-0.042846
-0.109092
-0.00322896
-0.0393239
0.11157
0.0608842
0.263311
0.00961133
-0.0833793
-0.0548561
0.242727
0.174041
-0.188392
0.0253883
0.0562199
0.0147358
-0.232841
-0.0928821
-0.254062
0.00751619
-0.191633
-0.24268
-0.170854
0.267216
-0.145795
-0.148588
-0.0407874
0.039873
0.327442
-0.0430568
-0.196824
0.180866
-0.0829254
0.37026
0.0185988
-0.130225
0.0552038
-0.0117962
0.109791
-0.254124
0.0801004
0.102475
0.0560555
-0.166275
0.00915478
-0.0507881
0.0325211
0.0307208
0.282324
0.0614415
-0.0198591
0.0697821
0.0674649
-0.0575943
-0.0258831
0.135302
0.0545239
0.0299617
-0.127264
-0.211648
0.037547
0.0597618
0.259608
-0.0305943
0.361058
0.294428
0.0404333
0.042809
-0.122754
-0.0448187
-0.0904526
-0.271302
0.401449
-0.260588
0.0608436
-0.217969
0.0466743
0.343999
0.215468
0.0384755
0.0751516
0.190349
-0.191819
-0.0600611
0.33162
0.235728
0.119939
-0.0373838
0.262961
-0.0482651
-0.106847
-0.10535
-0.0831893
0.105956
-0.128197
0.253906
0.106058
-0.251243
0.00375823
0.049294
0.0145568
0.0168457
0.40007
-0.248756
-0.0354446
0.178697
-0.0483243
-0.127971
0.238729
-0.145362
0.105972
0.219909
-0.00409001
-0.217639
0.0321066
-0.0130671
-0.181528
0.0729153
-0.161339
-0.231121
-0.196503
-0.220349
0.32304
0.0504469
-0.302409
0.093132
-0.0868411
0.377501
0.0671066
0.116075
0.290606
-0.0105592
-0.209759
-0.206161
0.128895
0.248506
-0.205491
0.0632217
-0.101733
-0.182545
-0.0661258
0.0776049
0.0818491
-0.121502
0.024235
0.0829916
-0.185793
-0.131625
0.119272
-0.0408177
-0.188703
-0.0764619
0.0129611
0.118776
0.0396204
0.117604
0.200565
-0.154154
-0.10391
0.00658395
-0.252659
0.115207
-0.0437758
-0.0584047
-0.296196
0.309441
0.0404188
-0.0900656
0.0720602
-0.14976
-0.0448261
0.556918
0.346586
-0.244203
0.231965
0.0316291
0.247843
-0.0468336
0.0682649
0.0763214
0.128669
-0.00569515
0.043547
0.13738
0.179045
0.149433
-0.00364174
-0.0897933
-0.159236
-0.209989
-0.126361
-0.305824
0.0171857
0.254591
-0.0916521
0.146069
0.221894
-0.0821061
-0.0567955
-0.0951989
0.119591
-0.265195
0.1098
-0.138803
0.0266523
-0.224689
-0.0239388
-0.181625
-0.0493247
-0.0844223
-0.160809
-0.0338267
0.0827724
-0.0204319
0.132932
-0.0791694
0.0675801
0.145177
-0.142763
-0.258078
0.0145274
-0.180444
0.0166485
0.277871
0.0117148
-0.150549
0.0636742
-0.0989868
0.313635
-0.170424
0.192935
-0.179153
-0.148981
0.129572
-0.0410054
0.0255759
-0.0571964
-0.0732342
0.0237379
-0.216262
-0.190238
0.251974
0.228176
-0.0909389
0.153817
0.0380054
-0.204283
-0.141945
0.100131
0.119535
-0.216813
-0.0485721
0.104893
-0.166313
-0.0696512
-0.148729
-0.141479
0.0159754
0.0808817
0.306036
-0.0361209
-0.206557
0.251913
0.0931635
0.0986989
0.028885
-0.0968433
-0.179864
0.244719
0.160345
-0.100246
0.246654
0.111245
0.106929
0.124351
-0.197197
0.0690862
0.310433
0.182
-0.142225
-0.0371847
0.117479
-0.145117
0.0120055
-0.161199
0.144385
0.0600196
-0.287369
0.295591
-0.224689
0.0100859
-0.0611397
-0.194481
0.1247
0.186959
0.162136
0.0489239
0.0598312
0.0407768
-0.0299282
-0.077382
-0.2625
0.117603
0.0761998
-0.422516
0.197787
-0.352975
0.151531
0.208464
0.119296
-0.0565282
-0.0278034
0.0086742
0.0359242
-0.111889
-0.314943
0.0792267
0.0923763
-0.262596
-0.137979
-0.109182
0.0938743
0.238403
0.20698
0.0887681
0.10368
-0.139419
-0.188859
-0.219208
0.0140378
0.395935
-0.0413263
-0.145588
0.254691
-0.262596
-0.0454629
-0.0813814
-0.029631
-0.0268489
-0.140472
0.150618
-0.0629925
0.304656
0.0527212
-0.0779474
0.215866
-0.00963029
0.106872
0.131661
-0.289343
-0.28428
-0.258496
0.0661902
-0.124673
0.0260597
-0.301005
-0.27852
-0.0234853
-0.183867
-0.0503437
0.194819
-0.20991
0.0285942
0.172672
-0.0402844
-0.144204
-0.341197
0.00308109
0.11728
0.0752352
0.0183156
-0.223928
-0.0594369
-0.0658525
0.0947862
0.035576
0.0927017
0.0410608
0.0691028
-0.317698
-0.198149
0.0334771
-0.183646
0.0440994
0.0938186
0.490836
0.0614512
-0.0910064
-0.0159096
0.10057
-0.132998
-0.104757
-0.0151982
-0.0323631
-0.0218599
-0.0727711
-0.263799
0.344201
-0.192911
-0.0723067
-0.119538
-0.121939
-0.0810292
-0.194638
-0.135387
-0.113927
-0.0681296
-0.221378
0.162699
-0.0222497
-0.0141426
-0.168617
-0.174509
-0.123887
0.0325906
0.246239
-0.125182
0.00543213
0.0541121
-0.0534838
-0.143858
-0.0188316
-0.0579453
0.188528
-0.152441
-0.0835878
0.0183092
-0.080529
-0.217388
-0.155992
0.0548484
0.1954
0.0127176
0.122606
-0.105691
-0.100753
-0.220761
-0.0432059
-0.173018
-0.0833509
0.0465276
0.0302656
-0.0381761
-0.117694
0.216655
-0.0134966
0.229106
0.0500667
0.00164059
0.0624102
0.106319
-0.0766547
-0.06388
0.372438
0.0495384
-0.0749749
0.0288183
-0.104226
0.125059
-0.145813
9.6841e-05
0.174213
-0.239341
0.220387
-0.0206249
0.0260232
-0.041927
0.00611333
-0.157051
0.13517
-0.0130272
-0.272221
-0.126938
-0.261784
-0.0617554
0.27205
-0.0930334
0.0882746
-0.0413404
-0.429039
0.111001
0.240987
-0.00965935
0.319834
-0.128288
-0.170003
-0.217352
-0.162573
0.0733745
-0.0501172
-0.0106074
-0.0835287
-0.360939
0.0966148
0.00513035
0.0138412
-0.383125
0.278026
-0.0731866
0.110446
0.180496
0.0200219
0.173161
0.332776
0.00268474
0.0516588
0.0262613
-0.0486004
0.190578
-0.0178475
0.0235633
-0.0785353
-0.261452
0.0692287
0.0508451
0.031311
0.191979
0.00144788
-0.0692301
-0.075363
-0.133676
-0.0495013
-0.00442255
-0.132658
0.0830436
-0.0386199
-0.199335
-0.160156
-0.187131
0.0912331
-0.0198865
0.0944383
-0.150229
0.0264315
-0.0925295
-0.0886646
-0.0169021
-0.0825839
0.00708077
0.116798
0.188625
0.109423
0.0627924
-0.0891355
-0.0870146
0.0832526
-0.200154
0.0823018
-0.113753
0.0223638
0.12088
0.00956786
0.0930963
0.323025
-0.100246
-0.26645
0.13458
0.236467
0.157613
-0.0138755
0.0481137
0.0200317
-0.00778263
0.183926
2.87154e-05
0.347237
-0.188323
-0.0350747
0.0615968
-0.339937
0.00463027
-0.113682
-0.0202723
0.081805
-0.0401637
0.139362
-0.205294
-0.255465
0.0552521
0.0432611
-0.445867
-0.0926036
0.014026
0.00497172
-0.0479111
0.0630887
0.0186809
0.370064
0.175456
0.104766
0.0981384
0.0441315
0.16597
-0.232266
-0.128561
0.23217
0.168567
0.129817
-0.0918795
-0.00709558
-0.0530617
0.0361091
0.0254018
-0.295355
-0.413104
0.372266
0.149803
0.0938134
-0.0192856
0.0422302
-0.00988908
-0.033819
0.0251087
0.0160615
-0.0839858
0.154243
-0.151843
0.0990852
-0.230809
-0.0939681
-0.00372224
-0.0645021
-0.0996462
0.00872861
0.188533
0.112591
-0.041014
0.230766
0.083672
0.00257229
0.0103655
0.340552
0.0753614
-0.0597468
-0.271777
-0.0242387
-0.0138144
0.349055
-0.0651381
0.0980382
-0.136851
-0.0974548
-0.0869013
-0.207292
0.00799727
-0.0950972
0.143952
0.0938145
0.0590317
-0.0564118
-0.148514
-0.407319
-0.139861
0.169608
0.147426
-0.289986
-0.0626597
0.328712
-0.00991121
0.210713
0.04345
0.0516328
-0.0624083
-0.131985
-0.0806705
0.00752092
0.177697
-0.150335
0.177774
0.114348
-0.0955649
-0.141805
0.0130934
-0.00271671
0.0663175
-0.0414633
-0.0385657
-0.0949334
-0.0924239
-0.152392
0.207285
-0.018578
0.0577105
0.0293991
-0.15205
-0.163303
-0.19395
0.107146
0.0410486
-0.0770462
-0.196252
-0.293128
0.11012
-0.127168
-0.300224
-0.15142
-0.0789301
-0.0773948
0.12823
-0.02899
0.363939
-0.0682376
-0.011757
-0.00391129
-0.120909
-0.0446966
0.156198
-0.0840887
0.15752
0.155937
0.126508
0.0368062
-0.208675
0.0131224
0.163374
0.0316989
-0.269145
0.00288318
0.0433361
-0.217955
0.0847568
-0.0309522
-0.124104
-0.0759874
0.0700978
-0.0417901
-0.0355162
-0.181531
0.267076
0.105251
0.0326122
0.054937
0.0429509
-0.0336003
0.00568158
0.0801987
-0.0344667
-0.0587107
-0.293046
0.0869891
0.00808337
0.35503
-0.0704228
0.0928592
0.101124
0.0625698
0.17925
0.0593828
0.282054
0.0250042
-0.13018
-0.149535
0.209798
0.271109
-0.124986
-0.108781
-0.06104
0.0568326
-0.0119613
0.0155459
-0.0105262
-0.038177
0.153361
-0.000621409
-0.11834
0.159199
-0.0112314
-0.143735
-0.220964
0.0559524
0.0224789
0.107763
-0.0184527
0.199176
0.0304702
0.0319359
0.236862
0.301657
0.117729
-0.250005
0.188378
0.092609
-0.412733
0.201422
-0.3122
0.0376541
0.0277014
0.308264
0.0394724
0.0990817
0.092574
-0.0691815
0.0924399
-0.288444
-0.0246855
0.134149
-0.0794355
-0.210102
0.101095
0.192242
0.0124808
0.00802831
-0.115786
0.0755855
-0.177725
-0.139974
0.165621
0.104469
0.117212
0.0386327
0.0443237
0.0317504
0.288522
0.0684146
0.118988
-0.217607
-0.168785
-0.0425958
-0.118841
0.036284
0.0756341
0.135128
-0.266438
0.0656901
0.232419
-0.0250486
-0.284191
-0.163237
0.00288538
-0.0731085
0.0975897
0.0877953
-0.227562
0.161287
-0.0473893
0.0193686
-0.0853206
0.0265075
0.336522
-0.0358641
0.11883
-0.0300969
-0.0869251
0.302931
0.227769
-0.0751289
0.296171
-0.108383
-0.0796894
0.0982935
0.239335
-0.015
0.0437987
0.174634
-0.132107
-0.117202
-0.0616446
0.0173408
0.149731
0.2725
-0.0892051
0.11416
-0.138426
-0.00854587
0.10424
0.0773135
0.126297
0.15832
-0.246949
0.222088
-0.187316
0.12814
0.125926
0.0426564
0.205286
-0.0670395
-0.0992792
0.0763632
0.160936
-0.410952
0.331318
0.0618294
0.139823
0.228332
0.0854759
0.390871
-0.0531146
0.113345
-0.0919745
-0.223911
0.247149
-0.0349858
-0.0348867
-0.503024
-0.228912
0.277944
-0.053744
-0.304819
0.163297
0.237689
0.109706
-0.226394
-0.0171895
-0.340961
-0.0179035
0.286179
-0.0314689
0.265822
0.123283
-0.0977771
-0.0881053
0.0754307
-0.00274149
0.29927
0.0801103
-0.295982
0.236076
-0.0542117
0.019103
-0.0616389
-0.0548769
-0.0226856
0.0390643
-0.0614611
0.0923035
0.374344
-0.180138
0.113598
0.239567
-0.119965
-0.0686357
0.0229193
0.0498113
0.0442525
0.200085
-0.171167
0.179536
-0.294418
-0.104347
-0.200333
-0.0591043
-0.00902859
-0.0702151
-0.135935
0.144342
0.217881
-0.181882
0.0418369
-0.0398388
-0.0617981
0.0954779
0.161892
0.204751
-0.00421863
-0.3397
-0.0191332
-0.388127
-0.217893
0.149703
0.0592127
-0.208384
-0.070046
-0.13217
0.178082
0.033424
-0.041698
0.0468545
0.0489008
0.191739
-0.0451514
0.128581
-0.0278784
-0.0387565
0.315214
0.14233
0.0329131
0.147022
0.167557
-0.0524374
-0.0884151
0.0569712
0.114927
-0.178696
-0.0604659
-0.0426018
0.271612
-0.0638078
0.0981256
-0.31769
-0.0946504
0.0734842
-0.0587342
-0.0146644
-0.313618
0.117585
-0.32524
-0.294982
-0.158744
-0.202768
0.126867
-0.0857549
-0.34985
-0.236785
-0.300386
0.40146
0.132112
-0.129858
0.0205011
-0.0442082
-0.022496
-0.204997
0.136462
-0.0180445
-0.0595531
0.0147902
-0.159239
-0.0148124
-0.217064
0.0705807
-0.00988301
-0.340174
0.0477245
0.142916
-0.0867177
-0.186946
0.336928
0.0814119
-0.242456
0.0337152
0.198003
-0.00336968
0.172401
-0.0250224
-0.246161
-0.123738
0.241586
0.0909761
0.179606
0.214677
-0.0403806
0.168333
-0.0710892
0.148348
-0.118604
0.0919831
0.0360116
-0.141481
-0.0841641
0.00440021
0.00904486
0.0583029
0.0865466
-0.152482
0.0975252
-0.399765
-0.175769
0.0332776
0.182996
-0.0931049
0.198867
0.0704405
0.389958
-0.175995
0.311593
-0.122532
-0.0559957
-0.247997
0.0672219
0.136908
-0.0830587
0.3201
0.1205
-0.197226
0.251806
0.056854
-0.0549496
0.0752665
-0.26023
-0.352652
-0.255138
-0.113476
0.282893
0.108878
-0.134898
-0.0425081
0.41002
0.0540884
0.264284
0.187138
-0.291435
-0.124283
0.0690162
-0.287638
-0.498736
-0.0723355
-0.165516
-0.105179
0.319308
-0.219368
0.126514
0.0733978
-0.0387414
-0.119752
-0.221157
0.239654
-0.402388
0.115602
0.138657
0.133141
0.0387996
-0.0952595
-0.252215
-0.0252427
0.185988
0.188873
-0.255646
-0.0216868
-0.333561
-0.0597837
0.218958
-0.0151128
0.152597
0.0730559
-0.0607103
0.136303
-0.0881307
-0.091878
0.20248
0.257484
0.0349798
-0.183933
-0.187113
0.0793093
0.320417
-0.179397
-0.151396
0.011967
0.120156
-0.070574
-0.144175
0.168548
-0.0705665
0.255576
0.410391
-0.158775
-0.00574386
0.0133737
-0.0550578
0.0444852
-0.0900856
0.0144547
0.0347675
-0.163938
-0.161559
-0.288622
-0.207874
0.0326038
-0.0529026
-0.313678
-0.191127
0.195848
0.0277026
0.134146
-0.0329193
-0.199147
-0.139328
0.0833478
-0.0764294
0.267541
0.118981
0.288398
-0.513502
-0.163154
-0.082953
0.159057
-0.287339
-0.0531931
0.052097
-0.0403455
-0.262208
0.320116
0.0765742
0.492726
0.224025
0.0893855
0.258227
0.0109192
0.0498153
-0.163107
-0.105718
-0.195971
0.061181
-0.0830921
-0.242253
-0.222379
-0.00092945
0.0911998
-0.0492932
0.130655
0.31637
0.0200207
0.0158639
-0.139831
-0.0696985
0.270812
0.205028
-0.0117403
0.0160643
-0.0466735
0.167308
0.130301
-0.208133
0.111193
0.273394
-0.0692832
-0.333072
-0.150592
-0.162099
0.088963
-0.205539
0.109229
0.0850814
0.00292389
0.0300467
-0.141683
-0.10844
0.164239
0.0371634
0.118392
0.0650881
0.0867714
0.104637
-0.248884
-0.0927147
0.0890448
0.104164
0.258638
-0.086888
0.257522
-0.293558
-0.291821
0.125434
0.197535
0.0475076
-0.0886704
-0.0135899
0.202688
-0.0967156
0.411131
0.0963461
-0.193981
-0.074643
-0.336629
0.19806
-0.0847384
-0.257891
-0.198531
-0.223803
0.100477
-0.105829
-0.0955181
0.285528
-0.0754174
-0.228139
0.155886
-0.232435
0.33453
-0.0491811
-0.00579954
-0.0130913
-0.128462
-0.0619117
-0.198197
-0.106786
-0.0118891
-0.116803
0.136151
-0.0303675
-0.3488
-0.214503
0.0867251
0.232059
0.114677
0.0130126
0.111139
0.441199
-0.141428
-0.0392732
-0.0825072
0.220565
-0.0770548
0.138497
-0.226803
-0.273885
0.334911
0.0391461
-0.0460629
0.017906
0.372998
0.0500938
0.166483
-0.175609
0.0383656
-0.0662182
0.136471
0.0886575
-0.112779
-0.0184527
0.207667
0.0776404
0.0807439
-0.00552725
0.113159
-0.133871
-0.0956067
-0.184478
0.0279709
-0.342193
0.114245
-0.035355
0.500213
0.0498073
0.0623311
0.0359315
-0.00813967
0.444317
0.183709
-0.203655
-0.00887826
-0.192796
-0.0142692
-0.0413022
-0.0865749
-0.269349
-0.0194635
-0.0917205
-0.274512
0.12196
-0.0858651
-0.0306663
-0.0324123
0.165438
0.0970214
0.253794
0.0640893
0.1338
0.119453
-0.0664597
-0.0938339
-0.14856
-0.0522836
0.00905618
0.357811
0.0423017
-0.29964
-0.159848
0.134948
0.230063
-0.239879
0.18369
0.0745522
0.132758
-0.282031
0.268277
-0.022295
-0.110216
0.0220118
0.25834
0.0823842
-0.206226
-0.0511549
-0.0332556
0.116071
-0.0528934
-0.222024
0.175974
0.37267
-0.0837419
-0.0767939
0.233226
0.368407
0.177944
-0.0663294
-0.107241
-0.115302
0.0441917
0.147716
-0.039076
-0.185898
0.261184
-0.0182729
-0.124465
0.0759306
-0.367766
-0.163527
0.0916754
0.0477644
-0.11458
0.241715
0.0405006
-0.19392
0.229553
0.0781785
0.0216053
-0.224494
0.106537
0.00789656
-0.0904649
-0.00587227
-0.136034
0.0698765
-0.0322491
0.145451
-0.0965078
0.267917
-0.074319
0.227773
0.0238183
0.263812
0.254826
0.0667415
0.0472625
0.0361268
-0.0703365
-0.0050146
-0.00698257
-0.128935
0.158746
-0.0813365
-0.0100643
-0.037996
0.0385699
-0.0673386
-0.000439778
0.137584
-0.108022
0.071011
0.140212
0.0142574
-0.177219
-0.253291
0.114212
0.0266256
0.162468
0.3745
-0.156704
0.0788569
0.0245455
0.0321885
-0.113533
0.00371594
-0.0843196
-0.0076805
-0.049664
0.0529178
-0.0192025
-0.115325
0.13862
0.0917525
0.156466
-0.241625
-0.00939758
-0.00171996
0.141967
0.407836
0.10383
0.0681802
-0.241635
0.0634261
-0.0296201
-0.187694
-0.00551372
0.107763
-0.0511128
0.113027
0.135488
0.0837652
-0.232195
0.115497
-0.56999
-0.0601846
-0.166269
-0.198085
0.0756518
0.0787369
-0.223643
0.313757
0.00370361
0.0251487
0.0814826
0.0491354
-0.14577
0.0947841
-0.146943
-4.633e-05
-0.391803
0.156215
-0.168762
-0.0418192
-0.107867
0.2237
-0.155106
0.00955006
-0.374189
0.23411
-0.193887
0.15636
0.0554626
0.0853366
0.139128
0.0870995
0.0389263
0.0747996
0.150887
-0.135065
0.206212
0.224793
-0.171791
0.173401
-0.416553
-0.0497529
0.218016
-0.212008
-0.133585
0.231985
-0.132413
0.0952436
-0.00209335
0.0237859
0.116357
-0.258995
-0.205995
-0.0629422
0.0900407
0.0598215
0.00596871
0.0690119
0.0595927
0.0144522
-0.186459
0.00774611
0.20141
-0.0310812
0.100424
-0.116152
0.195987
-0.357137
-0.0930576
0.0310693
-0.0369323
0.0831488
-0.249625
0.197761
-0.262089
0.0224783
0.116606
-0.0477771
0.162914
-0.106814
-0.0853878
-0.226335
-0.160866
-0.159982
0.0455538
0.183722
0.112643
-0.11957
0.104897
0.190869
-0.125018
-0.12893
0.0868531
-0.202495
0.127038
0.0619992
-0.144275
-0.0435159
-0.12573
0.0974014
-0.0463536
-0.0226112
-0.00790417
0.0357605
-0.0508671
0.021235
-0.0986859
-0.0694348
0.182415
0.173643
0.048697
-0.153474
0.138791
-0.00495918
-0.113232
-0.0846364
0.119297
-0.00584084
0.0808976
-0.016077
0.271207
-0.243426
-0.227305
0.127508
-0.0306214
0.0527491
-0.0518755
0.362471
-0.10699
0.116663
-0.123063
0.228522
0.031697
0.00478117
0.387364
0.102375
0.171486
0.301225
0.165053
0.204638
-0.0463137
-0.0216106
0.116777
-0.118295
-0.114265
-0.140459
0.116107
-0.255349
0.265996
-0.152223
0.16064
0.170278
0.244266
0.0825092
-0.204863
0.0903034
-0.218375
-0.00984322
0.117127
-0.0801883
-0.016895
0.198956
-0.100695
0.0554607
0.047905
-0.213546
-0.154554
0.0273911
0.0735737
0.0191176
-0.0558084
0.0348093
-0.342016
0.104577
-0.147873
0.0926464
0.295466
0.0407653
-0.117653
-0.210485
0.0979792
0.0258364
-0.129702
-0.083848
0.244229
-0.147827
0.240307
0.108904
0.120213
0.00122438
0.239276
-0.0820525
-0.127085
0.0767885
0.304007
-0.069832
0.102086
0.084832
0.175336
-0.259978
-0.0799515
0.11544
-0.00850563
0.160368
-0.236223
0.0274001
-0.0545197
0.315323
0.039187
-0.027068
-0.227651
-0.0727066
-0.11797
-0.103805
0.115436
0.139153
-0.161742
0.0886359
-0.13762
0.0742978
0.191861
-0.0159741
-0.376781
-0.0267291
-0.195582
-0.0311733
0.0292999
-0.0585994
-0.282987
0.181842
0.122119
-0.243713
-0.302267
-0.00341891
0.153834
-0.113798
0.268909
0.118545
0.0757095
0.0516144
-0.0726288
0.0116319
-0.00812852
0.100374
0.0305053
0.206584
-0.0876327
0.138293
-0.0734344
0.171174
0.0738997
-0.0132719
0.0566242
-0.000121158
-0.149523
0.148331
-0.056302
-0.0626511
0.262306
-0.0218563
-0.0977693
0.155494
0.0389805
0.0608364
0.00273555
-0.1044
0.177831
-0.0351802
-0.0928944
-0.195222
0.00505403
-0.12375
-0.000673857
0.20366
0.0789256
0.285925
0.00236315
-0.0908235
0.0199726
0.00613545
0.412161
-0.039553
0.288332
-0.169777
-0.0845817
-0.197115
0.0848628
-0.168589
0.189761
0.115347
-0.072661
-0.220835
0.241944
0.0922651
-0.0142138
0.134975
-0.0415114
-0.228532
-0.0655709
-0.233725
0.0537766
-0.0734119
-0.00309183
0.263334
0.122634
-0.212967
0.0704072
0.016706
0.188427
0.0652033
-0.116709
-0.0362235
-0.0862342
-0.0776168
-0.0776523
-0.266896
0.313794
0.202662
-0.221416
-0.153754
-0.00303317
0.0515741
0.0506668
-0.211285
-0.0958237
-0.193921
-0.0612556
0.0232105
0.0525058
0.426552
0.054321
-0.072718
-0.143115
0.178362
0.0103943
0.131479
0.0725771
0.0945683
-0.0626543
0.203867
-0.0320812
-0.0330691
0.182643
0.568037
-0.0424865
-0.199938
-0.0804158
0.178149
0.267463
-0.105412
-0.108378
0.0114293
0.0497604
-0.0791385
-0.0083949
0.036626
-0.034293
-0.0734344
0.0538842
-0.124216
-0.119204
0.0426649
0.00716886
0.0170224
0.123245
-0.274945
-0.0236385
-0.132278
0.172282
0.228528
-0.206487
0.11921
0.0790529
0.156107
-0.0326368
-0.100317
0.178797
0.13416
-0.24607
-0.0418637
0.0186042
0.128458
-0.302692
0.11861
0.172766
0.0105487
0.355561
-0.0193745
0.184234
-0.0827924
0.189386
-0.0379603
0.102465
0.030238
-0.208802
0.0519949
-0.0448167
-0.0120057
0.263113
-0.0647702
-0.0121967
0.266244
-0.0960646
-0.0762908
-0.181652
-0.274113
0.0602186
-0.0171156
-0.185738
-0.2278
-0.0934353
-0.158843
-0.034142
0.00321292
-0.0783411
0.00818975
0.394307
0.171235
0.161143
0.15862
-0.249041
0.156192
-0.0515763
-0.134743
-0.193526
0.189271
0.345141
-0.0585643
-0.169433
0.288852
0.0818012
-0.0697178
0.307606
0.0533008
0.291065
-0.113514
-0.0325392
-0.0372986
0.0362755
-0.11884
-0.0439488
0.0647447
0.179698
0.0755468
-0.0345544
0.131355
0.00489334
-0.0271616
0.156649
-0.266123
-0.204164
-0.00308736
-0.0118054
-0.140075
0.113116
0.195628
-0.107258
0.101386
-0.119372
0.0267557
-0.119565
0.222401
-0.097182
0.334453
0.111769
0.139304
-0.0785178
0.0340283
0.274188
-0.131638
0.0536102
0.0605977
-0.000722547
0.0488682
-0.0961957
0.0044426
-0.137047
0.0305667
0.108904
0.0583782
-0.148114
-0.0934145
0.146872
0.216499
-0.0852996
0.333555
0.347594
-0.212263
0.0940033
-0.0567967
-0.00225792
-0.155151
-0.0617427
0.154702
-0.0943139
-0.231099
-0.0968396
-0.0703503
-0.014795
0.154192
-0.146541
-0.121723
-0.0669163
-0.025588
0.207824
-0.220963
0.259916
-0.0757146
-0.0978088
-0.123908
-0.0518641
-0.253013
0.248981
0.0162311
0.235372
0.13627
0.349787
0.00450519
-0.0938394
-0.0613609
0.251156
-0.295758
0.15681
-0.056623
-0.120608
-0.211394
-0.0335468
0.109591
-0.132175
-0.190862
-0.00598148
0.093124
0.333349
-0.293603
0.0657647
0.127912
-0.0938828
-0.0184194
0.195678
-0.096845
0.222043
0.185811
-0.223587
0.101811
-0.0913664
0.080716
0.0297059
0.130961
-0.112732
0.243065
0.328867
-0.0646055
0.00760805
-0.0562427
0.0514303
0.165213
0.207094
0.00920802
0.0329605
-0.092991
-0.180148
-0.0472387
-0.0188546
-0.017897
0.358417
-0.035537
0.0536779
0.241166
-0.0058123
0.167035
0.0744207
-0.135917
-0.0162139
0.0197962
-0.0903642
-0.331899
0.025834
-0.0688514
0.0576635
0.163821
-0.110048
0.151973
0.143981
-0.160557
0.142409
-0.0608683
0.454573
-0.152369
0.142171
-0.172373
0.0868506
-0.198228
0.1959
-0.138005
-0.136303
-0.109588
0.0364959
0.0122296
-0.144457
-0.159178
-0.210492
0.0691013
0.358109
-0.0192516
0.150385
0.0743914
-0.0116528
-0.10573
0.08047
-0.00526762
0.201641
0.073683
0.167543
0.189386
0.0699866
-0.00216161
-0.124552
-0.00320711
-0.164053
0.0575262
0.0982411
-0.260455
-0.139135
0.0612554
-0.106369
-0.425353
0.064938
-0.0497325
0.229481
0.109205
-0.015603
0.0762073
-0.0282746
0.182873
-0.0804691
0.197939
-0.271406
0.0123737
-0.264004
-0.0184631
-0.183901
0.275633
-0.176149
-0.198672
-0.128915
-0.207247
0.051322
0.0734533
0.00589155
0.454476
-0.02251
0.178211
0.0735919
-0.0943954
0.122044
0.103046
0.145605
0.316369
-0.142492
0.0418439
-0.00615421
-0.0539646
-0.0654491
0.0278775
0.145111
-0.0443077
0.120865
0.178195
0.142913
0.114403
-0.0580526
-0.121534
-0.000611773
0.15118
0.168185
-0.37932
-0.000304372
-0.213242
-0.0230373
-0.0746633
-0.29876
0.215695
-0.203088
-0.0986961
0.026119
0.000693901
0.0634065
0.210833
-0.309599
-0.0334755
0.275183
-0.0369902
-0.1081
0.0714836
0.0660897
-0.171587
-0.0211726
-0.12345
0.0609923
0.0892146
-0.221611
0.266649
0.21199
-0.112889
0.154156
0.0839971
-0.001517
0.308935
0.180426
-0.223004
-0.207548
0.21295
0.104782
0.150121
-0.0662919
-0.0196613
-0.12379
-0.079557
-0.18445
0.243451
0.00258824
0.0293166
0.000125765
-0.0734731
0.105288
-0.389334
-0.0832453
0.0254165
-0.120043
0.326607
-0.0947132
0.130084
0.111628
0.107284
-0.0137651
0.277811
-0.110168
-0.0110413
0.0438084
-0.0396912
0.212522
0.132515
0.208189
-0.128109
-0.232625
0.00198618
0.0766309
-0.079326
-0.136905
-0.0244741
0.122897
-0.0231155
-0.0900839
0.0136173
-0.11365
-0.171948
0.0264687
-0.0341157
0.347916
-0.00894192
-0.0886957
0.167372
0.193839
0.14381
-0.0520697
-0.140272
0.0491637
-0.00088044
0.144558
-0.0669099
0.17244
0.18628
0.071147
0.0723871
-0.0960179
-0.250713
-0.0255187
-0.0837231
-0.0427647
0.264367
0.12319
0.195973
0.123849
-0.227482
0.119345
-0.15985
0.0165838
0.109383
-0.111813
0.0430641
-0.142395
-0.0989089
0.114701
0.0677812
-0.167043
0.141399
0.0843835
-0.25084
-0.0331134
-0.335389
0.0383475
0.138095
0.0146897
-0.12817
0.19986
-0.226393
0.105571
-0.0776264
0.468948
0.00260437
0.104632
0.0948432
-0.0824342
-0.22209
-0.143847
0.295062
0.0861407
0.0851623
-0.157929
-0.131191
0.0634032
-0.195316
-0.182959
0.10147
0.0277654
-0.0457221
-0.028555
0.00670041
0.200813
-0.0406212
-0.0378058
0.0633626
-0.0912767
-0.1399
-0.106377
0.247266
-0.296313
0.203819
-0.0454604
0.0712736
-0.186181
-0.153752
0.213415
0.376228
-0.0713705
-0.295688
0.182268
-0.0365416
-0.049714
-0.00130262
-0.15627
-0.151003
0.138126
-0.0921208
-0.0755886
0.153328
-0.0520361
0.146098
0.224706
-0.267982
0.0273993
-0.148997
0.180159
-0.163199
-0.0119966
0.145636
0.2489
-0.192279
-0.0951758
-0.23988
0.298328
0.260414
-0.0165567
0.0555777
0.0288011
-0.456093
-0.35492
0.13545
0.0291693
0.0599649
-0.0502623
0.0844156
-0.0212923
-0.088302
0.266395
-0.17276
-0.153359
0.135675
0.0560886
0.162768
0.261399
0.0447729
-0.0883334
-0.0292069
0.0806522
0.183949
-0.192204
0.0720947
-0.300849
-0.401743
-0.208961
-0.165183
0.136716
-0.0348192
0.250979
-0.256071
0.0447639
-0.153565
-0.0232148
0.0636183
-0.0487788
0.0586067
-0.054565
0.174831
-0.184534
0.0769909
0.220025
-0.0108015
0.195563
0.243038
0.323904
0.113848
0.172695
-0.0902755
-0.0700848
0.203908
0.258666
-0.0257946
0.0627266
0.0249866
0.100994
0.042853
0.168966
-0.127197
-0.085463
-0.00682027
0.123606
-0.0214822
-0.014344
0.0529361
0.0338976
-0.117879
-0.179745
-0.0182747
-0.171754
0.200326
-0.218753
-0.247584
-0.127456
0.207264
0.314725
0.106106
-0.0824625
-0.00185896
-0.112945
0.16751
-0.273674
0.190282
-0.0659373
-0.118245
-0.234293
0.157851
-0.0490214
0.385282
0.20206
-0.0159934
0.255411
0.130107
0.0659298
-0.120314
0.174783
-0.0710993
0.0878377
0.0434727
-0.162218
-0.564798
-0.00260938
-0.0846629
-0.107745
-0.0733268
-0.0310498
0.032213
0.151216
-0.38873
0.126295
0.117969
-0.0304768
0.0214439
0.274958
-0.101006
0.165858
0.252571
-0.0750033
0.115979
0.087344
-0.183452
-0.0366685
0.0508033
-0.0778344
-0.264269
-0.253717
-0.162121
0.199224
-0.0557008
0.0400177
0.0702942
0.0484881
0.123943
-0.111819
-0.0643111
0.0199861
0.0558578
-0.0566719
-0.11458
0.0365302
-0.229562
0.238805
-0.0115097
-0.137984
-0.297517
-0.0397843
0.0171205
-0.205918
0.180008
-0.185837
0.212481
-0.192155
0.0742815
0.133376
-0.0778301
0.125046
0.0943002
-0.0877903
-0.0102125
0.137381
-0.475208
0.148358
-0.039881
-0.0163539
-0.0149341
-0.0787945
-0.00640449
-0.166539
-0.0394702
0.0369526
0.210612
0.101715
0.0935387
0.261582
-0.0745932
-0.197233
-0.149342
0.130343
0.119034
0.0976944
0.174028
0.0782531
-0.0819242
0.115241
-0.187989
-0.0346865
-0.111946
-0.00157266
0.0874394
0.0868356
-0.0667064
0.0843453
-0.0194305
0.139021
0.0119604
0.092251
-0.162757
0.266105
-0.141259
0.191334
-0.309348
0.0959652
-0.139061
0.167135
0.0731177
-0.0105164
0.0143867
0.00337069
-0.112269
0.0161219
0.19056
0.363963
-0.0546775
-0.184505
0.18207
0.194518
-0.227245
-0.0894621
-0.142555
-0.0759473
-0.0132366
-0.351883
-0.105655
0.12495
0.0818363
-0.0724614
-0.121126
0.0691098
-0.335248
0.0450199
-0.195225
0.0922736
-0.306831
-0.0711731
0.140849
0.0430012
-0.0238743
0.0438998
0.0327394
-0.0707066
0.176613
0.360103
-0.0427144
0.0364698
0.349504
0.0585471
-0.0303314
-0.272017
0.174769
-0.0926886
-0.110432
0.0418294
-0.0155214
0.0364048
-0.0849801
0.0340637
0.00956427
-0.105846
-0.227628
0.00600375
-0.0375773
-0.263945
-0.0655671
0.0570821
0.262073
-0.0239069
0.161705
0.195835
-0.0413104
-0.123214
0.114129
-0.362365
-0.121714
0.229168
-0.337235
0.125538
-0.136312
-0.121741
-0.0271544
0.0678965
0.0413375
0.183704
-0.13523
-0.121935
-0.0549884
-0.120701
-0.00589464
-0.131338
0.0111231
-0.179327
0.122212
-0.303561
-0.18269
-0.223298
0.232607
0.00952047
-0.0960381
-0.153097
-0.0636192
-0.0712144
0.00216641
-0.277753
-0.220976
-0.166106
0.0997534
0.0399872
-0.219958
-0.0810732
-0.148719
0.248888
-0.0555875
0.139276
-0.0128325
-0.00118669
-0.161425
-0.0360371
-0.266749
0.24222
-0.108801
0.116227
-0.0297752
0.150252
0.1161
0.447189
0.132938
0.0417603
-0.0754026
0.198795
-0.10804
0.189392
0.0664506
0.182725
0.15048
0.313683
-0.0645444
0.234005
-0.111479
-0.0998509
0.102892
-0.154023
0.0726553
0.16339
0.0424766
-0.263305
-0.131222
0.608477
-0.0208443
-0.307345
-0.224051
-0.311579
-0.236733
-0.113303
0.0346794
-0.102588
-0.135871
0.122215
0.0229481
-0.305421
-0.201527
0.15763
-0.243211
0.069427
0.0614527
-0.0370976
0.189936
0.0308477
-0.0961656
0.253908
-0.113604
0.130223
0.169678
-0.0534217
0.0638366
0.0732416
0.0402581
0.217436
0.0491137
-0.238713
-0.227654
0.0800771
-0.206851
-0.0246662
-0.227841
0.0138427
0.0458381
-0.158808
0.0527573
-0.0877947
-0.155205
-0.025731
0.0538696
0.0550044
-0.332264
-0.206203
0.152222
-0.257549
-0.109743
-0.185674
-0.259271
-0.0400611
0.376527
-0.139189
-0.100561
-0.109546
0.0186682
-0.10028
0.137996
-0.104834
0.169472
0.0436081
0.0287803
0.158203
0.185965
0.127788
0.0416827
-0.147237
-0.0430425
0.314294
-0.237472
0.109361
-0.390695
-0.601133
-0.114619
-0.148302
-0.00483452
-0.232161
0.158502
0.128684
0.041106
0.16679
0.13967
0.104088
0.331964
0.204649
0.0125361
-0.077985
-0.129702
-0.112965
0.0702823
-0.325843
-0.00442844
0.209959
-0.116204
-0.269415
-0.16962
0.169932
-0.189405
0.354899
-0.0242221
0.128512
-0.0811805
0.151869
-0.111272
-0.155183
0.0624006
-0.0925242
-0.348436
0.1341
0.0626435
0.103149
-0.0567805
0.114112
-0.0438158
0.117551
-0.0441663
0.172487
-0.206824
-0.0566013
0.296722
0.0908093
-0.233589
0.0919176
0.0152334
-0.178226
0.0281367
-0.328935
0.0733178
-0.0338288
-0.158642
0.0390846
0.0818175
0.271097
0.0807088
0.0558931
-0.0633333
-0.0279471
0.104012
0.0260892
-0.0211981
-0.301253
0.254428
-0.0125304
0.0334322
0.201013
0.155856
-0.00710846
0.0366493
-0.127155
0.24064
-0.118354
0.0741089
0.0362042
0.0392822
0.0575355
-0.133068
-0.0371632
-0.123634
-0.02135
0.0585995
-0.107202
0.194361
-0.0467506
-0.18043
-0.069387
-0.0278335
0.252103
0.0658441
0.0584769
-0.238315
-0.13964
0.130615
0.0526925
0.0675862
0.234578
0.0580668
-0.0143587
0.15519
0.0932198
0.0625445
-0.327067
-0.0180494
0.35694
0.292323
0.0846116
0.15363
-0.0145504
0.0960727
0.0371762
0.0582365
0.0122546
0.133866
0.0762564
-0.0464557
-0.281648
0.0468578
0.256959
-0.098919
-0.446603
-0.0588817
-0.0812148
-0.0642126
0.0704084
-0.0878477
0.176369
-0.0303781
-0.1271
0.179108
-0.0155069
0.0452631
-0.145892
-0.332848
0.00327418
-0.0496865
-0.0692585
-0.0314248
-0.0587002
-0.15063
-0.112768
0.0791423
-0.241225
0.118695
-0.372873
-0.0262118
0.204676
0.0631939
-0.0260762
-0.0603119
0.0163787
-0.0550962
-0.00231488
-0.0660121
-0.1934
-0.0632548
-0.0798639
-0.0901689
0.037816
-0.0988135
0.0810974
0.025006
-0.0389899
0.0236385
0.287451
0.216407
-0.114438
0.146539
0.0103934
-0.129988
-0.029983
-0.0229547
-0.0917988
0.0913408
0.0369109
0.28032
0.172056
-0.0236488
0.0958857
-0.102504
-0.138932
-0.00415036
-0.0155792
-0.104979
0.0284142
-0.239393
-0.134554
0.0669735
-0.169818
-0.217588
-0.108373
-0.0578324
-0.0497082
-0.12344
-0.00255836
-0.114521
-0.0772535
0.217296
0.0239418
-0.218706
0.0554098
-0.0893148
0.0404564
-0.144507
0.127625
0.3138
-0.00425369
-0.0206138
0.0522489
-0.196302
0.119377
0.109235
-0.0955663
-0.0314243
0.213109
-0.033036
0.0659108
-0.0690989
0.074065
0.166617
-0.0129525
-0.0278789
-0.13622
-0.23697
-0.0278815
0.0213534
-0.0214606
0.347835
0.181837
0.0636908
-0.160911
0.00469861
0.0877264
-0.0161605
0.145213
-0.0713677
-0.0637758
0.222987
-0.18703
0.149252
0.220637
0.141951
0.152365
0.19273
0.139756
-0.104274
0.110485
0.31658
-0.108831
0.390876
0.0505143
-0.175787
-0.206982
-0.342403
0.318388
0.189422
0.221815
0.042331
0.126338
-0.141874
-0.0931768
0.0109528
0.141863
-0.0985993
-0.0576723
-0.138413
0.276964
-0.0885929
0.126634
-0.197808
0.0741144
0.230747
0.128213
-0.247044
0.0869135
0.179538
-0.0422889
0.0130241
0.0514777
-0.276684
0.182584
0.16622
0.210122
0.103892
0.135059
-0.0431069
-0.0700755
0.0130604
0.187424
-0.142771
-0.132027
-0.0606754
-0.10919
0.00943427
-0.206706
0.0732922
0.0472954
0.0761819
-0.12462
-0.0928757
0.0636347
0.123144
0.150639
0.0533586
0.0948646
-0.153194
0.253392
0.00923908
0.00618957
-0.0751719
0.106388
0.0658841
-0.0866865
0.0275788
0.150527
-0.114089
-0.121279
0.00256756
0.127285
-0.0492423
0.0219209
-0.145177
-0.00648572
-0.199742
0.180664
0.158019
0.351651
-0.138323
-0.212508
-0.0141206
0.0106755
0.212555
0.142656
0.213936
-0.288707
-0.0699479
0.0550034
-0.139293
0.106565
0.0603126
0.114436
0.0627471
0.178683
0.0515082
-0.0184335
-0.0411256
-0.241337
0.0774926
-0.0321366
-0.139964
-0.146546
-0.0578064
-0.0249478
-0.0640171
-0.11284
0.191999
-0.0916097
-0.0240002
-0.0369302
-0.195116
0.0743578
0.0336389
0.0460656
0.0913929
-0.179119
-0.202243
-0.0709338
0.134715
-0.138813
0.326966
-0.0569109
0.172546
0.219885
-0.310166
0.458136
