5
12.4332
5.86455
-0.443977
-0.484014
-1.17622
8.23784
5.53629
-0.664864
-1.93284
-2.01448
-3.02925
-1.8208
-1.82524
-0.514422
1.44941
-3.8379
-0.450626
1.36368
2.97223
0.726578
-2.56783
0.714813
2.06547
0.398404
-5.08488
7200
-0.0447703
0.0119739
0.213735
-0.0935052
0.00443813
0.175188
0.238442
0.0364524
0.0146755
0.0791329
0.129831
-0.343443
-0.108061
0.0828732
-0.0759794
0.108046
0.098834
-0.0457335
0.0354309
0.357441
-0.258577
-0.0231649
-0.304317
-0.080056
-0.0494039
0.179521
-0.0804882
0.186267
0.0153639
0.213459
-0.01081
0.234408
-0.0289956
-0.112953
0.305595
-0.0659103
-0.0419502
-0.123949
-0.157466
-0.109643
-0.0167576
-0.227932
0.0835646
-0.15113
0.075453
0.0391767
0.304878
-0.161334
-0.321513
0.022133
0.0535582
0.0584365
0.31398
0.0260833
0.0720314
-0.0130029
-0.356665
0.0441404
0.168678
-0.183873
0.151221
0.283929
-0.0161703
0.301175
0.185063
0.0415255
0.0424987
-0.0286172
-0.36516
0.107685
-0.0109271
-0.151584
0.0506926
0.0339839
-0.0115931
-0.265136
0.0474267
0.118353
0.0433729
0.0571125
0.0875626
-0.10736
0.1173
-0.0567095
-0.107314
0.191951
-0.0043353
0.0340623
0.0788988
-0.0455595
0.198305
-0.202883
0.382618
-0.0960952
-0.0961999
-0.201228
-0.0278538
-0.288196
0.0830767
-0.0849499
0.255005
0.015731
-0.10044
0.112046
0.150743
-0.0381884
-0.058205
0.194019
-0.130906
0.0785098
0.0495771
-0.0143444
0.0693333
0.00583795
-0.0416716
0.10725
-0.0579678
0.107197
-0.141271
-0.18781
-0.292446
-0.186707
0.0961628
0.0273426
-0.0481062
0.0165656
-0.0804246
0.0612477
-0.123041
0.311468
-0.0307971
-0.212208
-0.184406
-0.0858627
0.165833
-0.0707459
-0.237102
-0.0873104
0.21689
0.31177
-0.0395265
-0.0495791
0.152078
0.0820673
0.0549824
0.0275428
-0.344182
0.202453
-0.0439349
-0.151324
0.0518211
-0.111697
-0.0148952
0.176639
0.258491
0.187229
-0.0708835
0.198877
-0.0130163
-0.0329411
0.0754759
-0.0283804
0.0859524
-0.308971
-0.15607
0.00740881
0.00579998
-0.600593
0.270208
-0.228618
0.0940418
0.0600637
0.0102846
0.14314
0.0529874
-0.0271771
0.10418
-0.242022
0.000287022
0.122621
-0.137902
-0.444811
-0.269406
-0.227556
-0.136566
0.0927549
-0.248149
-0.0465902
0.0211788
0.210636
-0.0516684
-0.0610824
-0.0384877
0.0680719
0.00101666
0.0138675
0.139607
0.0536327
0.0489234
-0.118737
-0.0224392
0.205606
0.405936
0.0531569
0.0182539
0.225586
0.0618985
0.116963
0.0389385
0.161897
0.0161325
-0.0558076
-0.0975284
0.0961482
0.038313
0.220077
0.0135702
-0.837414
0.09719
-0.0980225
0.0311768
0.0333881
0.130056
-0.0814189
0.174264
0.0212517
-0.0106156
-0.0372111
0.0336181
0.0927565
-0.0560478
-0.272387
0.0513755
-0.0978301
0.0827532
0.115257
-0.0243547
0.0780411
-0.359301
0.435999
-0.0127098
0.0151111
-0.00627057
-0.0805278
-0.0546609
-0.061754
-0.0852701
0.0369513
-0.0480884
0.30335
0.0969129
0.433741
0.00714997
-0.168681
0.224764
-0.0287414
-0.259834
0.179653
0.0358777
-0.0635735
0.018888
0.196785
-0.0320971
0.027047
-0.112686
0.129302
0.0665802
-0.792747
-0.18975
0.073
-0.156058
0.0301957
-0.0819884
0.0430394
-0.0143218
0.0106102
-0.23314
-0.026288
-0.111508
0.0886412
0.14247
-0.323276
-0.0905861
0.0497128
0.246501
-0.121301
0.258224
-0.13862
-0.225728
0.587575
0.126518
-0.140854
0.0922497
0.0202526
-0.201217
0.0836852
-0.300275
0.0506136
0.19606
0.251967
-0.0220006
0.150163
0.169809
0.228563
0.142007
-0.172307
0.0358349
0.164782
0.2525
-0.213033
0.0842437
-0.114145
0.0325637
-0.092942
0.0500572
-0.220667
-0.0706752
-0.680917
0.03914
0.150684
-0.48483
0.0787482
0.113853
0.0778124
-0.115963
-0.0480376
-0.0158213
-0.000420973
-0.0723411
0.102762
-0.19014
-0.403052
-0.0531562
0.0164954
0.0575558
-0.78106
-0.168161
-0.191377
-0.161505
-0.101004
-0.029446
0.111571
-0.023236
-0.10342
0.0975066
0.166727
0.0467478
-0.115215
0.62162
0.091932
0.107686
0.126876
-0.279334
0.283909
0.0686417
-0.0716455
0.041019
0.0457381
-0.0683875
0.0222928
-0.0760742
-0.0323533
0.0778161
0.0567736
0.10764
-0.261224
0.0766715
-0.144803
0.00782365
-0.169346
-0.455458
0.0500017
-0.0333823
0.0462238
0.194134
0.0996848
0.135198
-0.0901944
-0.154198
-0.0887551
0.251939
-0.503802
-0.0181804
-0.128308
0.137186
-0.410919
0.234349
-0.0869734
-0.0430589
-0.120328
0.157797
-0.109183
0.0911884
-0.00426048
0.0325411
-0.0148742
-0.0297146
-0.0037424
0.816964
0.281624
0.0286444
0.184209
0.124143
0.244953
-0.053221
0.282856
-0.0342135
-0.194584
-0.133361
0.0994324
-0.072305
-0.0171161
0.0629438
-0.182452
0.0788393
0.0940831
0.0798046
0.199169
-0.129809
-0.299717
-0.582926
0.0927358
-0.0659579
-0.0874399
0.0175858
-0.11316
0.182642
0.121696
-0.0516718
-0.00297023
0.200369
-0.0900206
0.038401
-0.148224
0.39717
-0.133707
0.161689
0.0579905
-0.184158
-0.020923
-0.079213
-0.11884
0.208097
0.0785347
0.204309
0.0520359
-0.191986
-0.0461622
1.08106
0.254664
-0.103689
-0.0376134
0.0588547
0.282376
-0.102524
-0.170417
-0.156877
-0.227323
-0.012205
-0.038378
-0.0749532
0.0542708
0.116327
0.207561
-0.143294
0.00415711
-0.0526772
0.65286
-0.0981279
-0.0716178
-0.0231011
0.0854954
0.0361396
-0.00845052
-0.00423647
0.101327
0.0373672
-0.0454537
-0.0331229
-0.133617
0.181729
0.157922
0.0547676
0.0535463
0.155936
0.13738
0.338633
-0.0512006
0.0227487
-0.106759
0.131461
-0.100954
-0.0961799
0.089671
0.00904859
-0.0442903
-0.0786368
-0.180629
0.605955
0.417698
0.0154999
0.109272
0.15833
-0.000944417
0.233358
-0.0307583
0.025014
-0.003148
-0.0539175
0.119418
0.0763208
0.150647
0.0160402
0.403972
-0.0764701
-0.144814
-0.15063
0.575121
-0.0506122
-0.221975
0.160438
0.0644859
0.0180759
-0.0362304
0.037725
0.208738
0.118268
0.0893864
-0.0193877
-0.0670629
-0.0228955
0.108534
-0.0243576
-0.062836
0.110545
-0.13613
0.376838
0.0283246
-0.070907
0.105013
-0.154485
-0.303548
0.0778991
0.197088
0.0296931
-0.0199141
-0.150073
-0.0522573
0.576972
-0.0571356
0.0137622
-0.316928
0.124791
0.237577
0.244914
-0.240641
0.0639441
-0.00983774
0.151015
-0.0138145
-0.111587
0.24767
-0.142689
0.0834234
0.0223639
-0.0211471
-0.0949858
0.541683
0.0925077
0.128938
0.347657
-0.164343
-0.272499
-0.0842166
0.0746732
-0.0109955
-0.108569
0.279495
0.126665
-0.249435
-0.10128
-0.433802
-0.0483921
0.0298805
-0.0725879
0.330991
-0.0143382
-0.0339605
-0.171475
-0.201514
-0.0178426
-0.0657751
0.0490595
-0.103772
-0.180508
-0.107672
0.10252
0.115998
0.174507
-0.12945
-0.0264503
0.110948
0.0351252
-0.000594234
-0.0603441
0.2351
0.0297766
-0.0269478
-0.103349
0.0743049
0.0731066
0.168601
0.125988
0.0799899
0.240954
-0.080429
-0.0103368
-0.0115258
0.0572295
0.123866
0.022396
0.209119
-0.00337703
-0.057969
0.0290659
0.240745
0.173587
0.200216
-0.0560973
-0.122916
0.156829
-0.0590019
0.0472721
-0.0394453
-0.0117512
0.0792143
-0.240424
-0.0246923
-0.208182
0.0966412
-0.272619
0.20582
0.0956917
0.0302512
0.0259646
-0.244072
-0.0627046
0.0713783
0.225622
0.0754217
-0.119371
-0.0296575
-0.05277
0.0473747
-0.140396
0.0683341
-0.0273423
0.189885
0.141598
0.0197181
0.0358622
0.200117
-0.184197
0.309515
0.0216354
-0.0147169
0.0116778
-0.0867253
0.170997
-0.206302
-0.236794
-0.207285
-0.0324872
0.126719
-0.00528045
0.0917301
-0.0273591
-0.109966
-0.0977749
-0.0399964
0.0424786
0.0806163
-0.354662
-0.0926375
0.0104176
0.00866157
-0.249184
0.00510905
-0.222284
0.147632
-0.22738
0.00453384
0.00416402
0.0426505
0.0149219
-0.0845304
-0.0485675
0.146042
0.239731
0.104964
-0.0375188
0.0390587
0.0325215
-0.0518055
-0.277204
0.144687
-0.0803015
0.423058
0.0412576
-0.0425758
-0.00956592
0.276402
-0.134795
-0.0129256
0.0165419
0.0506617
-0.0944057
-0.320057
-0.0889755
-0.173152
-0.259096
-0.188477
-0.0208923
0.170206
0.13061
0.12907
0.105481
-0.200185
-0.0059962
-0.0437842
0.0898686
-0.41449
-0.439376
-0.16324
-0.141817
-0.207937
-0.492047
-0.096159
-0.0879966
0.0651234
0.206836
-0.0149768
0.094237
0.108073
-0.0728629
0.120134
0.0342256
-0.00889283
0.271177
0.2665
-0.00182656
-0.0961059
0.265089
0.0548751
0.0294967
-0.0376048
-0.0602006
0.196647
-0.0322337
0.056985
0.0748423
0.0698938
-0.146442
-0.0300727
-0.0127592
0.0406649
-0.0175831
-0.30151
-0.103665
0.0457095
-0.18929
-0.345126
-0.0678467
0.0860356
0.0967385
0.0173163
-0.0580253
0.0523185
-0.0590785
0.0269168
-0.0178344
-0.368781
-0.379412
-0.00734941
0.0253136
0.170226
-0.375958
-0.00577114
0.0268774
0.462967
0.187922
0.0187936
0.0312462
0.0671688
0.071742
0.120135
-0.112978
-0.0231537
0.0724186
0.664944
-0.0342526
0.152304
0.064391
0.00581269
0.0939691
0.0328879
-0.00817846
0.280247
0.0423546
-0.020546
-0.0158845
-0.115895
0.0512465
-0.262006
-0.0872724
0.01814
-0.0394984
-0.163836
-0.161976
0.0857511
-0.249467
-0.402397
-0.0691955
0.085718
-0.0945
0.0463778
0.00225064
-0.0280939
0.0571361
0.00133799
-0.0267063
-0.0166949
-0.398118
-0.0607792
-0.0520209
0.109493
-0.202571
-0.151875
0.0707085
0.431009
-0.0504279
-0.0559779
0.0554427
0.0797745
0.0238518
0.0687879
-0.0603745
-0.0627768
-0.0142854
0.45876
0.0561942
-0.00213191
-0.0613215
0.225332
-0.0256588
0.166147
0.094558
0.15668
0.0013866
0.0492435
-0.0315617
0.109596
0.0352328
-0.0356039
0.0380035
0.108077
-0.021323
-0.261574
-0.226058
-0.0230671
-0.489685
-0.245145
-0.104456
0.0499522
-0.0679396
-0.112153
0.0256391
-0.0813956
-0.0458088
0.011156
-0.0114969
-0.37057
-0.283902
0.0981483
0.14721
-0.0240994
0.229618
0.0555723
-0.221988
0.137777
-0.15703
-0.260012
-0.0820531
0.13424
-0.0698639
-0.197901
-0.199226
-0.187456
-0.0803107
0.321117
-0.0363126
0.0153544
-0.0623773
0.16079
0.0060579
-0.116176
-0.0126017
0.183869
-0.0249635
-0.0134101
-0.022289
-0.042396
-0.0268858
0.0319653
-0.026635
0.0383927
-0.0131949
-0.636703
-0.18145
-0.0362542
-0.340325
-0.188419
-0.139494
0.0822707
0.0127503
0.0985558
0.0135344
-0.0936184
-0.0158518
0.0681331
-0.0157261
-0.577087
-0.231259
-0.0854758
0.0544682
-0.373552
-0.00682604
-0.0179996
0.00922438
0.217733
-0.0158001
-0.16274
-0.0313531
0.170589
0.006781
0.0824019
-0.145395
-0.0780401
0.258613
0.231156
0.113713
0.123579
0.0253215
0.0972657
0.0106055
-0.0284383
-0.040765
0.0673053
-0.0755915
0.0162168
-0.125422
-0.0888906
-0.0149658
-0.0830138
0.00243251
0.00791883
0.075918
-0.282419
-0.135454
-0.0590951
-0.146713
-0.170997
-0.105689
-0.0397974
9.50056e-05
-0.0247845
-0.0112219
-0.0494552
-0.00340605
-0.0648416
0.035766
-0.461859
-0.115104
-0.0248327
0.221909
0.0111821
0.283645
0.00152831
-0.0651067
0.327807
0.0782091
0.12068
-0.00213727
-0.0147061
0.0230479
-0.018243
-0.0598099
0.00891484
0.414371
0.760289
-0.00325894
0.172058
-0.0898962
-0.117571
-0.0297844
-0.0501623
-0.0415339
-0.0588589
0.00502198
0.0521107
-0.271309
-0.0226012
0.0427465
-0.068115
-0.0986873
-0.174213
0.0139955
0.123346
0.0703843
-0.231982
-0.310363
0.0142584
-0.0353452
-0.0772927
0.017724
0.0135652
-0.0157258
-0.0434723
-0.0919793
-0.0311411
0.0180948
-0.16842
-0.0578498
-0.0900131
0.244948
-0.0846445
0.218272
0.0464488
-0.0738751
0.0798444
0.155114
-0.345891
0.0419873
-0.0079056
0.00322785
0.0604472
-0.0621519
-0.271607
0.593371
0.375751
0.0399798
0.0436016
0.114716
0.00728032
0.0551743
-0.0827363
0.071078
0.148839
-0.0690202
-0.0222579
-0.10704
-0.0449618
0.0332989
0.0222266
-0.273302
-0.0921503
-0.084436
0.154599
0.0433144
-0.217718
-0.278938
0.0296544
0.00790509
-0.105423
0.0136075
-0.00963499
0.0147953
0.126843
0.0224463
0.0257209
0.0849729
0.11327
-0.116427
-0.0825414
0.132726
-0.118016
0.261529
0.105946
0.0112169
0.108219
-0.0070722
-0.262252
0.0533083
0.124345
0.07903
-0.0278396
-0.0968352
-0.233298
0.454209
0.530153
-0.0647714
0.00728973
0.0183361
0.0430278
-0.0780189
0.00518845
-0.0768738
0.123632
-0.00177017
0.0921366
0.185265
0.116572
0.229913
0.434588
-0.327914
-0.033201
-0.00722527
0.211009
-0.0166895
-0.301396
-0.469184
0.0439988
-0.157547
-0.043723
0.0276401
0.0279063
0.0804547
0.101689
0.0860472
-0.0345221
0.0263648
0.330392
-0.249165
0.106098
0.0640264
-0.324754
0.183423
0.0781441
0.0378817
-0.210521
0.00247219
-0.141864
0.144657
0.430677
-0.0156387
-0.0817667
0.034775
0.0295017
0.273538
0.506868
0.00710863
-0.67667
-0.0629732
0.408885
-0.0196468
0.144754
0.0513346
0.181124
0.0455181
-0.0576396
0.119318
0.183666
-0.10374
-0.516691
-0.0619659
0.117844
0.114945
0.132573
-0.00428461
-0.146414
-0.104261
0.0164429
-0.141553
0.0390996
-0.0784026
0.0895963
0.11528
0.151748
0.11692
-0.198512
0.0895528
-0.981399
-0.237521
0.00814348
0.0840939
0.540645
0.0483079
-0.100093
0.0320605
-0.134911
0.00935299
-0.21056
-0.020783
0.340997
-0.142073
0.133626
-0.151023
0.112681
0.599285
-0.221783
-0.104234
0.104828
0.0515821
0.151289
0.0575357
-0.0752934
-0.359938
0.0733199
0.157857
0.278723
0.0220955
0.0449427
-0.0466042
0.111784
-0.130746
0.108904
0.052198
-0.145371
0.255414
0.0733872
0.15326
0.018139
-0.0356049
-0.0467146
-0.0527512
0.115673
-0.0718227
-0.0612862
0.0614194
-0.0239902
0.193824
-0.174393
0.241324
0.0239138
0.0226689
0.00499141
0.0576944
0.0579767
-0.0221564
-0.18249
0.298425
0.0816891
-0.0272536
-0.0777629
0.126143
-0.0608078
-0.0586049
0.0388096
-0.00811784
0.115333
0.0382249
-0.139052
0.0425167
0.262971
0.130937
-0.123463
0.0176555
0.175363
-0.0473676
-0.126575
-0.123714
0.00410826
-0.17972
-0.0550347
-0.0028534
-0.00689943
0.00974417
-0.0743211
-0.171575
0.0424154
-0.182234
-0.213654
-0.0598888
0.0695042
0.118156
0.123332
-0.0796346
0.052627
-0.0898915
0.0142424
0.0350813
0.0385373
-0.269822
0.113227
0.0684021
-0.0137871
-0.430751
-0.0722612
0.0983485
-0.173251
0.00163657
-0.147632
0.043842
0.0399475
0.166477
0.140141
-0.137344
-0.0704213
0.262956
0.0916188
0.00919228
0.0263261
-0.011666
0.0726739
0.0260071
-0.0296687
-0.0189931
0.190442
-0.0191881
-0.0502316
-0.0788577
-0.055032
0.0161974
-0.423163
-0.100436
0.0491818
0.00871189
-0.10333
-0.129807
-0.0150934
-0.304176
-0.227224
-0.0551049
0.0831516
-0.0085841
0.00522333
0.044361
0.00615752
-0.0574143
0.0125641
-0.01027
-0.222331
-0.23069
0.0139204
0.0151356
-0.0467887
-0.542476
-0.0423142
-0.00572719
0.137921
-0.0211943
-0.0881718
0.0688413
0.0461082
0.0748748
-0.0231669
-0.073313
-0.127979
0.0673307
0.233787
-0.00445163
-0.0936623
0.0462599
0.0568274
-0.0737074
0.0561404
0.0164932
0.115892
0.0291466
0.0239285
-0.00656716
-0.00929007
0.0518876
-0.417997
-0.0790975
-0.0237924
0.00217757
-0.167252
-0.0193025
0.02026
-0.33137
-0.157965
0.0273089
0.0342545
-0.0179501
-0.043007
0.00624685
-0.0586355
0.00232688
0.117235
-0.100995
-0.0798249
-0.155477
0.0369466
0.000437589
0.209079
-0.323721
0.022106
-0.0313171
0.25783
-0.0231092
-0.073429
-0.0223884
0.00794134
-0.0955291
-0.0929016
-0.0206088
-0.0570358
-0.100775
0.12556
-0.0333118
-0.0498365
-0.02097
-0.0832689
0.0198001
-0.0381272
-0.0765946
0.127984
0.0436109
0.0151309
-0.0049797
0.00156924
0.0642349
-0.124685
0.0723006
0.0501701
0.00705339
-0.0288435
-0.117432
-0.00414738
-0.183928
-0.158961
-0.0615118
0.0722103
-0.0613473
0.000810058
0.0330384
-0.0480171
0.0567389
-0.0467523
0.0309931
0.111104
-0.235492
-0.0402616
-0.0347848
0.065895
-0.26162
0.0326657
0.0386524
0.0214407
-0.00648671
0.0516676
-0.0364409
0.132761
0.0102684
-0.00778607
-0.070845
0.0108107
-0.116183
0.062003
0.018663
-0.10137
-0.0201897
0.0938342
0.0213542
0.0346837
0.0383135
0.0910542
-0.0268794
0.018493
-0.100237
0.099141
-0.0423616
0.013863
0.0913382
0.0219351
-0.0174793
0.16824
-0.0809083
-0.0788965
-0.382609
-0.138853
-0.10445
0.0121897
-0.0123586
0.00278914
-0.00728782
-0.0073263
0.00124258
0.0202532
0.00489579
-0.319259
-0.25916
0.0540797
0.0958484
0.119956
-0.166547
-0.00482315
0.0686741
0.0465934
-0.0289544
-0.142186
-0.0160341
0.0919636
0.00179554
0.020786
-0.00270819
-0.134726
0.00202418
0.0698808
0.0350896
0.0378748
-0.0114267
0.071219
0.0736019
0.0330732
-0.0109216
-0.00465934
0.00817346
0.0254438
0.0756124
-0.0463682
-0.00758877
-0.229388
-0.030929
0.0132372
0.00954615
-0.190267
-0.0753144
-0.156001
-0.269291
-0.0623378
-0.148408
-0.051914
-0.0192105
0.0336777
-0.0628021
-0.000328117
-0.0339521
-0.0540048
0.0323981
-0.187267
-0.0217777
-0.0946967
0.038575
-0.0674041
0.169739
-0.0581807
-0.0668278
0.0954624
0.0431432
0.000966126
0.0326385
0.0159841
0.00662563
0.048191
0.0964236
0.088493
0.0141091
0.202889
0.0561829
-0.0585676
0.0175743
0.0690596
-0.0149151
-0.0355659
0.01479
-0.00671032
0.00153686
-0.0449932
-0.0306685
-0.0218244
-0.0566511
-0.269944
0.0320679
0.0653132
-0.0237837
-0.18695
0.0140263
0.0459061
0.0923985
-0.0214116
-0.102108
-0.0792936
0.071029
-0.0254753
-0.0545821
0.0606106
0.0232268
-0.010637
0.0558248
-0.383767
-0.0655154
-0.0338319
0.0978427
-0.00889112
0.166565
0.0355984
-0.0362777
0.0315099
-0.0191621
0.233431
0.00827015
-0.0478922
-0.0359594
-0.0308747
0.0733136
0.118632
0.191392
0.246087
-0.0577229
0.034546
-0.0388574
0.0912777
-0.014671
-0.0496155
-0.0237759
0.0144657
0.00443047
-0.0381506
-0.178948
0.0139948
0.0639291
-0.487987
-0.118545
-0.00841668
-0.00206512
-0.0516487
0.139569
-0.176431
-0.125894
0.0985812
-0.130436
-0.0407627
0.0080852
-0.0162164
-0.035357
0.163216
-0.150781
0.00428254
0.00635373
0.300981
0.00880995
-0.0263438
0.0935973
-0.25765
0.35519
0.0833424
0.0122909
0.0286408
0.0695678
-0.201161
-0.0765191
0.0603837
-0.0100542
0.032788
0.163267
-0.158365
0.273993
0.326837
-0.00400876
0.087378
0.0107515
-0.0112712
0.0719349
-0.0683599
-0.0284732
0.141855
-0.0862067
0.00971647
-0.115019
-0.0201074
0.00932821
-0.314579
-0.315307
-0.0993433
-0.0583273
-0.162724
-0.0556051
-0.241628
-0.126475
0.0747585
-0.0831162
-0.023741
-0.00510697
-0.0222862
-0.0177933
0.0862453
-0.175873
-0.0249654
0.0527328
0.434999
-0.0590358
0.00853618
0.109092
-0.193774
0.298711
0.0958862
0.0473481
0.363808
-0.0143655
-0.211123
0.0562
0.190313
0.00683206
0.00443085
0.016034
0.0193886
0.156304
0.533011
-0.0574175
0.208483
0.00420928
-0.325959
-0.109507
0.0463091
0.0276572
0.0925132
0.0443433
0.0800411
-0.00290853
0.0261826
0.0709741
0.374724
-0.375478
-0.0358241
0.042288
0.00261271
-0.0120532
-0.261293
-0.355793
0.0208186
-0.0309385
-0.0402693
-0.0409884
0.00510592
-0.0318616
0.0131815
-0.00974344
0.00236516
-0.00525113
0.640973
-0.125126
0.0123125
0.0445346
-0.406115
-0.0213023
-0.0221953
-0.0194083
0.0217767
0.0033174
-0.297389
0.0272887
0.198201
0.0115894
-0.0341955
0.0592316
-0.2389
-0.0671936
0.436897
0.00247395
-0.312299
-0.0370585
0.391063
0.0440609
0.0579335
0.003349
0.206958
-0.0113337
0.082435
0.15733
0.0147042
-0.0288996
0.0248543
-0.00441921
0.0580083
0.048394
-0.173857
-0.0384027
-0.05645
-0.255492
-0.0674409
-0.13027
0.0658834
0.00549917
-0.0153961
0.0857062
0.0492542
0.119802
-0.0396668
-0.022186
-0.74767
-0.284763
-0.0273556
0.0330108
0.587714
-0.1379
-0.0740015
0.00570312
0.356499
-0.0147964
-0.103033
-0.0442346
0.28208
0.0072502
0.0422311
-0.177553
0.146255
0.217457
-0.29365
0.146826
0.0176705
-0.160742
0.270772
-0.0309506
0.138411
0.00940985
-0.0520042
-0.074753
-0.154274
-0.0698293
-0.0126193
0.0685087
-0.0696656
-0.122283
-0.00553158
0.114203
-0.0718515
0.102139
0.222133
0.123981
0.0765212
-0.00999835
0.0399287
0.0021343
0.109343
0.203534
-0.0194851
0.0712755
0.022449
0.0720112
-0.16708
-0.0216023
-0.0262588
0.0775947
-0.393939
-0.102905
-0.076874
-0.0374594
-0.468072
0.0326041
0.252099
-0.0882498
0.00750633
0.299951
0.0258106
-0.189338
0.173091
0.175527
-0.140736
0.0521678
0.00203187
-0.0660469
0.347564
-0.0638584
0.0555464
-0.0202683
0.119365
0.042055
-0.0570114
-0.147081
-0.00897877
0.00120823
-0.0793768
0.0793749
0.0639593
0.00543388
-0.171681
-0.0668495
0.0727159
-0.0943803
-0.125157
-0.0561494
0.0659927
0.00252244
0.0411602
0.0738067
0.0286801
0.0154485
0.0428218
0.00106338
-0.139252
-0.0726646
-0.0369849
-0.014792
-0.216355
-0.224366
0.0280918
0.0770582
-0.149688
0.0803632
-0.0061778
-0.044483
0.0384218
-0.0270176
-0.0201339
3.62917e-07
-0.0752377
0.0735177
0.063538
-0.0169569
-0.0352529
-0.0175212
-0.161454
0.049281
0.00657357
-0.0343515
0.114064
0.008637
0.0227896
-0.0253703
0.0158247
-0.0129311
-0.590485
-0.0458522
0.0338087
-0.0494254
-0.0676691
-0.00454647
0.0376662
-0.231523
-0.19247
-0.0625456
0.00981069
0.00953914
0.0386472
-0.00306607
-0.00303416
-0.036976
0.0235968
-0.00514263
0.0325482
-0.104472
-0.0411364
0.0285367
-0.0460047
-0.307587
0.037495
0.0372213
0.058702
0.0267991
-0.0949425
0.0025385
-0.0249159
-0.0604138
0.000732933
0.0260896
-0.0887288
0.0670773
0.166786
-0.0459264
-0.0654447
-0.0405186
-0.130934
-0.0378814
0.00787632
-0.023507
0.0785098
0.000650681
0.0296546
-0.0350157
-0.00884801
-0.00773839
-0.695926
0.103111
0.00946532
-0.00113546
-0.180837
-0.0521761
0.0958252
-0.033452
-0.154052
-0.0964472
-0.00235382
-0.00174062
-0.00909813
-0.0499759
-0.00412027
0.00662353
-0.00434198
0.0501059
0.0793422
-0.132475
0.00169625
0.0387802
0.209565
-0.060315
0.0167571
-0.00169622
0.223468
-0.0292248
-0.0201126
-0.0189363
-0.0324667
-0.0257834
0.0149923
0.0114921
-0.0901292
0.163337
0.0679164
-0.0152824
-0.163188
0.0156855
0.02325
-0.00329531
-0.0236936
-0.0238648
0.0428926
0.0245525
0.0197424
-0.0496666
-0.0354651
-0.0342266
-0.230989
0.0832229
-0.00752824
-0.00776967
0.277475
-0.0181142
-0.00254289
-0.0471539
-0.153991
-0.104026
0.0332674
-0.0321783
-0.033534
0.0246914
0.00908627
-0.0098422
-0.00100459
-0.0450036
-0.180986
-0.162701
-0.0137965
0.044728
0.176231
-0.15209
0.0244448
-0.00918931
0.057033
-0.0504515
0.0476393
-0.0342413
0.0378981
0.022422
-0.0650742
-0.0162326
0.062475
0.083405
0.0328231
-0.0167131
-0.0486125
-0.02219
0.113346
-0.0111486
-0.00859052
-0.00711114
0.0981447
0.0281248
-0.00474736
-0.0879706
0.00344231
-0.0154122
-0.312029
-0.0523934
0.0354931
0.00409935
0.219359
-0.0409228
-0.176412
-0.311373
-0.0163094
-0.10654
-0.00353908
0.00705273
-0.0335744
-0.0325707
0.0350374
-0.0789792
-0.0215136
-0.0120918
-0.127133
-0.082962
0.0162991
0.0623241
0.182534
-0.13552
0.0101472
0.0791814
0.141203
-0.0403338
-0.129541
0.0368688
0.0749313
0.0486549
0.0356535
0.0448889
-0.095516
0.00523585
-0.0168876
0.0371882
-0.0686157
0.00553903
-0.0130149
-0.0292791
0.00492636
-0.00176117
0.0445134
0.0394522
0.00293051
0.176376
0.0184706
0.0563685
0.066207
0.0141404
0.031374
0.0144552
0.0485382
-0.011632
-0.0574947
0.12549
0.0569636
-0.0540514
-0.014784
-0.0243739
0.00277395
-0.00703184
0.0621275
0.0499293
0.0154291
-0.0112449
-0.205644
0.00108801
-0.0355507
-0.0635028
-0.00229087
0.135511
-0.00288072
-0.040341
0.0817845
0.0752876
0.172269
0.0337425
0.0660368
-0.0225259
0.00731702
0.0653019
0.19255
-0.019013
0.155759
0.0321777
-0.158838
-0.0188042
0.172784
0.0127215
0.0164692
0.00139581
-0.0843771
-0.0523237
0.0462558
0.0532452
0.0385489
0.0376696
0.115983
0.127849
-0.02729
-0.0374985
-0.0716738
0.075491
0.0953558
0.333698
0.040769
-0.0368785
-0.0492677
0.00961361
0.0323627
0.0459959
-0.0169156
0.0531326
-0.035066
0.0545127
-0.0652339
0.0904215
0.0213843
0.0147638
-0.0253542
-0.131381
-0.00324262
-0.0256832
-0.10438
-0.00194651
0.487685
0.00932805
-0.121382
0.00745332
0.0095125
0.09626
0.299908
-0.0490426
0.141544
-0.0806823
0.00526761
0.0441177
0.0981768
-0.0368832
-0.0228065
0.0657099
-0.0196917
-0.00395722
-0.018024
-0.0373945
-0.038508
0.00897339
-0.361469
-0.0449128
-0.071095
-0.0295252
-0.10231
0.134712
-0.070375
-0.0342561
0.0953014
-0.0470267
-0.025046
-0.00992324
-0.00770895
0.0332319
0.0638876
-0.0211546
-0.0260651
-0.00738361
0.442232
0.0623462
-0.0397187
0.0259395
-0.130557
0.135372
0.0188816
-0.000487563
-0.0781129
-0.0474514
0.319033
-0.0301421
0.0755741
-0.0158121
0.0227529
0.0853302
0.224721
-0.121133
0.259749
-0.0294076
0.193142
0.0169022
-0.176225
-0.0182786
0.00192243
-0.0169859
0.149202
-0.0188697
-0.0264469
-0.108806
-0.0055475
0.0257586
-0.152994
-0.215869
-0.0277062
-0.0191713
-0.199036
-0.113486
-0.0616173
-0.0237923
0.051157
-0.0421435
0.0385016
-0.0277242
-0.00187256
-0.0504467
0.0304041
-0.132262
-0.0224187
0.0975971
0.289238
-0.0728718
0.0249997
0.0132464
-0.203173
0.178235
0.0490326
0.0519062
0.180848
0.00684756
-0.0235932
-0.0363129
0.126092
0.00813739
-0.0143476
-0.00887471
0.0483658
0.0874757
0.242425
-0.0155538
0.425428
-0.0334176
-0.428098
-0.0421891
0.00299882
0.0200005
0.103044
0.0251203
0.0870596
-0.109505
0.00818075
-0.0424062
0.0920793
-0.488603
0.0312545
0.0213764
-0.257254
-0.0445626
-0.328243
-0.31248
-0.0593011
-0.0145588
-0.0389762
0.0174111
-0.0368665
-0.242879
0.101723
-0.210139
0.042294
0.00312407
0.461633
-0.0298158
-0.00765629
0.0677686
-0.512975
0.154288
0.0230565
-0.00240868
0.455137
0.00211463
-0.557175
0.00793788
0.107341
0.030429
0.0248376
0.0305732
-0.521902
-0.0117627
0.483318
-0.000205893
0.130429
0.0184406
-0.168885
0.0218765
0.0072954
-0.00438515
0.26667
0.0166112
0.0290841
0.0341804
-0.0260175
0.0190739
-0.0323249
-0.0234523
0.0423534
-0.0241141
-0.214495
-0.0543055
0.0267976
-0.198885
-0.154274
-0.0467515
0.0198518
0.0128563
0.0262411
0.0337672
-0.021821
0.0718281
-0.0106625
-0.0455391
0.0468502
-0.249941
-0.0405009
-0.0096784
0.107442
-0.185868
-0.0440589
-0.0393174
0.532765
0.0404554
-0.315873
0.029615
0.1626
-0.0134817
-0.00871494
-0.106301
-0.134559
0.187823
-0.052156
0.117283
0.134783
0.100788
0.135556
-0.0635418
0.0330976
0.0163237
-0.0958938
0.0399551
0.000700267
0.0448408
0.0268666
-0.119494
-0.114809
-0.128144
-0.0357633
-0.048248
0.0885608
0.00749779
0.0466415
-0.0910765
0.0918777
0.0333259
-0.0339447
0.0241972
-0.0589785
0.121332
-0.100139
0.0762651
0.0639647
0.0525433
-0.0331626
0.0860553
-0.0757047
0.0162056
-0.573751
-0.083275
-0.029828
0.0420907
-0.570974
-0.0505592
0.351389
0.0301428
0.0115223
0.082337
0.0628886
0.0345197
0.266233
0.0912974
-0.249362
-0.000603642
0.0262289
-0.0669086
0.182231
-0.0423474
0.00864797
-0.0177587
-0.0086769
0.0151836
-0.0961552
-0.119147
-0.031859
-0.0199621
-0.0636083
0.116137
-0.000957875
-0.0164224
-0.115631
-0.00563356
0.0591186
-0.0497682
-0.0933218
-0.0882314
0.0270757
0.034195
-0.0455968
0.0847042
0.0061447
0.0115721
-0.00756769
0.0165927
-0.0251077
-0.0405205
0.00866517
0.0259567
-0.146985
-0.0980563
-0.0441183
0.0466776
-0.165725
0.0048116
0.144214
-0.0389189
-0.0674543
0.028971
0.00407237
0.00153415
0.0550367
0.0203946
0.0220788
0.0148056
0.024266
0.0245106
-0.157434
0.0514273
-0.0070281
-0.0535353
-0.0383332
0.00623844
0.0380884
-0.0805074
0.00862089
-0.00181216
-0.586323
0.00212555
-0.0203462
-0.0412776
-0.0995486
0.0882492
0.00501514
-0.199229
-0.205247
-0.132802
-0.0278191
-0.0422327
-0.0262363
-0.0211942
0.0442588
-0.0123051
-0.00751176
0.0115943
0.359113
-0.0961451
-0.00810555
0.0600747
-0.0627367
-0.197907
0.0139453
0.0389451
0.116756
0.00929044
0.0352484
-0.0360876
-0.0758998
-0.0284764
-0.0371047
0.0507906
-0.0726359
0.0224412
0.0171819
-0.0628222
-0.134116
0.0342617
0.0831339
-0.0113666
-0.0101769
-0.0261582
-0.077349
0.0314502
0.013014
0.0775087
-7.42047e-05
0.0528405
-0.379025
0.128791
-0.0167764
0.0453894
-0.213676
-0.0483666
0.0494353
-0.0241498
-0.159725
-0.137971
0.0262312
0.0120177
0.0174539
0.00520311
0.00919869
0.027201
0.005054
-0.0132915
-0.105853
-0.0819243
-0.0190562
0.00621304
0.100366
-0.00508939
0.00490552
0.00572791
0.064718
0.0167992
-0.0956014
-0.00242036
0.000104777
0.00525974
0.0175162
0.0276378
-0.123182
0.03564
0.0783264
0.0377636
-0.138701
0.0106918
0.0957845
-0.00569653
0.0102326
0.0197815
-0.030295
-0.000299767
-0.0155086
-0.0467779
-0.0312387
-0.0245794
-0.392287
-0.0137731
0.00712187
0.0179476
0.150536
-0.0324395
-0.065081
0.0330817
-0.0693825
0.00875734
0.0154832
-0.00370942
0.0279016
-0.0151414
-0.0143839
-0.0302413
0.0582749
0.0289807
-0.0537065
-0.0499475
-0.00581055
0.0291096
0.0786298
-0.109205
0.00423282
0.00364093
0.0678239
0.0183713
-0.0445696
-0.00614269
0.00314029
-0.0148029
-0.0290554
-0.0069048
0.0130215
-0.0577002
0.135856
-0.00616879
-0.18334
-0.0218964
0.124661
-0.0325168
0.0139922
-0.0113614
-0.0491428
-0.0223995
-0.0217443
-0.0317455
-0.00044046
0.00153987
-0.431236
0.0607244
0.00666147
0.0130675
0.323229
0.0689658
-0.0593465
0.0841908
-0.0194373
-0.0494446
-0.0344274
-0.0125426
-0.00504122
0.00743466
-0.0159613
0.0421301
-0.00189396
0.0158327
-0.374824
-0.0558129
0.0498369
0.105066
0.382302
0.0810914
-0.0425571
0.0165302
0.0400145
-0.00176157
0.152836
0.0369169
0.0103189
-0.0013529
-0.0109745
-0.00676447
0.181948
0.059522
0.0305626
-0.00615501
-0.222361
0.0572475
0.368514
-0.0163312
-0.012438
0.0396079
-0.135869
-0.000230561
0.031928
0.142303
0.0308876
-0.0177897
-0.384254
-0.0132012
0.0381328
0.0063644
0.204023
0.108078
-0.118483
0.263064
0.181859
-0.000247629
0.00629518
-0.0245902
-0.0115763
0.0687609
0.0481465
-0.0225939
-0.0133194
-0.00304447
0.0399804
0.135998
0.0310554
0.0109826
0.317116
0.289575
-0.0178996
0.0174222
-0.367249
0.00805902
0.0906474
-0.00422382
0.0683172
0.0372353
0.0201398
0.0589705
0.135287
-0.557957
-0.084269
-0.00489432
-0.123846
-0.0167228
0.0148505
-0.0153396
0.0315501
-0.00259059
-0.186315
-0.0338427
0.00392056
0.162817
-0.0393328
-0.0104395
-0.376072
0.00445483
-0.0108518
0.00595186
-0.0131765
0.0690116
0.0186994
0.229647
0.227563
0.134384
0.0519314
0.0308004
0.0258434
0.00612541
-0.00476679
-0.0785315
0.0115006
0.0225822
0.44658
0.102427
-0.0229981
-0.0712039
0.0763051
-0.11118
-0.00824228
-0.028242
-0.521825
0.0348075
0.169506
-0.0297455
0.0536824
0.0138984
-0.0392578
-0.0233912
0.224864
-0.238605
-0.343624
0.00856025
0.0651651
-0.0085858
-0.101708
0.0286059
0.0184444
-0.00852474
-0.0692422
0.0102103
-0.0113268
0.120531
-0.0379933
0.0182687
-0.451988
-0.103626
-0.0229648
0.00325414
-0.190615
0.0263622
0.127946
0.063493
0.0246629
0.125734
0.0271897
-0.0161841
-0.0244147
-0.0122586
0.00269018
-0.00051637
0.0275919
0.0113832
0.246788
0.0841045
-0.036964
-0.075673
-0.057697
-0.217253
0.00816613
-0.0252453
-0.217646
-0.0582267
0.538181
0.00640271
-0.0216857
-0.0181619
-0.0253428
-0.0262027
0.480782
-0.164662
-0.148558
0.00765771
0.211474
0.0299117
-0.29996
-0.0231448
0.0502208
0.0538661
0.0561062
0.00518116
-0.0438742
-0.106676
0.00961651
0.000790343
-0.251612
-0.157103
-0.0569542
-0.0163727
-0.171455
-0.0377201
0.183641
0.0456538
-0.0472855
0.109404
-0.0168641
0.0320258
0.0219309
-0.0994819
-0.0450126
0.00566266
0.0529634
0.0874922
0.190811
0.00167383
-0.00280551
-0.028203
-0.0929608
-0.0946128
-0.0162251
0.00968009
0.162872
0.0637441
0.206739
-0.0100018
-0.0963329
-0.0144028
-0.0014755
0.000347005
0.0816992
-0.121675
0.0121726
0.000842855
0.669146
0.00382028
-0.523925
0.0263945
-0.0100922
-0.0170316
0.147035
-0.0201899
0.051503
-0.205621
0.0708333
-0.0220536
0.00103539
-0.539484
0.0645216
0.049753
-0.560627
0.0276192
-0.286161
-0.163046
-0.0264333
0.0350609
-0.0244929
-0.00966117
-0.00206541
-0.290605
0.0463306
-0.267804
0.0192558
0.0398013
0.341056
0.0959378
-0.00936191
0.0295205
-0.648205
0.244119
0.00303989
-0.0263811
0.483858
-0.0445349
-0.35774
0.0362214
-0.0665971
0.0488993
0.0066275
0.0745065
-0.425114
-0.647886
0.267248
-0.0049714
0.291183
-0.0140277
-0.161977
-0.0178731
-0.022962
-0.0055312
0.281716
-0.026699
-0.0229653
-0.116093
-0.10868
0.0042592
-0.16497
-0.147019
-0.0366809
-0.0488764
-0.100903
-0.129124
-0.0593084
-0.226775
-0.199941
-0.15052
-0.0616676
-0.0338985
0.026975
-0.083317
0.00755359
0.0261919
-0.0676004
-0.0253453
-0.00825449
-0.231979
0.033658
0.037939
-0.204062
0.00343678
-0.0167237
-0.0264488
0.566892
0.0342413
-0.561347
0.0286575
0.162402
-0.0761314
-0.017913
0.00493948
-0.394827
-0.0497621
0.0894424
-0.00306489
0.22276
0.0134308
-0.0251515
0.0100826
-0.0193069
-0.00491297
-0.146031
0.051486
-0.0511422
0.171586
0.0704853
-0.0138443
0.15309
0.0294168
-0.0445005
-0.0245195
0.142598
0.028672
0.1324
-0.116689
0.155913
0.0549281
0.0191992
-0.0451961
-0.0440941
0.0750285
-0.00441084
0.0785741
-0.00325506
-0.0752091
0.178595
0.233008
-0.0265046
-0.104764
-0.822488
-0.157542
0.0381474
-0.0391968
-0.606509
0.0154218
0.122284
-0.0203358
-0.00522541
0.0464766
0.0340876
0.00156805
-0.0284021
-0.0348684
-0.278119
-0.0202927
-0.0671128
-0.0540394
0.180685
-0.0475417
0.0017062
-0.0174659
-0.0542257
0.031767
-0.0597685
-0.10921
-0.0196746
-0.0430389
0.299302
0.0585298
0.00473282
-0.0114152
-0.111156
-0.0447817
0.0924907
0.0445606
-0.0181301
-0.00293146
0.0185042
-0.0386931
-0.0216916
0.0803147
-0.0523327
-0.0395712
-0.0152952
0.0562787
0.323228
0.0346905
-0.0141739
-0.0283082
-0.116111
-0.187721
-0.00932342
0.0459089
-0.216047
0.0479453
0.133904
-0.0405336
-0.0980441
0.0205387
-0.0179323
0.0573628
0.0156752
-0.0981736
-0.113605
0.00354579
-0.0176924
-0.000329379
-0.163236
0.0248544
-0.0310431
-9.05202e-05
-0.169908
0.0152838
-0.0247942
0.0341962
0.032008
0.00916852
-0.494608
-0.003995
-0.0390416
0.0361989
-0.00674836
0.0697301
0.0866312
-0.0806552
-0.0392791
-0.0314304
-0.0226988
0.0236482
0.00981276
0.044543
0.0196713
0.0318566
-0.0259887
-0.00437012
0.568646
0.0199541
-0.0058841
-0.00888467
0.0204717
-0.156148
0.00959133
-0.000933538
-0.103043
-0.0133702
0.0678509
-0.0230986
-0.0385079
-0.0242717
-0.00386986
0.0441764
0.051182
0.00887803
-0.145874
-0.0540551
0.00605885
-0.024817
-0.124144
0.0223906
0.0037965
-0.00991141
-0.139823
-0.0190364
-0.00277349
0.0326894
-0.00138407
0.029067
-0.601586
-0.0745633
-0.00178807
0.0226506
-0.137797
-0.0189364
-0.00572685
-0.121464
-0.0622068
-0.0121886
-0.00141586
0.0706928
-0.00592238
-0.0517998
-0.0167808
-0.0440057
0.0518107
-0.0414499
0.0802249
0.0896261
0.0179312
-0.0266889
-0.0521054
-0.0357612
0.00828292
-0.0271322
-0.0917808
0.0084446
0.0531888
0.00495553
-0.109737
0.036007
-0.0313378
0.0278458
-0.0383998
0.0942267
-0.0610312
0.0372785
-0.246171
0.0276958
0.222492
0.00203703
-0.0021889
0.0338554
-0.159122
-0.0334345
-0.0205453
0.0673478
-0.0181403
-0.0100915
-0.334328
0.063828
0.0341384
0.0238699
0.0680926
0.065045
0.0300555
0.149451
-0.0472157
-0.0811555
-0.112518
0.0238659
0.0563925
-0.0498537
0.000152083
0.0348598
0.0170612
-0.0195723
-1.03907
0.168588
0.000846534
0.103345
0.553778
0.0641822
-0.0199175
-0.00490742
0.0923086
0.0130031
0.0012633
-0.0148424
-0.174007
-0.00107152
0.0201872
0.0194499
-0.0725591
0.173793
0.0570604
0.0330353
-0.372967
-0.0321726
0.393312
0.0132027
-0.0128542
-0.0299425
-0.329029
0.0425699
-0.0478684
0.0431741
-0.00852336
-0.0200262
-0.268986
0.16731
0.0210722
-0.05125
0.434707
0.155919
-0.110033
0.199119
0.188586
-0.0252406
-0.032632
-0.0105539
0.00057226
0.0508257
-0.00735914
-0.0018952
0.00573605
-0.0177092
0.220487
0.200187
-0.0184713
0.120014
0.403973
0.150608
0.033756
0.00657254
-0.232728
-0.0164727
0.29263
-0.0185007
-0.122819
0.0114004
0.0213966
0.0483111
0.212733
-0.260526
-0.00484203
-0.0498705
-0.0414088
0.0195756
0.0699338
0.0354922
-0.0288331
0.0427317
-0.199836
-0.0347519
0.0585897
0.0721211
-0.0428151
0.0266919
-0.193701
-0.0301647
-0.012451
0.00640626
0.33593
0.168114
-0.0900912
-0.119899
0.328368
0.0542689
-0.0304684
0.00222062
0.0392685
0.0326089
0.0639114
-0.125304
-0.00609192
0.0542532
0.433651
0.285197
-0.0130333
0.0581458
-0.0511253
0.13597
0.0466532
0.00641879
-0.424842
-0.011295
-0.0719035
0.0348198
-0.0632607
-0.0611272
-0.0101438
0.0672951
-0.0940993
-0.187186
-0.254987
-0.0809326
0.0105817
0.0264323
-0.375561
-0.010158
0.0464867
0.0199931
-0.110327
-0.0902712
0.025
0.116211
0.0115923
-0.00852163
-0.246131
-0.0868181
0.012513
0.0109594
-0.015456
0.0990305
0.0338289
-0.139664
0.192347
0.14551
0.0484223
-0.0175728
-0.0214831
-0.000124058
-0.0235659
-0.0994876
0.0305666
-0.0218048
0.674209
0.0832352
-0.0332912
0.0159806
-0.22255
-0.00822379
0.0300421
0.0152977
-0.474585
0.0298924
-0.150722
-0.0212975
0.0424978
0.039375
-0.00548756
-0.118543
-0.051
0.0450118
-0.117244
-0.0288395
-0.0311727
0.0306711
-0.27665
0.0472595
-0.00631949
-0.0251154
-0.127451
-0.000685379
-0.010647
0.260378
-0.0295826
-0.0175533
-0.264714
0.245239
0.0311075
0.00465901
-0.386757
0.012471
0.256565
0.15645
-0.0947914
0.144945
0.0731237
-0.0288311
-0.0111522
-0.0427034
-0.00763137
0.0305994
0.0135467
0.0162885
0.44688
0.060704
0.000785457
-0.127554
-0.0556083
-0.287332
-0.0428878
0.0589699
-0.0304816
0.0230696
0.66169
0.0676519
-0.222762
-0.0514946
0.0677463
-0.0666241
0.314081
0.0961543
-0.0628786
0.0277117
0.504181
0.00465244
-0.437594
-0.0419185
0.0194567
-0.00313897
0.00640284
0.0305111
-0.0339739
-0.0583864
-0.0414069
-0.0682861
-0.230527
-0.0998298
0.0268701
-0.0248578
-0.484381
-0.115988
0.276587
0.13986
-0.0858478
0.112282
0.0127177
0.00418452
-0.0329235
-0.138527
-0.0853939
-0.0442418
-0.0310439
0.00564331
0.2613
0.0897907
0.00141325
-0.054081
-0.34954
-0.193444
-0.0416513
-0.00115569
0.0640414
0.0178725
0.376077
0.0155891
-0.252372
-0.0307533
-0.0300395
0.0386823
0.119588
0.0835627
-0.439078
-0.0264946
0.750007
-0.0601859
-0.505815
0.00292656
-0.0180648
0.0462603
0.0773548
-0.0366968
0.0363702
-0.153305
0.0889309
-0.0113112
-0.245776
-0.527537
0.00521439
-0.000555122
-0.754976
0.00825012
-0.236827
0.0654276
0.0563926
0.174137
-0.0679787
-0.0601231
0.0653641
-0.213005
-0.0250143
-0.195427
0.00556306
-0.014497
0.268402
0.204449
0.0465516
-0.112693
-0.62457
0.167924
-0.00115281
-0.00194277
0.378073
-0.000188897
-0.153308
0.00500184
-0.14957
-0.0443271
-0.040454
0.125559
-0.181203
-0.312638
-0.175001
-0.0274308
0.14325
0.107817
-0.14508
0.0833932
-0.00262079
-0.0196048
0.204374
-0.00735975
-0.056322
-0.10402
-0.0271654
0.06725
-0.303882
-0.0978967
0.0175972
-0.0487659
0.300395
0.0366424
-0.205023
-0.520375
-0.0185661
0.00139307
-0.108198
0.0280647
0.0281199
-0.220267
-0.0208529
0.021176
-0.0103873
0.0415385
-0.138911
-0.0232037
0.00184528
0.0563014
-0.0370211
0.291386
0.0219809
0.0317244
0.524399
0.035851
-0.505346
-0.0237202
-0.065536
0.0374837
0.0128723
0.0270084
-0.444147
-0.575794
0.24296
0.0825924
0.235323
0.00746172
-0.00491454
0.0659478
-0.0242728
0.00662751
-0.284032
0.0343325
-0.0216192
0.140541
0.0595925
0.0667857
0.0744621
-0.00724497
-0.0268372
0.0211748
0.298504
0.119255
0.0855389
0.257369
0.277826
0.097974
0.0120922
-0.00684173
-0.0143013
0.136689
-0.0881524
0.0605121
-0.00685278
0.0149167
0.229114
0.307476
0.00229867
-0.14107
-0.799524
-0.0035476
-0.046623
-0.0737455
-0.770816
0.0280214
0.198549
-0.0536482
-0.0788332
0.0653068
-0.00211147
0.0962082
0.066141
-0.166656
-0.497199
-0.0459962
0.0050109
-0.0204794
0.12646
-0.00935303
-0.00994709
-0.0122469
0.0418128
-0.00470661
-0.0449411
-0.0709432
-0.0246057
0.0142939
-0.108817
0.0175618
0.0761919
-0.0685824
-0.0737673
0.0344533
0.0863871
0.131711
0.0155158
0.0561346
0.0505991
0.0302021
-0.0427458
0.0498455
-0.0304397
-0.0430798
0.0303038
0.0680577
0.427094
0.0652667
0.0115158
-0.121846
0.032127
-0.20229
0.0104021
0.0179358
-0.269221
-0.0134556
0.18288
0.00126117
-0.0359749
0.0101598
-0.0150091
0.0163379
0.0959951
-0.0952945
-0.221958
0.0173397
0.195753
0.0341098
-0.278443
-0.0126818
-0.0529333
0.0150106
-0.00382133
0.0199823
-0.00741266
-0.0442018
-0.0190689
-0.00883915
-0.288923
-0.0932
0.0338406
-0.0132638
-0.153297
0.0727449
0.0386162
-0.121622
-0.015987
0.0305766
-0.0177368
-0.0222906
-0.0248637
0.00893447
0.0178148
0.00150222
0.029362
-0.0301159
0.449522
0.0126148
-0.00503861
-0.0428027
0.0126492
-0.115035
0.0553944
0.0132965
-0.0341835
0.0165265
-0.119277
-0.0127291
-0.0716189
-0.0155626
-0.0525788
0.0197396
-0.139222
-0.0935183
-0.0859768
-0.00146501
0.178176
-0.0427928
-0.323134
0.0117489
-0.0300167
0.0362051
0.0925724
-0.0271313
0.0281352
-0.0414805
-0.00464578
-0.0195872
-0.0718465
0.0316466
0.0789903
0.00291641
-0.183136
-0.0255423
0.0958309
-0.21836
-0.0867988
-0.0637479
-0.060851
-0.00245534
-0.0183504
-0.182799
0.0118813
0.0104152
0.0211528
-0.00429611
0.03871
-0.0605237
0.0176993
0.0319843
-0.0357515
-0.0272377
0.00913763
-0.029377
0.38591
0.0248502
-0.0824864
0.0370015
-0.0834141
-0.0135346
0.0605613
-0.0049088
-0.180743
0.16338
0.0891769
0.00824431
-0.0941871
0.0379749
-0.235405
-0.0178846
0.0695006
-0.00937431
0.0616479
0.0255041
0.0320802
0.0844592
0.00432318
0.0104907
-0.283571
0.114366
0.0193979
-0.0417273
0.0967003
0.0325616
-0.0844881
0.0199918
-0.0110226
-0.0192604
-0.0262385
0.0124826
-0.031826
-0.0711244
-0.0167105
0.0546437
0.0273348
-0.0755321
-0.501322
-0.0290372
0.00046499
-0.00424187
0.78881
-0.0411765
-0.00895887
0.078599
0.407271
0.0245794
-0.0141218
-0.0339778
0.0270017
-0.0564176
-0.00320589
-0.0148059
-0.0126172
-0.170299
0.0376809
0.0128413
0.00475261
0.0330196
-0.0879857
0.0204045
-0.0273524
0.0176816
-0.0184339
-0.00887999
0.0420554
-0.00559894
0.012322
0.0120343
-0.0371728
0.0868126
0.00863471
-0.0115981
0.429912
0.142016
-0.0929594
0.16456
0.0865354
0.0277694
-0.00862937
-0.0157248
-0.00244562
-0.0203988
-0.0195546
-0.0719153
0.0106104
-0.00731801
-0.227566
0.229232
0.0314858
0.0735535
0.0815295
0.0504377
0.0246173
0.0480748
0.0664105
0.056444
0.113562
0.026173
-0.117206
0.0261885
-0.0367648
-0.0119187
0.00438624
-0.0387341
-0.167559
-0.0509619
0.239849
0.0218097
-0.294171
-0.0340114
-0.00831381
0.0028343
-0.0921008
0.0217759
0.0647392
-0.0338928
-0.00487322
0.0290241
0.407238
0.118691
-0.00127953
0.0100481
0.540126
0.0982367
-0.0457259
-0.7382
0.0767222
0.046872
-0.0798197
-0.0559875
0.0607797
-0.0864688
-0.0510168
-0.00412611
0.0182739
0.0312305
0.330192
0.148804
-0.0151609
0.094455
-0.100509
0.0845618
-0.0213419
-0.0565785
0.0646258
0.0315704
-0.363882
-0.0141554
-0.163118
-0.0302935
-0.00880582
-0.0148083
-0.393527
-0.0108852
-0.0638922
-0.0082406
0.228239
-0.0375813
-0.263244
0.0112926
0.0181598
-0.00981855
-0.166326
-0.0390627
-0.0531503
0.0938272
-0.0218091
0.0151137
0.679998
0.185739
-0.0412207
0.0062454
-0.0149568
-0.0490807
0.327128
-0.12651
-0.146192
-0.0365209
0.0845846
-0.0378471
-0.0521548
0.07434
-0.0555394
-0.0502588
0.0664669
-0.0365456
1.06176
0.119085
0.0152851
-0.00531399
-0.286832
-0.0841967
-0.00971377
0.0271729
-0.0395012
-0.0310716
-0.540051
0.010818
-0.143058
-0.00637052
0.0294978
-0.037365
-0.610755
0.432208
0.0399317
0.0458016
0.0286445
0.0409673
-0.165435
-0.0247555
0.00557723
-0.00118631
-0.0458947
0.00870162
-0.0145511
0.262265
0.0160036
-0.0190435
0.759964
0.260435
-0.0590413
-0.00807022
-0.705873
-0.0891559
0.477748
0.164705
-0.125268
-0.108305
0.0942784
-0.00124401
0.0196175
0.106092
-0.0129206
0.0825061
-0.00640461
-0.0333333
0.469679
0.0607893
-0.0234583
-0.0721616
-0.0961279
-0.280936
0.0356015
-0.0335446
-0.183741
0.00549372
0.328817
0.0221297
-0.0995047
0.0105874
0.0227338
0.0299924
0.0997548
0.472158
-0.241661
0.0262407
0.30614
0.0640519
-0.224
0.00569437
-0.00378077
0.0375742
0.0442741
-0.0435152
-0.0151897
0.0538337
-0.031981
0.0200662
0.195672
-0.123367
0.0140624
-0.0178096
-0.545781
-0.182153
0.261297
0.226304
-0.0434506
0.0159819
0.0163444
0.0121493
0.00954281
-0.043594
0.00207067
-0.0347181
-0.0370385
0.0277309
0.193323
0.00603266
-0.00306135
-0.0860851
-0.198063
-0.193043
-0.019228
0.0257359
-0.0518765
-0.0107076
0.20956
-0.0376083
0.0080663
-0.0302486
0.000426679
0.00223285
0.139854
0.192843
-0.203177
0.0047615
0.521356
-0.0061094
-0.356989
-0.0788091
-0.034294
0.00257864
0.138576
-0.0245715
0.0155156
-0.0544942
0.0472238
-0.0580907
-0.297781
-0.395243
-0.0347924
-0.00599461
-0.184283
-0.0953615
-0.203137
0.0498864
0.0208269
0.0704558
-0.0250119
0.0209297
0.0211096
-0.156847
0.00515933
-0.122892
-0.0431776
-0.0265322
0.0367502
0.0669553
0.0192757
-0.0621573
-0.444119
-0.0294761
-0.0342905
0.00956835
0.242904
0.0195101
-0.0890493
0.0164074
0.0817308
-0.048552
-0.107915
0.022649
0.04818
-0.00829973
-0.549801
-0.0298891
0.174703
-0.0387652
-0.250807
0.0198847
0.0824247
-0.0159336
0.174264
0.072423
-0.0649055
-0.150842
-0.0158372
0.077111
-0.62071
-0.0220787
0.0535877
0.00313488
0.504042
0.0845619
-0.371185
-0.475516
0.0271634
0.183588
-0.135903
-0.0041488
0.0225699
-0.248312
0.00778892
-0.00568571
0.0406533
0.0576136
-0.023023
0.158271
-0.0348237
-0.0152378
-0.292207
0.240432
-0.0317723
-0.0285348
0.513724
0.00893347
-0.386159
0.0523629
-0.24267
-0.0060397
0.056525
-0.0331384
-0.607982
-0.400883
0.328625
0.0264692
0.18237
0.0558007
0.193675
-0.0275298
-0.0570398
0.0488134
-0.208818
0.0064791
-0.0259854
0.150183
-0.0421688
-0.0508467
-0.0133228
0.00223398
0.0281275
-0.0763766
0.415016
0.117626
0.106958
0.347064
0.295192
0.111356
-0.0588225
0.00641429
0.00757713
0.0671935
-0.0220784
0.0678548
-0.000158702
-0.000452951
0.11568
0.292921
-0.0385799
-0.104941
-0.644189
0.000618053
0.00807339
0.0181979
-0.724671
0.102938
0.249533
0.0576532
-0.117493
-0.00482891
-0.113382
0.103705
0.0807257
-0.228721
-0.394972
0.00438253
-0.0954911
0.0227192
0.215126
-0.00376782
-0.0263377
0.0144486
-0.0390859
0.045151
0.0167976
-0.0447734
-0.0494124
-0.00937565
0.0206258
0.0651352
-0.082256
-0.0166796
0.0626867
-0.138958
0.102135
0.152679
0.009845
0.0352282
0.0433626
-0.0210152
-0.0329788
0.153753
0.00586251
0.00514904
-0.00144659
0.0311416
0.217192
-0.06804
0.0343964
-0.0969834
-0.280603
-0.18884
0.057144
0.0131859
-0.342115
0.044117
0.118986
-0.0278373
0.0656333
-0.0568622
-0.0188943
-0.0233178
0.076283
-0.0543137
-0.337325
-0.0056231
0.182575
-0.0207674
-0.148666
0.0307764
0.0258784
0.0213132
-0.0210092
0.0316718
-0.0359226
-0.10574
-0.00517049
0.0104411
-0.0129096
0.00192771
-0.0439411
-0.00263994
-0.250104
-0.0683778
0.0833609
-0.152562
-0.0589942
0.0358922
-0.0246571
-0.00408376
0.0253801
0.0564783
-0.0344742
0.0466354
-0.00713665
0.0461111
0.235611
-0.0720851
0.000318626
-0.0509676
-0.236044
-0.296244
0.0116702
0.0136292
-0.067619
-0.0116105
-0.146127
-0.00597096
-0.0534262
-0.0426014
0.0296395
-0.00298287
-0.15954
-0.108328
0.0631593
0.0553205
0.0858281
0.0699157
-0.360302
0.00808846
-0.0150718
-0.0303928
0.265347
0.0330865
-0.0942964
-0.161687
0.00429282
-0.0650593
-0.341941
0.0169052
0.0164504
0.0239122
-0.115298
0.0435158
0.0551423
-0.115563
-0.134571
0.0651209
-0.0403
-0.0163831
-0.0358091
-0.0499253
-0.0181906
0.0965612
0.0689277
0.0187163
0.436154
-0.0722296
-0.0170441
-0.0331518
0.0251868
0.0601992
-0.0157817
-0.0225192
0.354058
-0.0460658
-0.0415565
-0.0399977
-0.0983709
0.0606891
0.0483826
-0.0397418
-0.114752
-0.134859
0.339619
-0.0279583
-0.000343706
-0.0399581
-0.163155
-0.0102407
-0.00762528
0.00641385
0.195343
0.0535706
-0.00439085
-0.0162416
0.0321816
-0.0369175
-0.293339
0.00742015
0.027025
-0.00465539
0.0465999
0.0766852
-0.123422
-0.145691
-0.00763257
0.0239562
0.118852
-0.0012106
0.00919798
-0.0735721
0.00663302
-0.0571146
-0.00418389
-0.0477065
-0.464258
-0.0559288
-0.0112951
-0.0685167
0.501407
-0.371308
-0.00991537
0.0488423
0.241771
0.0818164
-0.0107914
-0.0137907
0.0792913
0.0150238
0.0130702
0.0158849
0.0109213
-0.00198955
-0.0440478
-0.0433896
0.0981588
0.019848
-0.0595371
0.00183772
0.0388143
0.0302143
0.107941
-0.0050701
-0.015593
-0.12394
0.0236961
1.3907e-06
0.384639
0.117805
-0.00787591
-0.0403535
0.287569
0.00466141
-0.0753991
-0.341855
-0.0876583
-0.0957865
-0.0407271
0.0272025
0.027653
-0.0319789
0.00920299
-0.0239382
-0.0252166
0.00855513
-0.366461
-0.0611563
0.031845
0.087206
0.014415
-0.413988
-0.025443
-0.0242615
0.154359
-0.0316482
-0.0645249
-0.00624353
-0.0347631
0.0512282
-0.0440822
0.0661845
-0.122332
0.177203
0.0250846
0.0289503
-0.00741954
-0.0244496
-0.224015
-0.010229
0.0309432
-0.00257712
-0.0593858
-0.0194036
-0.00674928
-0.0977304
-0.0110349
-0.0278033
0.850888
0.191369
-0.0415125
-0.000321535
0.351414
-0.034002
0.00933444
-0.360073
-0.202
-0.171954
-0.0777086
0.0381932
0.0153504
0.0583519
-0.0149448
0.0736091
-0.0434291
0.0369748
0.215958
-0.20542
-0.0461161
0.0800293
-0.0247179
-0.229643
-0.0506193
0.0602364
0.0973194
-0.00729326
-0.5257
-0.00142071
0.00989289
-0.00764709
-0.0427185
0.0728656
-0.569147
0.417726
0.113504
0.0430818
-0.0779479
-0.0470397
-0.0869157
-0.0219915
-0.0178845
-0.0258623
-0.136975
-0.0102347
-0.0569812
0.232082
0.0255879
0.0527306
0.837588
0.343803
0.0635805
0.0105575
-0.0816517
-0.163215
0.583409
-0.0927617
-0.300811
-0.341673
0.0775784
-0.00386217
0.00595871
0.144114
-0.0136334
0.151188
-0.0461133
0.0162228
0.523773
-0.207406
0.0242186
0.0406399
-0.0466497
-0.299182
-0.00314392
-0.0616654
-0.322247
-0.0550854
-0.12898
-0.0543221
0.00475092
0.028502
0.00358247
0.00137497
-0.383883
0.531225
-0.226504
-0.016192
-0.253868
-0.014393
0.132074
-0.0107269
0.00694585
-0.023158
-0.0868833
0.0113449
-0.000379404
0.164666
0.0303845
0.00666286
0.111938
0.22406
-0.0743073
-0.0175756
-0.143354
-0.117776
0.318762
0.19899
-0.171326
-0.152861
0.0122599
-0.0097357
-0.034059
0.220442
-0.0156716
0.125606
0.00295004
0.0509832
0.417918
-0.100542
-0.014224
-0.0523549
0.052012
-0.205853
0.00162207
0.0193702
-0.179655
-0.0127777
0.248302
0.0203918
0.0265316
-0.0219298
0.02531
-0.011494
0.075647
0.405679
-0.137804
0.0780499
-0.0427786
-0.0176425
-0.0534843
-0.0394163
0.00787587
-0.0215849
0.0367868
-0.0145003
0.0405282
0.0209751
-0.0197345
0.056343
-0.548049
-0.09758
0.0123663
0.010619
-0.145604
-0.12621
0.124171
0.142579
-0.0343193
-0.0221432
-0.00280632
0.0413384
-0.000682823
0.0628422
0.0205866
-0.0269694
0.0132113
0.0671452
0.339628
-0.0696861
0.0211561
-0.0773008
-0.11152
0.00616359
0.0257611
0.070948
-0.161666
-0.0156269
0.206122
0.00605225
0.147072
-0.0397346
-0.0233179
-0.0125111
0.208606
0.280424
-0.100863
-0.0335531
0.407069
-0.043351
-0.189753
-0.0350159
0.00256609
0.0502503
0.155078
-0.05474
0.135053
-0.0536387
-0.0530784
-0.0297299
-0.762467
-0.324697
-0.0595313
0.00509079
-0.312116
0.0468395
-0.322694
0.123062
0.0252604
-0.0236767
-0.00141042
0.0749457
-0.0833453
-0.0423901
0.061541
-0.0732886
-0.0519024
-0.0370346
0.265198
-0.00600081
0.0264778
-0.081736
-0.274287
-0.107322
0.0475068
-0.00232631
0.0923903
-0.0698191
-0.0807151
0.00339299
0.189164
0.0266966
-0.0245835
0.104423
0.0502968
0.271903
-0.449058
0.0420954
0.426626
0.129215
-0.401397
0.049648
-0.00291506
-0.0438591
0.0491542
-0.044109
-0.116064
-0.177049
0.0588269
-0.0731931
-0.249331
0.0213863
-0.124385
0.0374112
0.575591
0.0862993
-0.292322
-0.48805
-0.0790668
0.158441
-0.102452
-0.041513
0.0611241
-0.2253
0.0321676
-0.0518419
0.0311148
0.0266502
0.28325
0.258395
-0.0976229
0.001496
-0.493562
0.0598293
0.0161891
-0.0143214
0.559673
0.0487449
-0.201801
0.0217276
-0.422405
-0.0712174
-0.0288665
0.052788
-0.642237
-0.29456
0.480354
-0.0673501
0.106511
-0.0176623
0.18012
0.0220487
0.01025
0.0807069
-0.282842
-0.00272625
0.00447968
0.213917
0.0176844
0.0258335
0.307366
-0.00185058
-0.0667477
-0.0684925
0.635357
0.107498
-0.0134263
0.305694
0.299519
0.0316103
-0.106685
-0.0634121
0.0117201
0.0595234
0.0455129
0.0353297
-0.0087155
-0.0114328
0.271213
0.294195
-0.0195437
-0.0546686
-0.374525
0.0765167
-0.0121472
0.0178174
-0.65076
0.0316248
0.0891831
0.00134528
-0.0726754
-0.022359
-0.0237997
0.0954854
0.014474
-0.0885316
-0.333868
-0.0438399
-0.0567458
-0.0257208
0.228501
0.0121949
0.015691
0.0201895
-0.13291
0.021399
0.0288869
0.0822366
0.00797321
-0.00507503
0.215198
0.0620112
-0.0365231
-0.0236256
0.0685013
-0.0855564
0.151151
0.256087
0.0308489
-0.0364892
-0.00863954
-0.0112877
0.0144445
0.0845353
0.0419951
0.0596621
-0.000459195
-0.0115799
0.0694629
0.0113234
0.00642406
-0.0306917
-0.615199
-0.131929
0.00342511
0.0247905
-0.497422
-0.00715634
-0.0276324
-0.0146142
0.112417
0.0862352
0.0103415
-0.00619489
0.0941069
0.111558
-0.369387
0.00464051
0.143715
-0.0398206
0.0161318
0.00201958
0.00860976
-0.00463532
-0.0772687
-0.0103574
-0.00239956
-0.000898968
-0.0262291
-0.0289695
0.240304
-0.026226
-0.0534257
0.00364575
0.0303037
-0.0322865
0.0967254
-0.0661632
0.0119094
-0.0190464
-0.110189
0.0239919
-0.0329412
0.0342631
-0.00368241
0.116282
0.0150387
0.0463596
0.349353
0.0420964
-0.0249616
-0.0136854
-0.209629
-0.357385
0.0112056
-0.00292851
-0.279281
0.000539891
0.044443
-0.0396854
-0.0333602
0.0224305
-0.0158884
0.081204
-0.0128564
-0.0154414
-0.0252152
0.0702978
0.0785676
-0.0130357
-0.181665
0.00154261
0.0997528
-0.00257476
0.0322418
-0.00343552
-0.0787041
-0.0965853
0.0758685
0.0140259
-0.334265
0.0805067
-0.0028865
0.0135766
0.113733
0.131865
-0.0815496
0.144289
-0.0872803
0.0410353
-0.103481
0.0138634
-0.0647474
0.0472527
-0.00865523
0.180247
0.0170915
-0.0665233
0.438249
-0.05229
0.0624143
-0.0769606
-0.214498
0.635435
0.0261721
0.0126448
0.105633
0.00506541
0.0384488
0.0240096
-0.0304274
0.00513343
-0.0208965
0.0504124
0.0398515
-0.263566
0.253954
0.0243345
-0.0988429
-0.0580358
-0.0153146
-0.0380845
-0.0030125
0.0199859
0.177693
0.0116141
-0.00893385
-0.204096
-0.0555658
0.0139116
-0.143838
0.118358
0.0147536
-0.0237149
-0.0318831
-0.00373392
-0.0564529
-0.259056
-0.181802
-0.0420951
0.235745
0.0433223
-0.019603
0.0297665
0.0134582
-0.111352
0.00380884
0.041467
-0.462418
-0.298432
-0.0341234
-0.0576173
0.243267
-0.597051
-0.0432411
0.0171025
0.356424
0.0312495
0.118727
-0.0648081
0.0526238
0.0528996
0.0366774
-0.0450517
0.0893426
-0.158442
0.288699
0.0246923
-0.0742255
0.040281
0.102233
-0.0436103
-0.0200827
0.0340885
0.0366088
-0.0084194
-0.00534044
-0.112023
-0.0306351
0.00104105
0.105486
0.242533
0.0199703
0.017003
0.00292294
-0.088707
0.0536767
-0.305838
-0.167361
-0.0897916
-0.00731321
0.000508827
-0.00474392
0.061257
0.0645394
-0.042265
0.0425507
0.0516611
-0.264845
-0.229705
0.0245041
0.0988765
-0.0700654
-0.547266
0.0126919
-0.00599072
0.202373
-0.0436474
0.195534
0.00723668
0.010868
0.0110183
-0.0771826
-0.051722
0.0938585
0.0992327
0.335524
-0.0185024
-0.430432
0.00218439
0.107907
0.0224657
0.0223561
-0.00509662
-0.217966
-0.00956126
-0.0689731
-0.0257698
-0.0301613
-0.0275576
0.158656
0.421722
-0.0721695
-0.0122614
0.0185038
-0.0135063
0.212835
0.0574493
-0.350158
-0.161519
-0.107254
0.0276793
0.0440241
0.101655
-0.133141
0.283646
-0.0106244
-0.0443488
-0.216693
-0.334649
0.0495724
0.110121
0.200578
-0.468484
-0.0066673
-0.0129322
-0.100549
0.0133636
-0.0936166
-0.026515
-0.0475084
0.0308229
0.0609965
-0.108912
-0.33531
0.326236
0.182858
0.0295898
-0.629762
0.0145134
0.61799
0.0120648
0.0332445
0.0317264
-0.181889
0.0443098
-0.106002
0.103721
-0.0286951
-0.01506
0.017661
0.428208
0.0372513
0.0332659
0.205874
-0.146175
0.323478
0.143917
-0.193594
-0.000853131
0.0888887
-0.00352891
-0.015016
0.155235
-0.0838576
0.198743
-0.0248785
-0.0241959
-0.434071
-0.164886
0.021158
-0.0320903
0.527763
-0.145468
-0.052963
-0.000559851
-0.42027
0.020255
-0.00612153
0.0616498
0.0257415
0.00243011
0.00151248
-0.146089
-0.0232759
0.352922
-0.136514
-0.0301419
-0.820979
-0.0153214
0.828332
-0.0290993
-0.0243006
-0.00453374
-0.103242
0.00763944
-0.010085
-0.0113008
-0.0863075
-0.0155664
-0.44763
0.198668
0.00729216
0.0398582
0.0793395
-0.0148767
0.0406128
0.170901
-0.0205565
0.0896712
-0.0174141
0.00161689
-0.0642001
0.182512
-0.0892327
0.111453
0.0506478
0.0272143
-0.471267
-0.111042
0.0224399
0.0165431
0.635177
-0.110621
-0.00555175
0.010073
-0.268272
0.0522985
0.277854
0.0179895
-0.0122897
0.0265822
0.0282376
-0.0409906
0.229631
0.370789
-0.0305245
0.0351599
0.275219
-0.0574999
-0.531803
-0.0514109
-0.00354573
-0.0208291
0.100914
0.0544787
-0.0608687
-0.125606
0.0160179
-0.0148535
-0.788852
-0.407881
-0.052805
-0.0414073
-0.0915828
0.124705
-0.169374
0.115543
0.120695
0.120886
-0.00274326
-0.0904618
-0.0528336
0.00921589
0.00923387
-0.109664
0.012143
0.0957147
0.638417
0.0179327
0.00129791
-0.0239604
-0.183332
-0.0786598
-0.0173108
-0.000110791
-0.0214315
0.0100608
0.371842
-0.0118862
0.0738689
-0.0504274
0.0245773
0.0340463
0.408581
0.172835
-0.144816
-0.055497
0.720639
0.135264
-0.739301
0.0376879
0.126683
0.0348239
0.340807
-0.0841589
0.0680017
-0.0679678
-0.0192347
-0.0362145
-0.438688
-0.503008
0.102137
-0.0956094
-0.294031
0.134174
-0.136961
-0.321854
0.0121138
0.0705864
-0.0378296
-0.0381853
-0.0738373
-0.122281
0.0980497
-0.0252458
-0.0456934
0.0413036
1.15956
0.164571
0.058136
-0.115608
-0.589823
-0.060075
-0.0434783
0.0321642
0.337519
-0.0704947
-0.0451936
-0.061221
0.0216449
0.0716636
0.0269013
0.169751
-0.195486
0.0237019
-0.40019
0.0307924
0.377945
-0.056009
-0.215071
-0.0350382
-0.028578
-0.0347258
-0.0119424
-0.0181027
0.0653194
-0.0595168
0.0160427
-0.0408529
0.265176
0.178164
-0.0243342
-0.0641753
0.0583976
0.0744817
-0.0514424
-0.0951265
-0.165276
0.0649341
-0.14007
0.0258639
-0.00309734
-0.125063
-0.0229254
-0.00241213
0.0251659
-0.0217791
0.166659
0.302292
0.0478467
0.118082
-0.606817
0.0109642
-0.00619796
0.0147468
0.350946
0.0780192
-0.0339017
0.0621531
-0.388509
-0.106828
-0.13584
0.0229803
-0.450798
0.146873
0.459209
0.149669
-0.0334868
0.00700294
0.177229
-0.0600019
0.1465
0.0219333
-0.0950016
-0.0738725
0.0928776
0.115414
-0.106426
0.0599257
0.51536
0.131451
-0.134715
-0.100001
0.579448
0.0173805
0.148543
0.346748
-0.0109192
0.0347225
-0.115702
0.0125416
-0.0271613
-0.0164242
0.0442149
0.106001
0.0974623
-0.00945201
0.300122
0.0533832
0.044103
-0.0307134
-0.166348
-0.0632803
-0.0386105
0.0841141
-0.386955
0.118358
0.0359783
0.0154134
-0.0951664
-0.0730792
-0.00733903
0.0685501
0.0437409
0.0276304
-0.142295
0.0276627
-0.0978555
-0.0276907
0.286456
-0.028661
0.00401046
-0.0305252
-0.091951
0.0281857
0.0248307
0.0598051
-0.01879
-0.0160212
0.187989
0.112015
0.0186731
-0.0358453
0.0616403
-0.0843531
0.134587
0.115461
0.0591953
-0.00573197
-0.0610712
0.00963352
-0.061432
0.0911762
0.000681521
0.147136
0.0504016
-0.0514007
-0.178446
-0.0144595
0.024887
-0.0394784
-0.510278
-0.200739
-0.0472141
0.0254715
-0.494726
-0.040806
0.00966864
-0.015381
0.127808
0.0156381
-0.0102236
-0.0325699
0.0866301
0.142748
-0.529003
0.047561
0.0679244
0.00513892
0.0223145
-0.0333369
0.0340217
-0.0249665
-0.122807
-0.000634367
-0.0174439
-0.0290039
-0.00766157
0.00784384
0.0464917
0.0527481
0.0106702
-0.0265661
-0.247209
0.0553642
0.109532
0.0500552
0.0534477
0.0202906
-0.208795
0.0297709
-0.0157764
0.037934
-0.0544789
0.276626
0.0367331
0.000413629
0.245231
0.0612083
0.0405949
0.0593986
-0.267549
-0.348245
-0.0410302
-0.0505093
-0.279344
-0.0422456
0.0776699
-0.0123171
-0.0823416
0.0157984
0.0286121
0.00955163
5.96192e-07
0.0486049
-0.303927
0.0393345
-0.0669029
-0.0217431
0.0471846
0.0419194
-0.0405762
-0.0527221
0.0506147
0.0274685
-0.0703037
-0.0220199
0.0182605
0.0663846
-0.173604
0.135902
0.0717087
0.0397004
-0.0101716
0.153368
-0.039294
0.131499
-0.0471326
-0.0316195
-0.180567
0.0222628
-0.00294006
0.0802975
-0.0217327
0.247473
-0.0165054
-0.015369
-0.0505522
0.0701717
0.00493791
0.0205453
-0.0115065
1.20994
-0.0232079
-0.04884
0.107316
0.0216492
0.105098
-0.00337179
-0.0432089
0.0212142
0.0561892
-0.0539334
-0.0135855
-0.0733451
0.457501
-0.014325
-0.292348
-0.0183913
0.257765
0.00603682
0.064827
-0.0515286
0.183475
0.0554361
-0.0442722
-0.067115
-0.0255599
-0.0828248
-0.60585
0.125923
-0.0570053
0.033808
-0.243641
0.0111217
-0.0206348
-0.0267848
-0.158119
0.0435537
0.380307
-0.0113459
0.0249647
0.0593641
-0.0125821
-0.308023
0.0348497
-0.0138701
-0.284747
-0.0921412
-0.0748372
-0.128542
-0.0133267
-0.550766
0.0371887
-0.0198949
0.369503
-0.0389459
0.211081
-0.0152717
-0.0763883
0.0260803
-0.0177633
-0.0654724
0.110065
-0.259145
0.513347
-0.0389627
-0.483689
-0.0141378
0.129624
0.0264879
0.00679172
0.0670101
-0.148031
-0.0122207
-0.0134444
-0.0907077
-0.0872943
-0.0229197
-0.306721
0.310038
-0.053841
0.0324541
-0.164862
-0.0306846
0.0697625
-0.0669853
-0.107345
0.106777
0.0482463
0.0475046
-0.0397204
-0.0429958
-0.0530919
-0.108916
0.0031666
0.0558879
-0.399667
-0.205491
0.0250138
-0.0337169
0.448119
-0.947688
0.0390826
-0.0180124
0.158609
0.0425669
0.419219
-0.0219081
-0.156111
-0.0370944
-0.0185818
-0.00782235
0.303661
0.142783
0.468186
0.0173868
-0.42849
-0.073877
0.12167
0.0192837
0.0421589
-0.0134585
-0.25286
0.0287421
-0.0672712
0.0342706
0.0352291
-0.0640015
-0.36675
0.29299
-0.00761277
-0.0382684
-0.0586666
0.0401644
0.169873
0.174156
-0.251537
0.0900327
-0.186899
-0.0320468
-0.0281951
0.078394
-0.191579
0.407637
-0.00744616
-0.0323668
-0.62381
-0.22732
-0.0203729
-0.0507706
0.518246
-0.425056
0.0108296
-0.0297634
-0.0644608
0.0331787
0.122531
-0.0263982
-0.108065
-0.0538815
0.0310604
-0.159126
0.0272498
0.431839
0.0711628
0.0752611
-0.61617
0.059059
0.866701
-0.0334212
-0.0261499
-0.00980265
-0.168199
0.090313
0.00352375
-0.0169196
0.020681
0.0233266
-0.841672
0.107839
-0.0703909
0.0293737
0.241652
0.0386199
-0.00555174
-0.0758524
-0.0201831
0.0473408
0.0229738
-0.0252041
0.0191111
0.281082
-0.0305774
0.246473
0.00471821
0.0739025
-0.212533
-0.245383
-0.0213678
0.058974
0.43666
-0.0503364
-0.00673521
0.047274
-0.332163
0.0455967
0.0496285
0.0291776
0.264227
-0.0274059
0.055033
-0.279548
0.254234
0.290181
-0.190887
-0.0500165
-0.176183
-0.0626989
0.110932
-0.00330691
0.00706257
-0.00388473
0.0529857
-0.0332858
0.00447057
-0.108326
0.00719968
0.037185
-1.02921
-0.134823
0.0309115
0.103307
0.328526
0.0523394
-0.389641
-0.395282
0.228231
0.127205
-0.0939785
0.00115675
-0.0909169
0.153259
0.0546374
0.0811401
0.0174843
-0.0400219
-0.142534
-0.0669409
0.00437833
-0.036147
-0.0307268
0.0703068
0.131671
0.0145222
-0.139534
-0.0679361
0.457499
-0.0317713
0.189838
-0.00522059
0.0543704
-0.0423544
0.363302
0.0214645
-0.0501189
0.179523
0.768634
0.0190623
-0.795964
-0.0936984
-0.0561282
-0.133952
0.252218
-0.0348886
-0.13934
-0.118571
-0.0169167
0.0207231
-0.48213
-0.761266
-0.0459335
0.00582479
0.142614
0.140358
-0.174199
-0.25356
0.225113
0.0963423
-0.0812336
0.0567027
0.143958
-0.191637
0.032921
-0.0186052
-0.0979917
-0.0693469
0.709538
0.0507525
-0.0242924
-0.134743
-0.402574
0.0115247
-0.0886293
-0.0554656
0.195258
0.0624408
0.254727
-0.0847329
0.137392
-0.0526195
-0.0105691
0.194348
0.237909
-0.244536
-0.328631
0.0204029
0.63105
-0.0462248
-0.406002
0.0541691
0.0707667
0.0881117
0.157786
0.140999
0.0773592
0.084316
-0.0504608
0.046986
-0.170607
-0.276915
-0.077216
0.00951301
-0.644605
0.07795
0.0726517
-0.032113
-0.0579336
0.014207
0.0599874
0.0367488
-0.0157163
-0.00834937
-0.01368
-0.0898724
0.0189229
0.0298101
0.947919
0.0721327
-0.00972759
0.0408348
-0.55823
-0.171456
-0.0196205
0.103666
0.224882
-0.0814096
-0.234903
0.119647
-0.00177348
0.0195016
0.010849
-0.0306264
-0.128917
0.355466
-0.24912
-0.0689982
0.0686283
-0.0291689
0.0534885
-0.0780059
-0.0561652
0.0767538
-0.0730045
-0.0101109
0.0610697
-0.00574589
0.0355158
0.0369972
0.439039
0.160059
-0.0465162
-0.0628498
0.0771512
-0.0574933
0.0149147
0.276132
-0.171798
-0.0946909
-0.0402384
0.0889282
-0.0349282
-0.0206636
0.00588422
-0.0425665
-0.0410728
0.0510762
0.592071
0.021151
-0.0356276
0.0779215
-0.163823
0.256017
-0.0946538
-0.100338
0.279954
-0.00357301
-0.0506032
-0.0571586
-0.132323
-0.0123573
0.0331514
-0.0563293
-0.333577
0.375383
0.255944
0.104024
-0.195461
0.0146386
0.180551
-0.148423
0.0754893
0.0857539
-0.210287
0.0662373
-0.0311478
0.199795
-0.136936
-0.0300812
0.147378
0.0387529
0.0243335
-0.118089
0.393025
0.13292
0.1232
0.237005
0.0286502
-0.0518701
-0.0639442
-0.0213429
0.0731884
-0.0262056
0.0801462
0.126313
0.0773772
-0.0933193
0.186688
0.18098
-0.0845066
-0.0109079
-0.174633
0.349688
0.0392217
-0.0896914
-0.555862
-0.114067
0.0486278
0.216299
-0.107164
-0.0482056
0.0458204
0.0321372
0.0271501
0.304237
-0.196812
0.046241
-0.188182
-0.033018
0.277773
-0.101554
0.0549042
-0.0390059
-0.149864
-0.0309094
0.0190486
0.0692549
0.0124961
-0.0536529
0.140129
0.0649713
-0.087001
-0.0638785
0.181109
-0.102455
0.185824
0.704942
0.0960736
0.0471073
0.0280624
0.00161557
0.0127362
0.118188
0.00482033
0.0999138
-0.0138056
-0.038558
0.0224999
0.0779295
0.0532167
-0.0585406
-0.363053
-0.0382158
0.00860547
0.0113357
-0.590218
0.0687073
0.0577968
0.0233684
0.0610696
-0.0185812
0.0276647
-0.0341163
0.0407909
0.239128
-0.675947
0.0380937
0.114999
0.036345
0.00878213
-0.0443818
-0.0175926
0.0115284
-0.136897
-0.00634327
-0.0700031
-0.00357117
-0.0378438
-0.0801091
0.335943
-0.0513165
-0.0182673
0.00113386
0.180021
0.0368149
0.12426
0.329021
0.0383048
0.0730892
-0.113075
-0.0197736
0.0832793
-0.0220377
0.0198638
0.0925224
-0.0259331
0.0366758
0.478208
0.153786
-0.0444105
-0.0519833
-0.481834
-0.112039
0.0246184
-0.000480463
-0.412247
-0.0171991
0.0680473
0.0166375
-0.154336
-0.00578976
0.00495441
0.0550387
-0.0165386
0.0152654
-0.300239
-0.0178512
-0.077519
0.114767
0.196452
-0.0215977
0.0144399
-0.0470788
0.0425365
0.0764487
-0.0355361
0.0594409
0.0312947
-0.0566639
0.129831
0.139746
0.0466156
0.0267955
0.161641
0.117765
-0.00349651
0.246289
-0.00652239
-0.0594184
-0.032459
-0.0511327
0.00301672
0.0567305
-0.0462963
0.107791
-0.0182369
-0.0193103
-0.0252327
0.106727
-0.0525603
0.0234009
-0.125879
1.19141
0.0234231
0.0192602
0.10808
0.0335099
0.0551424
0.0430874
-0.0549166
0.0120176
-0.0244181
0.0642118
-0.0656606
-0.040467
0.615286
0.0309004
-0.0742092
-0.0455225
0.103531
-0.112514
-0.0502577
0.0528243
0.109479
0.023871
-0.0102965
-0.111566
0.0749667
-0.0252336
-0.283988
0.132009
-0.105031
0.0127359
0.14363
-0.069732
0.0030452
0.0748146
-0.0845167
-0.11854
0.293144
0.0342836
0.0232331
-0.065704
0.0687422
-0.464345
0.0182747
0.139022
0.170915
0.0835709
0.216582
-0.0141918
-0.201165
-0.457986
0.00395242
-0.0471857
0.295995
-0.0249427
0.265271
-0.10554
-0.218954
-0.04644
0.0431715
0.173449
-0.0163344
-0.385764
0.504612
-0.0260059
-0.00394235
0.0120399
-0.176498
0.0497878
0.0272324
-0.0839117
-0.0706076
-0.0982887
-0.0650585
-0.0234837
-0.0403393
-0.0514818
-0.0713332
0.167252
0.0157527
-0.0417086
0.0131514
-0.00650404
0.0829768
0.157203
0.0552316
0.10337
0.130893
-0.0137473
-0.00858903
-0.0864219
-0.0271181
-0.23449
0.0923066
0.0252083
0.192684
0.0252864
-0.0543421
-0.128989
0.237441
-2.04335
-0.0103032
-0.00379027
0.17136
-0.0686938
0.358757
0.070963
-0.227066
0.100204
-0.0284678
0.160245
0.172251
-0.49905
0.215377
0.0876184
-0.0356347
0.02625
-0.0410576
0.00550462
0.0731684
-0.0405191
-0.178648
0.0140466
-0.0292626
0.147826
0.00588789
-0.00551376
-0.329372
0.200549
0.0176367
-0.00114703
0.0231674
0.043823
0.155409
0.381304
-0.0307482
0.103035
-0.20133
-0.0826729
-0.00786723
0.0999047
-0.0384501
0.353826
-0.0771311
-0.121824
-0.00178048
0.0230358
-0.046198
-0.0679142
0.10674
-0.815467
0.000488467
0.0515517
-0.0824235
-0.0655582
0.236575
-0.0368389
-0.0251715
-0.030957
-0.0526498
-0.123427
0.119062
-0.571508
-0.276448
0.0275428
-0.240152
0.0264398
0.584737
-0.0312218
-0.0769058
-0.0616668
-0.0421463
-0.0347641
0.0744205
-0.0393833
-0.0750384
-0.0402068
-0.514412
-0.0907743
-0.00301694
0.0581955
0.351845
0.0944409
-0.150745
0.0692438
0.109353
-0.00256954
-0.0807592
0.108396
0.00273061
0.188335
0.0337199
0.118535
0.00758085
-0.0618706
-0.0116424
-0.032004
0.0517277
-0.0426372
0.0615733
-0.39103
-0.0275901
0.0679406
-0.310695
0.0636316
0.182209
0.120572
0.192475
0.0919273
-0.0214493
0.0297116
0.255987
-0.377855
-0.178611
-0.0424573
0.21766
-0.108521
-0.136032
0.0846196
0.0528371
0.0177236
0.139503
0.0280982
0.0753213
-0.0553156
0.0399204
-0.0271326
0.0170562
-0.158028
-0.0460253
0.067975
0.34544
0.0730195
-0.234737
-0.233551
0.332083
0.0302685
-0.132695
0.0308544
-0.0418975
0.0394943
0.0314596
0.00544329
-0.0324695
-0.0771118
-0.0638566
0.122009
0.0945685
-0.129808
-0.296998
-0.223122
-0.0257952
0.0861829
-0.22991
-0.0748785
0.344918
-0.0465516
0.0302271
-0.0593876
-0.0571397
0.390676
0.331277
-0.374796
-0.117135
-0.134598
0.492922
-0.0353403
-0.624679
-0.124995
-0.0364977
0.0518916
0.0349065
-0.0912418
-0.0814801
0.0681996
-0.0249376
0.0255482
-0.35369
-0.487911
0.0392197
-0.182862
-0.164597
-0.00887476
0.148955
0.0725785
0.118861
-0.00396252
-0.118388
-0.0682361
-0.0724791
-0.0818633
0.0540824
-0.0514422
-0.0889857
-0.0376024
0.861046
0.0861203
-0.0861911
-0.0582352
-0.364513
-0.333643
-0.13133
-0.13672
0.0891221
0.0209606
0.181307
0.0764912
0.0322033
0.0300063
-0.0697982
0.202635
0.129766
0.204291
-0.145926
0.0661909
0.564388
-0.0130981
-0.257243
0.0270127
0.166135
-0.00307184
0.0847342
0.0780466
-0.0298965
0.0615972
-0.0932457
0.0164633
-0.445375
-0.0355416
-0.0415515
-0.0388855
-0.722869
-0.0325241
0.215271
0.258647
-0.178175
-0.100158
-0.00380602
-0.138511
-0.0074205
0.0858072
-0.10074
0.125248
-0.0337846
0.0779745
1.13362
-0.199869
-0.040665
0.0146779
-0.58839
-0.348138
0.214329
0.0374763
0.201935
-0.0545883
-0.189754
0.0183694
0.123142
0.0696322
0.117786
-0.128478
-0.0560517
0.487217
-0.0502247
0.0268224
0.0743825
-0.00469811
0.206728
0.03737
-0.0125149
-0.0291972
-0.108305
-0.0941939
0.10153
0.158491
0.0708122
-0.0276007
-0.267656
0.0852745
-0.0833085
-0.0196154
-0.0338881
0.0438503
0.0498033
0.0927364
-0.0242668
-0.091897
-0.0234009
0.194602
-0.0259951
-0.124319
0.180941
-0.139166
-0.0584235
-0.0146941
1.21884
0.0214697
0.0580473
0.003413
-0.178682
0.135638
-0.0115246
0.168968
0.146603
-0.0347171
-0.0303472
-0.152603
0.0793748
-0.0932973
-0.12069
0.0210941
-0.193
0.200077
0.407009
0.019616
-0.0092206
0.104941
-0.16466
-0.126749
-0.198004
0.0707022
0.0587175
-0.0260577
-0.11936
0.113925
0.199089
0.120618
-0.131908
0.108956
-0.134045
0.327745
0.0302234
-0.309684
0.0862384
-0.474311
-0.0652421
-0.054828
0.0606524
-0.0484565
0.018577
-0.00634822
0.050737
0.0579355
-0.157847
0.258715
-0.150834
-0.0408532
0.156461
-0.154452
0.0247062
0.201199
0.328971
-0.15724
-0.357331
-0.173349
0.143833
-0.0426483
0.235508
0.0604688
-0.0337629
-0.163083
0.129561
0.0601177
-0.133414
-0.0405967
0.0189547
-0.000437806
0.0682348
-0.00222356
-0.0308388
-0.0570296
0.00543237
0.122737
0.110796
-0.0242928
0.0241863
-0.147676
0.181868
-0.0198834
-0.0556564
-0.0659205
0.0656038
-0.0706912
-0.0170417
-0.0114304
0.124007
0.00315399
-0.0502428
-0.0631715
0.217133
0.0276871
0.124027
-0.0640338
0.207352
0.156856
0.238237
0.11648
-0.119808
0.0625723
-0.199349
-0.180773
0.0653099
-0.177101
-0.265569
-0.0442127
-0.0836831
0.0610031
-0.0603941
0.103738
-0.0593457
0.0372181
-0.0796262
0.494857
-0.793204
-0.0461646
0.00884422
-0.0704155
0.325654
0.12379
0.0135414
-0.0589482
-0.252929
0.0340203
0.00657092
0.0435223
-0.0210606
-0.0332069
0.498613
0.0108908
-0.0363748
0.0483227
0.265085
0.12294
0.0330925
0.510113
0.141834
0.0543173
-0.140248
0.0502427
0.0543335
0.020569
-0.01138
0.105305
-0.044401
0.0537389
0.693688
0.283989
-0.0679738
0.0616961
-0.460181
-0.0411376
0.0433989
-0.0179651
-0.449593
-0.119979
-0.00721661
-0.0402267
-0.148072
0.0919663
0.0348567
-0.0683571
0.015136
0.189197
-0.254468
0.00510097
0.121441
-0.0702002
0.30459
0.0599974
0.0105359
-0.0569977
-0.105722
-0.0205317
0.00520191
0.0499758
0.0496436
0.111122
0.0880573
-0.0149123
-0.0480491
0.0296416
0.159617
0.304905
-0.0161079
0.927532
0.073019
-0.0239181
0.0420167
0.099387
-0.0687394
0.0665426
-0.136659
0.0558742
-0.055622
-0.0349541
0.221794
0.253119
0.0833159
0.103507
-0.404695
1.14005
-0.0876778
-0.0108869
-0.375507
-0.0109381
0.0650644
0.0116036
-0.12674
0.0358757
-0.0570144
-0.108787
-0.0491325
0.26565
0.907066
-0.00379901
0.133879
-0.0465537
0.0976297
-0.0445366
-0.0967581
0.137887
-0.270876
-0.0292513
-0.0232752
0.0195345
-0.1193
-0.0261179
-0.441233
0.0675253
-0.0405446
-0.0670735
0.123338
-0.0426808
-0.0849524
0.532173
0.156262
-0.0179888
0.182841
-0.0786174
0.0878323
-0.126249
0.076728
-0.648006
0.0854724
0.181399
0.208712
0.346838
-0.177548
0.0747796
-0.533944
0.639923
0.0790454
0.0699829
0.124299
0.0138088
0.223979
-0.0590735
-0.314761
-0.00310783
0.0366542
0.249145
-0.0429237
0.0763149
0.779071
-0.0859956
0.202318
-0.0628982
-0.222167
0.0306529
0.0632932
-0.0310935
-0.0629132
-0.075127
-0.0112396
-0.0724627
-0.0104845
0.0250246
-0.565603
0.163051
-0.0627324
-0.108171
0.167735
0.121109
-0.0168628
0.703375
0.122325
-0.0612004
0.025123
0.149917
-0.0334943
-0.103992
0.0273816
-0.321267
0.0751439
-0.025946
0.390129
0.33878
-0.0250558
-0.106363
-0.147261
-0.593034
0.0642977
-0.141035
0.177676
-0.011763
0.18629
-0.0473805
-0.326592
-0.0630077
-0.135026
0.434299
-0.174679
-0.184011
0.110459
0.158723
0.330268
0.00612552
-0.138407
0.126475
-0.0380675
0.0724789
0.0505486
0.106819
-0.0330513
0.027914
0.0726952
-0.100529
-0.323779
0.0580343
0.0317684
0.103566
0.403542
0.0812087
0.308271
0.674548
0.0470285
-0.0251297
-0.159641
-0.0798034
-0.00103915
0.187073
-0.00444417
0.393509
0.0536416
-0.0222522
0.293757
0.164454
0.00276477
-0.399799
-0.220374
-1.95943
-0.149036
0.0431995
-0.259798
0.0417924
0.391634
0.0343955
-0.195545
0.0826213
0.175723
0.527468
0.164894
-0.40382
-0.425406
-0.0241453
0.00327349
0.0659462
0.180824
-0.0114056
0.145076
0.0608792
0.0760463
0.0526559
-0.0773978
0.121256
-0.0680728
0.00250028
-0.00303861
-0.135132
0.113176
0.0645588
0.64703
0.0708128
0.0236112
0.0704426
0.405438
0.0513623
-0.170013
-0.0107194
0.140678
0.180264
0.107865
0.11041
0.0171939
-0.0588168
-0.0839176
0.286124
0.011353
-0.274267
-0.33377
-1.29777
-0.00477865
-0.0968734
-0.500354
0.17239
0.231818
0.106487
-0.00674136
-0.0368173
-0.0924494
0.58072
0.37873
-0.253496
-0.189939
-0.0489645
0.426721
0.00784989
-0.212734
0.077744
-0.10349
-0.0531095
0.0486001
0.02348
0.0662327
0.0281144
0.122377
-0.0411821
-0.37279
-0.0353659
-0.0288829
-0.0691527
-0.0731743
-0.0248693
0.149695
0.0333878
0.263857
-0.017034
-0.244797
0.0975859
0.0135676
-0.0478632
-0.0692154
0.0588444
0.0878135
0.0510707
0.452888
0.131927
-0.0227845
-0.0862933
-0.603378
-0.554142
0.101247
0.000201246
-0.366968
0.0486651
0.307715
-0.0766975
-0.117051
-0.11977
0.0986779
0.306855
0.382849
-0.0930357
-0.196152
0.0294492
0.701813
0.193866
-0.327536
0.097221
0.061404
-0.0756777
0.0667571
0.0261867
-0.00510819
0.0527343
0.0624053
-0.02807
-0.29521
-0.37357
-0.0385319
0.141219
-0.454299
-0.0504036
0.270773
0.453066
0.0719343
0.0514103
-0.206532
-0.0641281
-0.139651
0.0676224
-0.0462522
0.17044
0.0840508
-0.0961014
1.22465
0.0133709
0.0337004
0.0957871
-0.665061
-0.572766
-0.0231639
-0.0210896
0.124186
0.0108852
0.193317
-0.0604556
0.0533752
0.0955278
-0.113297
0.0808916
0.151119
0.102729
0.117972
-0.0497455
0.227459
0.0622937
-0.00448243
-0.0430409
-0.0684529
0.218999
0.244269
-0.00472409
-0.0426249
0.0894026
-0.122425
0.100113
-0.366578
-0.0421181
-0.00451605
-0.010723
-0.725934
-0.0699338
0.0685133
0.706417
-0.264375
0.0555597
-0.0573443
-0.0699887
-0.0592792
-0.0589457
-0.0125193
0.0352292
-0.0693915
0.137388
0.706125
-0.161026
0.0421501
-0.00814922
-0.385668
0.0166382
0.124721
0.0219058
0.520295
0.0129546
-0.00971679
0.140631
0.17605
0.0447865
0.0327243
-0.215788
0.17745
0.197388
0.530367
0.0412919
-0.099455
-0.201313
-0.0382641
-0.000454403
-0.0486391
-0.189874
0.00886193
0.0143443
0.0795846
-0.00258749
-0.00251662
-0.0161864
-0.160998
0.0621757
0.138549
0.181154
-0.699593
0.00952085
0.114704
0.805775
0.318322
0.191472
-0.275287
-0.105872
0.0605554
0.116063
-0.00731564
0.331132
0.242707
0.0619436
0.81527
0.116465
-0.0811836
0.00673516
0.0210731
0.342329
-0.149866
-0.147315
0.213546
0.0722465
-0.0583796
-0.147233
0.128072
-0.00549489
0.108002
-0.192382
-0.0389263
0.163179
0.265814
50
-0.162146
-0.0205355
0.00777058
0.405946
0.13231
-0.31352
0.0350861
0.0936996
-0.0135285
0.48225
0.305254
0.180015
0.206775
0.109262
-0.0625212
0.219718
-0.0110489
4.2173
-0.351621
-0.0901399
5.00472
1.06033
0.194421
-0.236667
-0.0764985
0.185876
0.24404
0.361542
-0.633562
-0.174236
-0.336633
0.310236
-0.254245
-0.066126
0.237161
-1.2913
-0.722659
0.0850236
-0.183076
1.30228
-0.170625
-0.576984
0.0699605
0.820746
0.0949565
0.0444519
-0.285992
1.62011
3.52079
4.22275
500
-0.0192698
0.0287093
-0.0309805
-0.00312279
0.00980739
-0.0268712
-0.00378814
0.0195579
0.0258728
0.00310137
0.0149752
-0.00166455
0.0664809
0.0603001
-0.202867
0.0205501
-0.0101299
-0.0222149
0.197816
-0.184077
0.0125013
-0.0102471
0.019797
-0.0252655
-0.0181288
-0.0198547
-0.000968111
-0.0125603
0.0123283
0.0235313
-0.00932979
0.00955914
0.0134977
0.00249832
0.135764
-0.0145282
0.00125648
0.00217365
0.0272724
-0.177875
0.00502604
0.0041057
0.0399227
-0.0171013
-0.0242088
-0.0212992
-0.00499429
0.00872101
0.028174
-0.0103111
0.029369
-0.0109425
-0.0142766
0.00408848
-0.0124132
-0.0170787
0.0148529
0.0082889
0.00141068
-0.00753257
0.0280601
-0.00654224
-0.0464101
0.0138927
0.00365276
0.0151518
0.0131551
0.0017931
-0.00810246
1.69174e-05
-0.0289259
-0.000957419
0.0240147
0.0768378
0.0531177
-0.0344873
0.0131576
0.033906
-0.0855669
-0.0554741
-0.00159263
0.0253946
-0.0170441
-0.036462
-0.0282263
-0.0168188
-0.00144851
0.0170855
-0.0123966
0.0138714
-0.0119337
-0.000283571
0.0240064
-0.0228789
0.0166091
0.0237639
-0.000166072
0.00645789
-0.037932
0.00285028
-0.0444655
-0.00737055
0.0196165
0.14375
0.0111978
-0.0475039
0.00289311
-0.0169166
-0.043363
-0.0126853
-0.0118846
-0.00123364
0.0183028
-0.0374514
-0.0137497
0.018827
0.00425981
0.0183251
0.0027792
0.019237
-0.0221006
0.0105094
0.011911
0.0331527
-0.0138999
0.0145639
-0.025049
0.00480067
-0.00935244
-0.00144892
0.000765323
1.11368
-0.0485167
-0.0493258
-0.0290983
-0.0517806
-0.0145157
-0.016251
-0.17833
-0.0315281
-0.0185422
-0.0108932
-0.0449669
-0.0236745
0.0249985
-0.0364053
-0.00968729
0.00922882
0.16631
-0.0190385
-0.00344651
-0.0077608
-0.00260386
0.00839024
-0.0137476
-0.0445197
0.0212807
0.0150517
0.0191442
-0.00452161
-0.0134649
-0.0388181
0.052356
0.0343617
0.0011534
0.00780684
-0.00217483
-0.0374127
0.0234154
0.0123105
0.0364789
0.0140216
-0.822737
0.0844608
0.0479271
0.0409887
0.0228311
-0.0219296
0.100526
0.0315682
0.0185935
-0.00830577
-0.067632
0.0532288
0.0270847
-0.0659783
0.00399128
-0.0274907
0.0307764
0.0360332
-0.0280455
-0.0037267
0.0658172
-0.144308
0.0304808
-0.0578336
0.0220019
-0.018153
0.115541
0.00978539
0.0142878
0.0143374
0.0727888
-0.70214
0.0221703
0.0836138
-0.00384873
0.0216187
0.0286341
0.0362719
0.0452874
-0.0131208
0.0334688
-0.066717
-0.00308436
0.063892
-0.00332872
0.0221486
-0.132598
-0.00661456
-0.14388
-0.00643122
-0.0172307
0.0130007
-0.0176998
0.0671994
-0.00409025
0.0230904
0.0569952
0.0494128
-0.0516546
-0.00699525
-0.100661
-0.0176252
-0.0362779
0.273122
-0.020751
-0.00034374
-0.0325978
0.0243933
-0.00774915
-0.0126647
0.005649
0.0049212
0.00440241
0.0362953
-0.00365286
-0.0151153
-0.0203981
-0.00674823
-0.00185682
-0.0150432
-0.0507982
-0.0162723
-0.00879618
0.0427404
0.0245807
0.0317404
-0.0037607
-0.0108047
-0.00531841
0.00821547
0.0382441
0.0559569
-0.0788319
-0.0665844
0.00318031
0.0066036
-0.103428
0.088164
-0.0392542
0.00747329
-0.00342454
-0.0134818
0.017773
0.0415603
-0.0079319
-0.00802134
-0.0134491
0.028184
-0.0259942
-0.0151367
-0.047504
-0.0379011
0.0251791
0.230053
-0.00401928
-0.0142614
-0.0233431
-0.0391145
0.0479708
-0.0220858
0.0198347
0.0183889
-0.0229912
0.0140785
0.00796064
-0.016607
0.0149116
-0.0231922
0.00358846
0.00189658
-0.0352519
0.0269755
0.0111645
0.0154896
0.0135682
-0.015771
0.0269051
0.000689855
0.0101098
0.0125778
0.0420536
0.0379123
0.040537
0.0360077
-0.00425736
-0.766579
-0.0245808
0.375921
0.0131227
0.00206145
-0.0799941
-0.0926812
0.00325646
0.0443143
0.0185098
-0.00135872
0.149785
-0.0211682
0.0144147
0.000376288
-0.00173237
0.0119757
-0.00806212
-0.0174317
0.00166645
-0.0119188
-0.00997415
-0.00468748
-0.112805
-0.00495664
0.0322183
0.064402
-0.00476842
0.128309
-0.025895
0.00784234
-0.00785657
-0.0419178
0.000438356
-0.00269505
-0.0171997
-0.0109901
-0.198616
-0.00351368
-0.0192899
-0.0119451
-0.0102008
0.312717
-0.0397118
-0.00486926
-0.015141
-0.121862
-0.0280102
0.794262
0.0176197
-0.0176314
-0.0456762
-0.0155035
-0.0424245
-0.0123013
0.0331493
-0.00198213
0.00296871
0.0317994
-0.031687
-0.0193782
0.0233209
0.0294709
-0.00755894
-0.00977228
0.00952989
-0.00456057
0.0176071
-0.0341006
0.0185736
-0.00826079
-0.00516435
0.00504054
0.00842796
0.00569283
0.0329878
-0.0365407
-0.313696
0.00745059
0.000215477
0.046679
0.0518311
0.125696
0.0251314
0.0015489
-0.00356119
-0.0231144
-0.0137743
0.00366361
0.00892809
-0.000959412
0.022404
-0.00528937
0.0032911
-0.0102827
0.00725354
-0.0245917
-0.0254984
-0.0218179
0.00322201
-0.00639849
0.200006
-0.0753584
0.00150991
0.00909288
-0.0104245
0.0131547
0.0195781
-0.00853177
0.0186924
0.0088647
-0.0158634
-0.0204872
-0.0230993
0.00165975
-0.0189827
-0.0647347
-0.0335291
-0.0393444
-0.0289929
0.00437834
0.24059
-0.0037888
-0.023822
0.00700544
-0.0143431
0.0143283
0.000484079
0.0340151
0.0234876
-0.0108356
-0.00397989
-0.020812
-0.0271473
0.0160102
0.0287409
0.0269594
-0.00537829
-0.0307992
-0.00701741
-0.0130458
0.0143315
-0.0325348
-0.107888
0.00118417
0.054091
0.00651469
0.0150627
0.0637444
-0.019151
-0.0178132
0.0581785
-0.0330733
0.0449227
0.0166157
0.0372804
-0.0466073
0.0262927
0.024942
0.00285965
0.00666505
-0.234316
0.0418557
-0.847375
0.00365389
0.0604541
0.04128
0.0308553
0.0721007
0.0138525
0.042173
0.0653746
0.00778576
0.0395535
-0.00260463
0.0961771
0.0084544
0.304759
0.0488946
-0.966751
-0.0242087
0.087193
-0.0323143
10
0.708313
1.06795
0.489153
0.427431
-0.085812
0.764642
0.912269
0.699516
-0.37474
-0.189564
